tree
version=v4
num_class=1
num_tree_per_iteration=1
label_index=0
max_feature_idx=39
objective=binary sigmoid:1
feature_names=StkIndx STInt dtdlevel dtdtrend liqnonfinlevel liqnonfintrend ni2talevel ni2tatrend sizelevel sizetrend m2b sigma liqfinlevel lqfintrend DTDmedianFin DTDmedianNonFin current_ratio quick_ratio cash_ratio net_working_capital debt_ratio debt_to_equity_ratio equity_ratio cashflow_to_debt_ratio net_profit_margin return_on_assets asset_turnover inventory_turnover days_in_inventory receivables_turnover day_sales_outstanding working_capital_turnover price_to_earnings dividend_payout_ratio retention_ratio gross_margin_ratio operating_profit_margin ebitda_margin debt_service_coverage_ratio interest_coverage_ratio
feature_infos=[-0.54557880062789532:0.71338048836813317] [-0.0116324345026203:0.013861132123799099] [-1.1135112665324569:97.933585950740635] [-35.341088269294112:14.933724381310856] [-4.1567143227807728:4.7877272366082941] [-2.5594154648752223:2.6838857457548109] [-1.3248315543243685:0.21609353630352801] [-0.60094846036015492:0.63667326585682593] [-6.1766063188463312:6.7520735870663611] [-1.9230943207967848:2.0189341464037414] [0.1522916562452884:98.093612300203844] [0.0096765123065325007:1.1247981278169397] [-9.7930033155019167:0] [-3.4361801331471731:3.3929034768701012] [0:5.7903608714045323] [0:5.4163529850772756] [0:51848.8305292191] [-0.036613959071896102:51848.8305292191] [-6022:634.49999999999989] [-44022:111174] [0:240.87500000000003] [-12846.642857142857:75970.375] [-148580:1.7497420020639836] [-32257:128995.51515151514] [-29011900:1840300] [-12732400:14424.581005586591] [-0.65217731217262143:57.573852295409182] [-633.02286198137165:2000] [-728586339.94375014:1590330044.9086161] [-157.59245350500714:735778.57142857136] [-27112504.166666668:47937092.5] [-64030.374241561673:65728.666666668069] [-66666.666666666672:22835] [-225:202] [-1149:226] [-5251700:180033.33333333331] [-21892500:359966.66666666663] [-21855400:352366.66666666663] [-149041.10344827591:5576.6666666666652] [-297211:132673.5]
tree_sizes=6322 6532 5072 2488

Tree=0
num_leaves=60
num_cat=0
split_feature=2 3 19 15 20 20 3 2 3 19 24 8 24 19 28 24 19 31 24 2 2 2 15 24 3 28 31 17 2 24 24 20 20 1 20 1 19 15 24 31 24 17 2 28 15 39 37 19 4 2 3 1 23 3 37 19 4 19 19
split_gain=25659.9 19331.4 11310.2 5453.1 5214.58 4944.13 3839.29 3109.19 3609.46 2406.31 2363.45 2024.44 1981 1956.19 1828.15 1365.83 1309.97 1180.75 1162.97 1122.11 1104.31 1102.53 1094.99 1072.37 1179.35 1049.62 976.808 915.063 870.608 868.882 761.803 752.911 680.055 1017.56 654.234 632.499 628.905 610.163 582.622 492.312 457.554 468.224 437.726 437.111 416.536 407.633 392.848 379.942 466.274 367.808 539.424 470.847 363.563 354.053 340.078 621.412 322.527 318.966 303.218
threshold=1.008931311550576 -0.46873894810833755 -69.72499999999998 1.8216150667066007 0.40487130559090673 0.62062904561730459 0.0084109951160589013 1.9560302887133283 -0.81061557308845267 -22.704499999999822 -1.0568717234045588 -1.7848727424384097 -9.9133406839951288 148.46750000000003 19021.610000000004 -8.2964507091963906 -57.461999999999996 -0.084497025430419842 -1.6584904122693371 0.33810570541744861 0.46896018158140579 0.10369120350811191 1.8619482888823926 -0.6770222724899928 -0.17957381284760712 79229.631705174397 3.5226514262717363 0.38201426463199151 0.27005906575614352 0.23677005932233958 -1.8627691602853591 0.58282436618915534 0.40487130559090673 -0.011273258139153848 0.30659518332987934 -0.011420627843101099 -7.8815 1.8216150667066007 -22.774875074363852 -1.1468891004585353 -7.7803413171733196 1.1133598276762531 0.27005906575614352 10148.760884948812 3.375620722178859 1.5416176470588239 -75.136999938774167 -13.045499999999999 0.25166860002227154 2.9279990523298922 -0.62751110881820482 -0.011400342134865448 0.061545842547333453 -1.298100769740046 79.069646187064492 28.501000000000001 0.38674185109475773 -288.46099999999996 -44.582999999999998
decision_type=2 2 2 2 2 2 2 2 2 2 2 2 2 2 2 2 2 2 2 2 2 2 2 2 2 2 2 2 2 2 2 2 2 2 2 2 2 2 2 2 2 2 2 2 2 2 2 2 2 2 2 2 2 2 2 2 2 2 2
left_child=1 2 12 38 18 11 10 8 9 15 14 28 17 29 16 37 -6 20 25 -16 52 -13 -11 24 34 36 46 -28 -5 -7 47 45 -24 -34 -10 -36 39 -2 -4 -3 41 49 -15 -33 -12 -14 -27 56 -49 50 51 -9 -1 -39 -40 -56 -8 -22 -26
right_child=7 4 3 5 6 13 30 40 23 22 44 21 31 42 19 -17 -18 -19 -20 -21 57 -23 32 -25 58 26 27 -29 -30 -31 -32 43 33 -35 35 -37 -38 53 54 -41 -42 -43 -44 -45 -46 -47 -48 48 -50 -51 -52 -53 -54 -55 55 -57 -58 -59 -60
leaf_value=393.49271936244463 19.379314748573492 70.679640149038946 55.71129808033524 90.901734612527463 129.31570243814258 158.41762170991973 41.952150946650484 79.030341160052188 5.9460626749727616 -2.1434582022920083 12.560480991617327 219.49289909008979 150.65881674143586 411.18384673196101 155.16969596863885 31.319616904127585 46.387934468729192 136.11819337534038 -7.2497211792880609 72.56610337678201 285.58676158161001 90.795927770355902 21.306885364175429 -7.8289418411616678 24.470578256993456 69.359878268382715 303.09454213771687 60.239130630308388 22.045490181191319 42.645991118988206 0.48567463211561535 106.71708011661815 166.85052747561002 45.439879788533418 87.79155685840179 22.327019850796056 3.3863507305090135 227.28386091949548 0.5108889327725068 14.247094829451209 -9.6134456713013954 -7.7979157628625746 212.04187599701547 275.53424649907623 55.795055660000145 10.697325007038556 10.590485388582414 5.489263311652703 38.303772228973195 -5.4626353890355084 -0.89620039312807398 16.599452919456446 178.63862710154189 126.06102701995593 -5.5776545335018346 182.34106632765221 137.9099684225616 137.96171085807936 -4.0517498786373212
leaf_weight=3.4801071044057599 0.93881959095597256 6.887374757789078 7.8504741657525292 6.4665245963260523 5.9242753498256198 13.839495694264775 13.103007911704477 3.5691331000998607 113.68619650136679 36.96197475772351 30.301211625337601 1.9747584499418795 0.7607675995677704 0.89025995694100801 10.132776964455845 4.8154970398172718 45.330418352968991 1.7886131862178434 217.45004111900926 9.2101439181715232 0.96309940796345506 23.065826157107949 40.757719483226538 531.41235484275967 10.521254036575554 5.4143991926684967 0.63127524219453235 1.1978043057024477 22.952520344406366 2.2499297093600026 67.505984553135931 1.1978043057024481 2.015224811621013 19.189148708246648 4.2570612486451855 62.682394240982831 148.15544337965548 2.1042508073151112 28.674463885836307 11.330581270158289 5445.9953278675675 1128.0888578016311 1.667214101180434 1.0764052206650374 7.6805154467001548 1.6510275565087793 7.5105567276477805 29.597096932120621 20.19271447788924 166.60810430534184 86.800345801748335 35.747983907349408 0.67983487620949734 3.6338792787864804 1.1897110333666194 0.66364833153784264 0.9469128632918008 1.7643333692103622 314.65024187229574
leaf_count=430 116 851 970 799 732 1710 1619 441 14047 4567 3744 244 94 110 1252 595 5601 221 26868 1138 119 2850 5036 65661 1300 669 78 148 2836 278 8341 148 249 2371 526 7745 18306 260 3543 1400 672904 139386 206 133 949 204 928 3657 2495 20586 10725 4417 84 449 147 82 117 218 38878
internal_value=-4.80034 24.364 84.2393 66.6708 12.637 93.3072 32.0211 -7.57868 0.442309 29.0368 55.1655 67.5972 228.216 167.128 73.164 100.649 56.3644 275.947 0.958464 116.804 308.198 102.318 20.559 -2.60652 2.87959 10.8061 53.1326 162.239 37.6205 142.861 12.8381 133.434 34.0595 58.189 13.6599 26.7032 7.00002 148.615 15.7329 36.0575 -8.91929 -6.25832 301.958 199.912 21.5228 61.8332 35.8211 25.8536 18.8938 -0.326737 6.45024 22.5866 366.549 168.519 5.18778 71.3202 49.9679 203.412 -3.11481
internal_weight=0 763.349 124.847 111.485 638.503 73.1065 239.925 8014.44 1147.63 110.417 108.579 54.4596 13.362 18.6469 70.5976 11.4924 51.2547 8.67599 398.577 19.3429 6.88737 25.0406 98.9241 1037.21 505.797 181.127 14.754 1.82908 29.419 16.0894 131.346 4.686 61.9621 21.2044 180.626 66.9395 166.373 6.67695 38.3783 18.218 6866.81 1420.81 2.55747 2.27421 37.9817 2.4118 12.925 63.8397 49.7898 292.726 126.117 39.3171 4.15994 5.73813 30.5278 1.85336 14.0499 2.72743 325.171
internal_count=1084578 94319 15426 13775 78893 9033 29645 990259 141800 13643 13416 6729 1651 2304 8723 1420 6333 1072 49248 2390 851 3094 12223 128157 62496 22380 1823 226 3635 1988 16229 579 7656 2620 22318 8271 20557 825 4742 2251 848459 175555 316 281 4693 298 1597 7888 6152 36169 15583 4858 514 709 3772 229 1736 337 40178
is_linear=0
shrinkage=1


Tree=1
num_leaves=60
num_cat=0
split_feature=3 2 12 20 3 2 3 3 11 37 3 2 3 3 20 2 22 37 3 2 31 33 31 39 18 4 3 2 20 28 39 12 39 33 2 3 26 37 37 6 4 28 6 3 2 31 22 9 2 31 11 37 3 21 33 37 33 6 39
split_gain=511159 694310 2.33323e+06 1.24679e+06 2.68737e+06 2.46735e+07 3.92408e+07 9.70169e+06 1.20494e+06 779749 650288 780558 3.31782e+06 327626 1.72385e+06 1.36935e+07 2.45935e+06 294426 233351 3.04119e+06 5.92249e+06 1.67787e+06 579296 416490 202397 170994 105174 86980.3 240079 500224 371628 199917 67262.9 60609.7 60333.4 44948.7 40470.9 38468.9 32573.2 32124.9 53388.4 25814.6 12898.3 9681.38 52523.7 9503.63 6695.18 5832.59 4351.28 3200.35 3293.66 2964.56 13295.2 16990.8 2713.67 2395.74 3529.42 2089.05 1840.86
threshold=-1.0000000180025095e-35 1.9560302887133283 -1.0000000180025095e-35 0.40487130559090673 -0.53541223352404155 1.008931311550576 -0.49026703573938951 -0.17957381284760712 0.17227549794220229 -43.51463253363989 -0.17957381284760712 1.008931311550576 -0.81061557308845267 -0.46873894810833755 0.40487130559090673 1.0441244610913851 0.27605312508919805 -93.588901258014317 -0.62751110881820482 2.9279990523298922 -1.0000000180025095e-35 1.0000000180025095e-35 1.2692284599143733 1.9443617373221798 0.98544287507757089 0.89017492101771867 -0.17957381284760712 1.008931311550576 0.40487130559090673 79229.631705174397 1.2035236055358733 -2.4717749903093016 1.017099013518451 1.0000000180025095e-35 1.008931311550576 -0.46873894810833755 -1.0000000180025095e-35 -339.64112971386822 -4.2992778110497607 -0.017320141946242446 -0.14646539166093867 66680.973767335265 -0.0022937552319815995 -0.17957381284760712 1.008931311550576 -1.0000000180025095e-35 -0.23227081507180872 0.73563792880557133 1.008931311550576 -1.9665481786438599 0.39800745712708258 -130.37037553470432 -0.81061557308845267 1.8625393372827082 -1.0000000180025095e-35 -22.277526485128508 -1.1982142857142855 -0.0021351924971212996 2.0370304163068012
decision_type=2 2 2 2 2 2 2 2 2 2 2 2 2 2 2 2 2 2 2 2 2 2 2 2 2 2 2 2 2 2 2 2 2 2 2 2 2 2 2 2 2 2 2 2 2 2 2 2 2 2 2 2 2 2 2 2 2 2 2
left_child=1 2 13 10 8 6 -6 -7 9 -5 11 35 -13 51 43 16 -16 -10 19 20 21 24 25 -24 -3 -22 -17 28 29 45 31 -31 37 38 41 -4 -33 39 -32 40 -30 -12 46 44 -15 49 -39 -41 -45 -2 -51 52 -1 -54 55 -34 -57 58 -56
right_child=27 18 3 4 5 7 -8 -9 17 -11 34 12 -14 14 15 26 -18 -19 -20 -21 22 -23 23 -25 -26 -27 -28 -29 32 30 33 36 54 -35 -36 -37 -38 42 -40 47 -42 -43 -44 48 -46 -47 -48 -49 -50 50 -52 -53 53 -55 57 56 -58 -59 -60
leaf_value=-17.134842362646268 -190.91268834958771 -28263.920395898505 -361.23126342543998 -14881.135104244931 -1281.3450037311657 -16727.018115695439 -37794.199025836162 -17.755947848659531 -1380.055013550289 -2784.1227857342888 -175.39730128728897 -277.24677642460682 -2116.6830528090609 -155.11864538389213 -44974.395649211023 -2900.5217913661081 -4884.0692551599923 -324.6603315948783 -5.5070713314177064 21.907687130714127 -2879.5110389722126 -24.015991214812107 -9899.796732833438 -2066.0900066483705 -93.25617701870344 -672.92367071635647 -3.1690011852137618 -7.828057528018614 -505.24182768321901 -618.6048123099099 -2637.2450564241576 -0.30516560736864573 -39.331238677697414 -120.50118116403711 -6.5071985370756336 -187.74559632312693 -10851.057078897411 -234.03759147746271 -123.94524499463044 -403.59979996695114 -2196.9183450580645 -854.02150424315141 -62.734459027448359 -164.93759635579553 -891.7100629050766 -156.44132987624414 -125.50311525257736 -50.00810974019678 -7.3389133488106157 -341.33668158353981 -220.15263280070423 -17.627287380698618 -813.43986732348458 -115.79165650334987 -43.283166506071481 -56.447731060066744 -259.67598795767202 -17.872026518715753 -23.721201517535395
leaf_weight=20.422210317213931 31.456894178525545 0.18572674292975211 63.991930986702187 0.080852209221823901 2.1132754568225645 0.83682408077547066 1.1797153557027313 27.364272162052345 7.8511716451917968 0.66504923063046473 101.55843206501544 100.97566447453497 37.062612952014547 16.921348279403372 0.084434023383264001 0.23824017768949657 0.10484636909265399 88.953077631211812 1041.7020999481549 57.580379768529383 1.4519528977257454 0.073898585079369639 0.29759142751704093 0.50996156163601114 0.0083108511741158964 2.8100915380103686 2.6481327787277475 1821.5766272047495 3.0236976519227028 0.1031848043348873 0.83228980003332231 0.0099310994846746325 20.680077550183345 0.56209316749300331 104.20582339936902 119.21798765872566 0.078678705540368266 19.142608794565604 0.18618042145681102 1.9907764289528112 0.51031515933573279 1.4288647093530915 103.63702032937726 14.36225825816061 3.053173783828405 283.08546781844461 94.65989426671149 3.3752015791833401 7.3188920252211664 11.707503256777501 17.027941563034119 972.18776159212848 1.2443279384473704 3.3262357814509134 196.30132001674792 6.0265603959560412 3.8750351952367019 1110.1243275706038 418.59658281984593
leaf_count=265 2645 4307 4999 986 684 5484 10915 3116 2660 594 5512 6618 22525 3873 2211 824 268 7979 197581 193009 10980 1121 2767 6357 43 10045 596 491862 328 176 1681 14 193 808 9914 6987 655 972 276 183 301 613 1450 3142 4983 19929 2591 40 3186 1920 1017 11467 250 84 2034 76 205 5665 2612
internal_value=0 -127.102 -193.89 -439.43 -903.151 -2236.39 -15517.7 -606.016 -469.73 -6510.9 -325.949 -474.22 -773.023 -38.9016 -478.88 -4180 -35241.4 -412.413 -24.3371 -335.284 -4076.06 -22903.6 -2404.5 -6121.83 -27647.8 -1502.34 -383.359 -35.0767 -56.405 -184.539 -2855.15 -7840.71 -34.084 -1579.27 -95.8685 -248.606 -10420.5 -119.473 -2257.66 -455.865 -834.869 -186.135 -105.376 -190.517 -273.959 -169.414 -144.065 -189.151 -112.185 -229.844 -271.158 -19.0908 -75.5391 -327.008 -23.0653 -72.1209 -138.874 -22.189 -29.9759
internal_weight=0 2804.02 1699.4 657.486 129.044 31.4941 3.29299 28.2011 97.5502 0.745901 528.441 321.248 138.038 1041.91 44.7313 3.07565 0.18928 96.8042 1104.62 62.9179 5.33753 0.267936 5.0696 0.807553 0.194038 4.26204 2.88637 4148.57 2326.99 345.05 1.77236 0.191795 1981.94 1.58056 207.193 183.21 0.0886098 226.34 1.01847 8.89999 3.53401 102.987 217.44 41.6557 19.9745 343.278 113.803 5.36598 21.6812 60.1923 28.7354 997.181 24.9928 4.57056 1755.6 30.5817 9.9016 1725.02 614.898
internal_count=1084578 546945 120735 89586 32418 20199 11599 8600 12219 1580 57168 41129 29143 31149 19083 3899 2479 10639 426210 228629 35620 5471 30149 9124 4350 21025 1420 537633 45771 29121 3610 845 16650 2765 16039 11986 669 5865 1957 852 629 6125 5013 15184 8856 25511 3563 223 6328 5582 2937 12066 599 334 10785 474 281 10311 4646
is_linear=0
shrinkage=5.26491


Tree=2
num_leaves=46
num_cat=0
split_feature=2 3 24 15 39 2 19 17 15 3 3 12 19 3 3 3 15 2 2 19 2 2 24 10 3 39 19 11 12 3 2 3 18 3 35 3 20 8 26 21 19 19 32 3 35
split_gain=3.44682e+10 7.01378e+09 1.86875e+06 1.88528e+06 1.65625e+06 2.02141e+07 6.10214e+06 593852 1.03197e+06 537763 197830 1.12299e+06 273367 131052 137161 100525 787611 3.8772e+06 238068 1.13212e+06 1.05848e+06 144105 231848 92589.2 66539.5 60447.9 238132 53719.5 37924.1 30470.7 17161.8 7193.43 4858.87 4668 4413.9 2426.4 657.738 622.105 516.057 435.841 423.842 183.67 99.2717 85.1612 48.9851
threshold=2.9279990523298922 -0.62751110881820482 -0.86497677429885778 2.0526753643718778 1.017099013518451 1.008931311550576 -142.98099999999997 1.1133598276762531 1.0000000180025095e-35 -0.17957381284760712 -0.62751110881820482 -1.5418230617567832 -44.582999999999998 -1.0000000180025095e-35 0.0084109951160589013 -0.17957381284760712 1.0000000180025095e-35 1.9820839962866381 1.008931311550576 -44.582999999999998 1.9560302887133283 1.0441244610913851 -17.906753089310666 3.2177694090009283 -0.61639933711947614 2.0370304163068012 -13.045499999999999 0.5837916173327159 -0.64686522729679796 -0.50154332637544752 1.9073696138333494 -0.81061557308845267 -0.14089448034967048 -0.048662524852367141 13.791196377506184 -0.79490411358096369 0.40837330144710188 4.6586356189791589 0.04382818656150491 -4.5884748659949768 -7.8815 155.97400000000002 1.0000000180025095e-35 1.0000000180025095e-35 49.759841506319809
decision_type=2 2 2 2 2 2 2 2 2 2 2 2 2 2 2 2 2 2 2 2 2 2 2 2 2 2 2 2 2 2 2 2 2 2 2 2 2 2 2 2 2 2 2 2 2
left_child=2 -2 4 28 5 6 27 10 35 -10 11 -7 -12 -5 40 16 21 23 25 20 -20 22 -6 -18 -19 36 -27 39 29 32 -21 -23 42 -30 -34 -9 -17 38 -31 -1 -15 -42 -4 -35 -45
right_child=1 -3 3 13 15 7 -8 8 9 -11 12 -13 -14 14 -16 18 17 24 19 30 -22 31 -24 -25 -26 26 -28 -29 33 37 -32 -33 34 43 -36 -37 -38 -39 -40 -41 41 -43 -44 44 -46
leaf_value=698.54297405586647 -1145157.3802219387 3354.2006913382479 128.73714521360876 24883.177858905798 -7577.8498544929116 -74.88833570998608 64612.947020646898 411.35857527676495 18979.679867663453 2669.0257676395468 -3327.3562626615085 11324.34664027351 371.19441193916748 88.672220774361122 7262.8847180379871 106.79872406213651 25253.292352449662 3480.2387347478102 -16227.487883994372 1659.343798137128 71.647438079146795 -27.82048158440287 -8.6682483679019331 63.092996665597184 121.52754461409658 -5281.6067903784115 -316.77878065786103 -76.376764491695411 3173.9024587715776 1008.8310922587992 210.27782211655855 -464.5487473114232 123.76707297737332 -0.57599908749522444 -2087.623813644012 -310.84989171900594 -14.864885503560989 -0.70216574658197817 145.31617472973497 6744.2092582843179 -367.49339728713682 30.226185686296336 -55.714106310991056 375.01584470309825 -0.30443819613004663
leaf_weight=0.04229678502184786 0.72446658623445859 0.17567068859009904 0.0019776356355780218 0.008161781592623249 0.035763685739535256 1.2172285548669894 0.021812617678199142 0.01788648287808714 0.012674176082005439 0.17938245676423281 0.44651344507007174 0.13609320320501739 6.0673505445515978 0.015662816576506214 0.0073700457179947379 1.0986062642882775 0.04632125859783931 0.026020209644360803 0.094427912662858327 0.16159397307315293 0.19178043926908117 3.2746891521126287 0.2608583643745972 0.004951974260620772 1.3814680548442764 0.12642355838699604 4.2726885839611901 0.042292691767215729 0.0010341797939267807 0.10408685912908602 0.96600030186375696 1.3899588350787766 0.0090083386431960358 0.01973422334339394 0.03775711033081821 0.40848545783588869 57.924984517732035 0.02471861379026094 0.088853268611993497 0.021162738299897732 0.0686856417817511 0.010771239520802611 0.030339008145040858 0.034533416138753249 0.0098622665123204722
leaf_count=172 193009 472130 381 49802 644 318 32849 540 27166 38581 1251 8398 22036 146 79682 1377 13429 5155 817 11348 805 771 437 109 4438 860 5043 72 9972 39485 14783 1174 1000 543 13084 2839 2949 1688 15980 1083 806 186 2090 3847 1303
internal_value=0 -954606 292.453 9295.92 220.529 2378.88 45677.7 886.869 5273.13 11924.2 442.919 2156.72 43.2866 19786.3 4405.02 -45.1533 575.025 3764.52 -107.839 -2129.67 -9220.17 -451.91 -3271.22 24715 535.513 -57.4731 -641.47 5084.24 972.377 -175.338 599.838 -169.148 -1598.3 2599.68 -1896.01 -175.855 -12.3151 802.281 858.596 6109.16 -248.131 -329.457 53.4425 325.136 356.802
internal_weight=0 0.900137 80.3423 0.472556 79.8697 8.61318 0.127565 8.48561 0.618429 0.192057 7.86719 1.35332 6.51386 0.110652 0.10249 71.2565 6.42003 1.45876 64.8365 1.4138 0.286208 4.96127 0.296622 0.0512732 1.40749 63.4227 4.39911 0.105752 0.361905 0.296741 1.12759 4.66465 0.0790821 0.0651641 0.0467654 0.426372 59.0236 0.217659 0.19294 0.0634595 0.0951197 0.0794569 0.0323166 0.0641299 0.0443957
internal_count=1084578 665139 419439 219995 199444 135305 34176 101129 69126 65747 32003 8716 23287 130622 80820 64139 26157 23131 37982 27753 1622 3026 1081 13538 9593 10229 5903 1327 89373 73708 26131 1945 16555 15665 14084 3379 4326 57153 55465 1255 1138 992 2471 5693 5150
is_linear=0
shrinkage=5.26491


Tree=3
num_leaves=21
num_cat=0
split_feature=25 39 39 14 6 8 31 22 9 35 4 30 9 3 20 25 4 4 30 18
split_gain=8.75942e+11 1.85459e+11 3.93488e+10 7.80469e+10 1.23559e+10 1.67151e+09 4.06302e+08 6.17073e+08 3.49411e+08 5.89148e+07 9.43774e+07 4.48038e+07 5.33708e+07 3.03912e+07 1.42112e+07 1.34741e+07 664946 1.00481e+06 58924 27041.1
threshold=0.37984548951333169 1.017099013518451 2.1318076656362943 4.5502425389894379 0.040083169775957855 5.0200033002728608 -1.1468891004585353 0.23818745280839307 -1.0435390755711988 -99.992090797643044 0.25920434179622448 1510.1673920087133 0.53189113749839201 -0.73516880777637539 0.38492638537747514 -40.843158656117843 0.19163572394468034 -0.38166326206548989 9536.6967737139457 -0.59615894404527869
decision_type=2 2 2 2 2 2 2 2 2 2 2 2 2 2 2 2 2 2 2 2
left_child=1 -1 6 5 -2 8 14 9 -4 -8 -11 12 -9 -5 16 -16 17 -3 -7 -18
right_child=4 2 3 13 -6 18 7 11 -10 10 -12 -13 -14 -15 15 -17 19 -19 -20 -21
leaf_value=-6270257.6110301334 -13366663.738298589 -1803.0638570749163 -33585.385018648427 -148.07456887398558 -67109.49212624639 -39073.728540574855 -397.13380792935743 -432896.23110069841 -4750540.6183868265 -207176.83293831791 -38973.423613926505 -8252.9061467646407 -16941.732239017649 -90104.679422588088 -159.64513310434981 -77523.748476320849 -128.34613575177372 -17175.216645347529 -160.6315910836764 -2183.0620244672114
leaf_weight=0.0026609967016421035 0.010968073842043125 0.29593744106091435 0.0027591868344299404 0.24866385762999957 0.003615121920530485 0.0024547619958446981 0.2564575583600176 0.066120958064590091 0.0028838781348730202 0.0097536167679483921 0.44971535096895887 0.015173630796278134 0.023059919536767157 0.018207215523069836 0.098644046697110271 0.011515100463314915 0.39456373453140259 0.098691732670401655 0.0024337302683150597 0.19728186726570129
leaf_count=248824 569318 276 1726 746 3126 2470 158 25814 201497 12997 6632 427 895 3386 28 4479 17 1497 21 244
internal_value=0 -856886 -420853 -1.84369e+06 -1.31552e+07 -4.60885e+06 -87668 -165620 -4.70514e+06 -67779.9 -95504.2 -387893 -405552 -37945.3 -15582.5 -49529.3 -5356.12 -9519.2 -38660.6 -1134.47
internal_weight=0 2.19698 2.19432 0.277403 0.0145832 0.0105316 1.91691 0.820281 0.00564306 0.715927 0.459469 0.104355 0.0891809 0.266871 1.09663 0.110159 0.986475 0.394629 0.00488849 0.591846
internal_count=1084578 512134 263310 209846 572444 205714 53464 46923 203223 19787 19629 27136 26709 4132 6541 4507 2034 1773 2491 261
is_linear=0
shrinkage=5.26491


end of trees

feature_importances:
dtdtrend=31
dtdlevel=24
net_working_capital=15
net_profit_margin=11
debt_ratio=10
interest_coverage_ratio=9
working_capital_turnover=8
ebitda_margin=8
liqnonfinlevel=7
DTDmedianNonFin=7
days_in_inventory=5
ni2talevel=4
liqfinlevel=4
dividend_payout_ratio=4
STInt=3
sizelevel=3
sizetrend=3
sigma=3
quick_ratio=3
cash_ratio=3
equity_ratio=3
gross_margin_ratio=3
debt_to_equity_ratio=2
return_on_assets=2
asset_turnover=2
day_sales_outstanding=2
m2b=1
DTDmedianFin=1
cashflow_to_debt_ratio=1
price_to_earnings=1

parameters:
[boosting: gbdt]
[objective: binary]
[metric: recall]
[tree_learner: serial]
[device_type: cpu]
[data: ]
[valid: ]
[num_iterations: 179]
[learning_rate: 5.26491]
[num_leaves: 60]
[num_threads: 0]
[deterministic: 0]
[force_col_wise: 0]
[force_row_wise: 0]
[histogram_pool_size: -1]
[max_depth: 7]
[min_data_in_leaf: 74]
[min_sum_hessian_in_leaf: 0.001]
[bagging_fraction: 1]
[pos_bagging_fraction: 1]
[neg_bagging_fraction: 1]
[bagging_freq: 0]
[bagging_seed: 3]
[feature_fraction: 0.549079]
[feature_fraction_bynode: 1]
[feature_fraction_seed: 2]
[extra_trees: 0]
[extra_seed: 6]
[early_stopping_round: 0]
[first_metric_only: 0]
[max_delta_step: 0]
[lambda_l1: 2.71717e-08]
[lambda_l2: 0.161528]
[linear_lambda: 0]
[min_gain_to_split: 0]
[drop_rate: 0.1]
[max_drop: 50]
[skip_drop: 0.5]
[xgboost_dart_mode: 0]
[uniform_drop: 0]
[drop_seed: 4]
[top_rate: 0.2]
[other_rate: 0.1]
[min_data_per_group: 100]
[max_cat_threshold: 32]
[cat_l2: 10]
[cat_smooth: 10]
[max_cat_to_onehot: 4]
[top_k: 20]
[monotone_constraints: ]
[monotone_constraints_method: basic]
[monotone_penalty: 0]
[feature_contri: ]
[forcedsplits_filename: ]
[refit_decay_rate: 0.9]
[cegb_tradeoff: 1]
[cegb_penalty_split: 0]
[cegb_penalty_feature_lazy: ]
[cegb_penalty_feature_coupled: ]
[path_smooth: 0]
[interaction_constraints: ]
[verbosity: 1]
[saved_feature_importance_type: 0]
[linear_tree: 0]
[max_bin: 255]
[max_bin_by_feature: ]
[min_data_in_bin: 3]
[bin_construct_sample_cnt: 200000]
[data_random_seed: 1]
[is_enable_sparse: 1]
[enable_bundle: 1]
[use_missing: 1]
[zero_as_missing: 0]
[feature_pre_filter: 1]
[pre_partition: 0]
[two_round: 0]
[header: 0]
[label_column: ]
[weight_column: ]
[group_column: ]
[ignore_column: ]
[categorical_feature: ]
[forcedbins_filename: ]
[precise_float_parser: 0]
[parser_config_file: ]
[objective_seed: 5]
[num_class: 1]
[is_unbalance: 0]
[scale_pos_weight: 1]
[sigmoid: 1]
[boost_from_average: 1]
[reg_sqrt: 0]
[alpha: 0.9]
[fair_c: 1]
[poisson_max_delta_step: 0.7]
[tweedie_variance_power: 1.5]
[lambdarank_truncation_level: 30]
[lambdarank_norm: 1]
[label_gain: ]
[lambdarank_position_bias_regularization: 0]
[eval_at: ]
[multi_error_top_k: 1]
[auc_mu_weights: ]
[num_machines: 1]
[local_listen_port: 12400]
[time_out: 120]
[machine_list_filename: ]
[machines: ]
[gpu_platform_id: -1]
[gpu_device_id: -1]
[gpu_use_dp: 0]
[num_gpu: 1]

end of parameters

pandas_categorical:[]
