tree
version=v4
num_class=1
num_tree_per_iteration=1
label_index=0
max_feature_idx=44
objective=binary sigmoid:1
feature_names=StkIndx STInt dtdlevel dtdtrend liqnonfinlevel liqnonfintrend ni2talevel ni2tatrend sizelevel sizetrend m2b sigma liqfinlevel lqfintrend DTDmedianFin DTDmedianNonFin current_ratio quick_ratio cash_ratio net_working_capital debt_ratio debt_to_equity_ratio equity_ratio cashflow_to_debt_ratio net_profit_margin return_on_assets asset_turnover inventory_turnover days_in_inventory receivables_turnover day_sales_outstanding working_capital_turnover price_to_earnings dividend_payout_ratio retention_ratio gross_margin_ratio operating_profit_margin ebitda_margin debt_service_coverage_ratio interest_coverage_ratio Rolling_Sortino macd macd_h macd_s rsi
feature_infos=[-0.46605693843195262:0.46711741030511528] [-0.0116324345026203:0.011896202737836301] [-0.44902720905117421:17.742214048068398] [-4.9694091986737829:4.6538056267579506] [-1.6706938991979925:3.5560692459975614] [-1.3095420945223275:1.2657671640427035] [-0.21560680324414391:0.059733952565668602] [-0.13527234322148771:0.1339793611468327] [-4.580998390764381:6.4179771999022099] [-1.1942066325584213:1.0458765018221872] [0.27648166458712919:20.517723181034857] [0.0303477379726503:0.62954765821054526] [-6.8315519180182607:0] [-1.3243816917536959:1.382799115435982] [0:5.1443932715032021] [0:5.4163529850772756] [0.015625:223.92875989445909] [0.015625:223.92875989445909] [-11.894736842105264:9.5742207245155857] [-4853:14645] [0:1.5489407738029335] [-26.469026548672566:35.304239401496261] [-1.4582426027923656:0.9899939963978388] [-32257:3772] [-29011900:362.522031725685] [-82.743190661478607:30.548082097009761] [0:1.4305259978930591] [-633.02286198137165:200] [0:21394226.685731489] [-157.59245350500714:5732.4339516582349] [0:9551.0594581218556] [-92.437464306110797:97.709644670050764] [-1481:2275] [-9.375:15] [-14:10.375] [-5251700:100] [-21892500:99.338842975206603] [-21855400:116.02988211114577] [-149041.10344827591:37.012861736334393] [-297211:11423.450000000001] [-2.7045588840239545:2.789041264984403] [-38836389.478387192:1304941.6607078109] [-424188.78312618507:9865714.7369849458] [-48702104.215372138:1061887.028962035] [0:100]
tree_sizes=18680 19869 19773 19759 19773 19864 19814 19853 19792 19894 19813 19782 19852 19804 19816 19812 19827 19813 19844 19850 19774 19752 19787 19776 19846 19798 19837 19819 19843 19809 19811 19835 19783 19801 19788 19826 19831 19835 19843 19848 19760 19791 19875 19806 19799 19812 19829 19823 19821 19808 19772 19836 19844 19832 19834 19797 19805 19851 19792 19815 19799 19799 19796 19829 19791 19796 19787 19831 19804 19796 19796 19856 19827 19794 19800 19839 19803 19812 19761 19761 19726 19870 19732 19826 19797 19780 19838 19790 19793 19832 19807 19810 19862 19808 19800 19756 19778 19820 19797 19812 19793 19838 19751 19772 19842 19813 19791 19820 19808 19752 19761 19840 19812 19845 19782 19792 19892 19848 19814 19828 19811 19824 19779 19784 19748 19785 19823 19830 19824 19784 19795 19794 19785 19808 19850 19768 19839 19795 19815 19838 19827 19818 19811 19816 19797 19826 19812 19845 19791 19836 19823 19804 19836 19853 19786 19791 19828 19843 19846 19792 19789 19801 19852 19810 19822 19808 19736 19776 19835 19804 19805 19816 19786 19805 19828 19860 19775 19840 19807 19829 19809 19788 19843 19823 19758 19757 19845 19800 19865 19829 19829

Tree=0
num_leaves=175
num_cat=0
split_feature=9 19 41 15 29 30 11 44 44 15 19 39 32 38 41 37 29 11 25 32 38 23 15 19 23 26 15 11 30 29 29 26 39 15 19 26 15 19 19 32 15 32 39 26 10 26 19 30 41 11 38 39 32 32 19 19 11 9 41 26 25 41 37 32 38 37 26 32 44 29 30 10 15 11 19 19 26 15 19 25 11 5 19 9 38 44 37 38 41 41 41 18 30 26 9 19 23 5 30 41 5 19 38 11 32 15 19 19 11 41 37 26 9 37 10 44 5 25 29 30 19 39 39 26 11 41 19 15 9 30 39 15 5 15 30 29 25 41 41 19 38 26 38 26 38 10 9 30 15 44 9 15 41 37 5 11 37 38 26 5 19 10 9 25 26 15 10 19 41 29 41 11 23 25
split_gain=2284.29 2869.31 2624.1 3136.59 4348.61 1250.12 990.495 586.588 488.699 814.864 1288.28 2269.09 2545.82 588.599 688.784 870.427 1468.07 500.038 466.282 1111.73 1718.23 1920.42 2125.34 2549.56 1008.52 1959.46 453.187 570.95 848.294 681.384 371.911 345.621 479.538 325.146 662.074 344.458 554.382 309.959 401.795 965.06 321.067 295.016 456.375 209.973 205.443 194.474 188.13 170.875 139.863 354.881 137.871 122.255 108.994 178.152 669.512 193.484 476.365 656.359 108.603 381.708 114.149 151.509 100.822 94.9656 143.46 521.475 152.274 335.15 80.3152 93.6298 471.258 201.324 79.5066 324.72 1262.88 1370.49 85.6736 324.296 142.125 78.2952 76.6539 73.9182 69.4194 62.6869 61.6864 58.4983 68.085 287.298 409.826 78.5628 246.188 52.4033 51.348 304.396 50.7801 50.0967 193.124 57.628 138.286 47.1656 123.792 41.5572 163.113 362.034 67.6635 207.948 277.799 148.824 90.7626 45.8348 54.9492 40.9814 40.1934 39.772 52.8465 39.5213 53.7097 39.1486 37.2451 37.0954 126.011 34.5571 213.293 49.6571 34.5243 96.4208 153.428 31.8298 82.7798 31.8287 29.4375 26.6818 142.25 21.6738 21.1473 53.211 20.2759 24.4219 18.6909 57.2401 79.8016 333.562 335.36 144.606 313.171 99.7053 144.311 29.8832 376.341 16.0843 82.0825 13.7153 83.8895 12.2671 53.1144 11.8064 21.3773 50.661 18.8816 10.8026 10.5287 10.1581 9.92151 9.80581 33.0475 9.7185 9.59926 9.42913 8.99278 8.88149 8.02904 7.94712 7.46346 7.20005
threshold=-0.47764655528753441 -4.8334999999999999 -9.8874358322075597 3.1600592582766227 2.9425324699766597 584.35537905170497 0.18486302335418547 36.21290267129045 29.508600885829939 2.3851674431610745 261.32200000000006 1.643245226436471 -4.4024691358024688 -0.49623810751037017 -154.02977207696426 -53.375842839639652 3.6707284377295539 0.16740798682070068 -0.94705494931664247 -5.1034803921568619 -0.26913124147876671 0.045116782921572861 2.1449164716968157 77.188500000000019 -0.0084082464585073478 0.068457197767732111 3.7216920109325229 0.18132403153094653 82.999884562107468 6.6027636990153766 1.9350790614595967 0.66930722619173233 0.50487268048218892 3.995245833262858 -9.213499999999998 0.4330573286577788 4.542745320176417 -6.7279999999999989 -9.213499999999998 -11.520193202979515 4.7853059091671541 -2.8535714285714282 1.0000000180025095e-35 0.9853086864838575 1.4487085671593498 0.40570850468482939 -3.4725000000000006 1316.8098200635411 -0.53463412991940273 0.21230613168208609 -0.20234257824740684 5.0789885184682486 10.020600414078677 -12.382142857142854 -394.90499999999992 -55.434000000000005 0.16338598091495624 0.018204383125861406 -0.64829407336181089 0.4098681304895595 -40.513352642395127 -4.4168573690942905 -53.004560340975353 -13.282134433962261 -0.08077456384277508 -27.614137290248454 0.42342593064348211 -10.653010033444813 46.206877790776225 18.040055064241617 13.881005167209929 0.64465819185099138 3.5736206519032847 0.19241950565079788 -48.687999999999995 405.161 0.065387610848118324 4.8997305822778792 -158.03349999999995 12.18828899660881 0.15587148208703563 0.51944596778174568 1406.5810000000004 -0.22967535383146478 -0.3872564609794607 33.099094499826727 -57.21996442458935 -0.29356145327682998 -1.6322619512164034 -0.28589996197925832 -0.19845662558873031 -0.0092890336337363971 1099.1647037860896 0.13362512758753084 -0.52149879641030039 568.86700000000019 0.028566210699374355 0.47723031568656732 187.15286426553499 -430.08154235787782 -0.13484432073648736 -4.8334999999999999 0.057545135202516355 0.14687479982639573 -35.334999999999994 4.8921948532866741 -35.35649999999999 -660.79349999999988 0.31277658976045219 -6.3296684832265955 4.6666100932905392 0.037599733941193807 -0.72317475678396537 30.503457872814199 0.69666586160794897 24.576727268921214 -0.043445798230855946 -16.467977576327783 7.1064896213690423 1316.8098200635411 26.250500000000006 1.8935196728721502 2.2217768325784344 0.31576080333470763 0.21740488518047071 -2.6774893345061037 14.951000000000002 4.8997305822778792 -0.31731177503918245 229.8163942286057 3.2162026279673346 4.8401422328384696 0.15401761954043408 5.2657638115383465 660.51916132357496 0.3906177304219135 -40.513352642395127 -6.9183451875159721 -1.5739583924491318 107.82050000000002 -0.68440843943483454 0.34341634940922261 -0.63972384341466482 0.19000719003231967 -0.23952369249714864 0.77816393375110049 -0.027550139025059497 2495.3395449005989 4.8401422328384696 36.727088129997178 0.081900469167962814 3.7692501991109353 -0.67252761680355977 73.711920056679858 -0.12573483316352066 0.14792982482280692 -64.068591645090507 -0.53079865205636267 0.55324262971438376 0.28005743996569327 -14.244999999999999 0.5982960208246566 -0.36179469369925493 -31.449467841841642 0.099577107006357218 1.8619482888823926 2.1415522892852761 -4.8334999999999999 -0.57828655388982086 0.23096044257342072 -0.86887264679114951 0.40026366261303453 0.054921719342857452 -0.88125963868550172
decision_type=2 2 2 2 2 2 2 2 2 2 2 2 2 2 2 2 2 2 2 2 2 2 2 2 2 2 2 2 2 2 2 2 2 2 2 2 2 2 2 2 2 2 2 2 2 2 2 2 2 2 2 2 2 2 2 2 2 2 2 2 2 2 2 2 2 2 2 2 2 2 2 2 2 2 2 2 2 2 2 2 2 2 2 2 2 2 2 2 2 2 2 2 2 2 2 2 2 2 2 2 2 2 2 2 2 2 2 2 2 2 2 2 2 2 2 2 2 2 2 2 2 2 2 2 2 2 2 2 2 2 2 2 2 2 2 2 2 2 2 2 2 2 2 2 2 2 2 2 2 2 2 2 2 2 2 2 2 2 2 2 2 2 2 2 2 2 2 2 2 2 2 2 2 2
left_child=1 2 3 -1 -5 26 -6 18 9 -3 13 12 17 31 -15 16 41 -12 19 37 33 22 -22 24 30 -26 48 94 29 -29 83 58 -33 47 -35 44 -37 38 40 -40 51 80 -43 63 62 118 -10 82 117 -50 -23 129 53 101 -55 56 -56 -58 60 112 61 -11 84 -39 66 -66 119 -68 69 92 71 -71 79 76 -75 115 77 78 -74 153 -16 155 99 -24 -36 86 87 89 -89 124 -91 -30 95 169 172 97 -97 113 -99 100 -21 102 104 -104 109 107 -107 -106 159 110 -9 -17 -60 131 -115 116 -76 -4 -13 121 -121 127 -123 -124 -48 165 -127 136 -129 -2 168 149 166 163 171 -136 137 -65 139 -103 -141 142 -142 161 145 146 -145 -140 -149 150 -57 -101 -153 -20 -155 173 157 158 -157 -109 -158 -144 -70 164 -87 -126 -133 -73 -69 -94 -67 -62 -28 -78
right_child=7 8 5 4 6 -7 -8 52 46 10 11 45 -14 14 15 111 -18 -19 72 20 21 50 23 -25 25 -27 27 28 91 -31 -32 32 -34 34 35 36 -38 43 39 -41 -42 42 -44 -45 -46 -47 85 -49 49 -51 -52 -53 -54 54 55 68 57 -59 59 -61 134 -63 -64 64 65 170 67 130 162 70 -72 167 73 74 75 -77 81 -79 -80 -81 -82 -83 -84 -85 -86 133 -88 88 -90 90 -92 -93 93 -95 -96 96 -98 98 -100 151 -102 138 103 -105 105 106 -108 108 -110 -111 -112 -113 -114 114 -116 -117 -118 -119 -120 120 -122 122 123 -125 125 126 -128 128 -130 -131 -132 132 -134 -135 135 -137 -138 -139 147 140 141 -143 143 144 -146 -147 -148 148 -150 -151 -152 152 -154 154 -156 156 160 -159 -160 -161 -162 -163 -164 -165 -166 -167 -168 -169 -170 -171 -172 -173 -174 -175
leaf_value=-6.4139335913611637 -6.4139335913611673 -6.4139335808098386 -6.4139332596224303 -6.4139287561551352 -6.4139335913611593 -6.4139314728892121 -6.4139313872664667 -6.4139330753231363 -6.4139329463135821 -6.4139335913611601 -6.4139334881535506 -6.4139335913611664 -6.4139304951325604 -6.4139321187646887 -6.4139330753231363 -6.4139332473358133 -6.4139314802962586 -6.4139320432470699 -6.4139335894414229 -6.4139329033104584 -6.4139335913611655 -6.4139329822670774 -6.4139330753231363 -6.4139304066688716 -6.4139300447724876 -6.4139331345406001 -6.4139334193484911 -6.4139310958935294 -6.4139330753231363 -6.4139328299935547 -6.4139322402797667 -6.4139320432470699 -6.4139335913611601 -6.4139320931861796 -6.4139335913611673 -6.413931871234392 -6.4139334623516513 -6.4139335891809814 -6.4139335913611628 -6.4139316437336831 -6.4139325592851026 -6.4139319617673562 -6.4139334390876463 -6.4139328981757133 -6.4139328580439043 -6.4139328580439043 -6.4139335913611681 -6.4139329802634482 -6.4139335913611637 -6.4139324985746828 -6.4139335913611673 -6.4139331125629342 -6.4139335903805632 -6.4139325592849703 -6.4139335913611664 -6.4139335913611664 -6.4139316992217141 -6.4139333728038617 -6.4139332949137522 -6.4139324302755831 -6.4139335913611681 -6.4139327312977805 -6.4139330892700714 -6.413933591361161 -6.4139322152597478 -6.4139335913611646 -6.4139326924561022 -6.4139335913611664 -6.4139334312114311 -6.4139329651576436 -6.4139324118456171 -6.4139334312114311 -6.4139330865412951 -6.413931635848594 -6.4139335913611601 -6.4139318155831289 -6.4139334807815791 -6.4139325592851026 -6.4139335913611673 -6.4139331875052923 -6.4139335913611655 -6.4139331988815114 -6.4139331754498956 -6.4139335913611628 -6.4139332386262797 -6.4139335913611646 -6.4139335913611681 -6.4139322208994631 -6.4139335913611601 -6.4139326467491538 -6.4139335913611637 -6.4139335913611601 -6.4139335913611664 -6.413932596144952 -6.413933126926926 -6.4139329033103936 -6.4139335913611664 -6.4139335913611646 -6.4139329372284068 -6.4139335913611681 -6.4139335913611646 -6.4139335913611681 -6.4139335913611637 -6.4139323872724248 -6.4139329395236437 -6.4139335913611593 -6.4139323872724248 -6.4139335913611681 -6.4139330937530605 -6.4139335913611681 -6.413933591361161 -6.4139335913611673 -6.4139335913611664 -6.4139335913611601 -6.4139330753231363 -6.413933581253783 -6.4139330753231363 -6.4139335913611673 -6.4139332473358133 -6.4139335913611646 -6.4139329158204674 -6.4139328041844896 -6.4139335913611673 -6.4139332980342507 -6.4139334224759939 -6.4139335126434904 -6.4139328173040644 -6.4139331382545599 -6.4139335913611655 -6.4139333221239179 -6.4139332535908187 -6.4139335913611664 -6.4139329158204674 -6.4139334017961529 -6.4139335913611655 -6.4139331932746604 -6.4139335913611681 -6.4139332473358133 -6.4139335893989218 -6.4139335913611681 -6.4139326136048815 -6.4139325780501171 -6.4139334224759939 -6.4139327312977805 -6.4139325754112466 -6.4139335913611664 -6.4139335913611593 -6.4139335913611673 -6.4139325592851026 -6.4139335841828942 -6.4139330753231363 -6.4139335913611664 -6.4139330847056426 -6.4139332556255484 -6.4139335913611673 -6.4139335913611664 -6.4139334224759939 -6.4139331875052923 -6.4139333958098907 -6.4139334193484911 -6.4139335913611681 -6.4139335862321305 -6.4139335874202743 -6.4139335828425628 -6.4139332473358133 -6.4139335913611673 -6.4139334193484911 -6.4139335913611673 -6.4139334193484911 -6.4139334224759939 -6.4139334193484911 -6.4139334658383946 -6.4139335913611637 -6.4139335913611681
leaf_weight=0.16985381487757001 0.97829264530446358 4.3133069720352086 0.091459746472537851 0.11922431236598641 0.091459746472537518 0.093092956230975576 0.096359375747852027 0.088193326955660178 0.11759110260755079 0.10125900502316654 0.1469888782594353 0.40503602009266615 0.16658739536069311 0.13392320019192983 0.088193326955661178 0.088193326955661955 0.14372245874255896 0.088193326955661178 31.609141664812341 0.088193326955661178 0.27274602965917327 0.099625795264728367 0.088193326955661178 0.17148702463600785 0.089826536714099348 0.099625795264728367 0.088193326955661178 0.10942505381535739 0.088193326955661178 0.099625795264728367 0.089826536714099348 0.088193326955661067 0.096359375747852027 0.10125900502316665 0.98645869409665421 0.088193326955661289 0.11759110260754824 13.916580351651655 0.13882282946724445 0.10125900502317264 0.088193326955661067 0.093092956230975576 0.099625795264728367 0.10942505381535639 0.12412394164130081 0.12412394164130092 1.2379729968961335 0.12412394164130081 0.17801986366976308 0.11105826357379556 0.60428761062212288 0.15842134656850237 464.11248347489163 0.16168776608538138 0.40340281033423053 0.36257256637327362 0.088193326955661178 0.13882282946724445 0.15352171729318798 0.091459746472537518 2.9365111456718305 0.088193326955660623 0.12085752212442424 0.10289221478160471 0.088193326955661178 0.21395047835540026 0.15188850753474981 0.33807441999670118 0.094726165989413746 0.14535566850099602 0.1028922147816046 0.094726165989413746 0.15025529777631152 0.093092956230975799 0.097992585506290197 0.11105826357379567 0.13718961970880528 0.088193326955661067 0.88030005979817616 0.11269147333223273 0.2662131906254217 0.11595789284911084 0.10942505381535728 0.14045603922568262 0.12902357091661543 0.23681541497353542 1.4911205094540445 0.099625795264728367 0.10125900502316687 0.096359375747852027 0.18618591246195126 0.093092956230975688 0.35440651758108366 0.091459746472537518 0.097992585506290086 0.13228999043349166 0.32337553217075765 0.20741763932164747 0.11595789284911007 2.9250786773627637 0.18945233197882805 12.838661911082456 0.16495418560225594 0.088193326955661178 0.093092956230976243 0.088193326955661178 0.088193326955661067 1.776932217180726 0.091459746472537629 6.9264425855362788 0.10289221478160471 0.826404137769714 0.33480800047982473 0.094726165989413746 0.088193326955661178 1.500919768004678 0.088193326955659734 0.78067426453344524 0.088193326955661178 0.21721689787227649 0.089826536714099348 0.096359375747851916 0.9227635135175658 0.15515492705162615 0.089826536714099348 0.19271875149570383 0.11759110260754824 0.13392320019192994 0.30214380531106133 0.11269147333223373 0.089826536714099348 0.48669650801457454 0.089826536714099348 0.16005455632694143 0.2384486247319727 0.1143246830906719 5.8958872279617927 0.088193326955658402 77.311250335187651 3.49833530257456 0.093092956230976465 0.089826536714099237 0.089826536714099237 0.088193326955661178 0.10452542454004277 0.45403231284581125 0.091459746472537518 1.0419878258835513 0.088193326955661067 6.3401202822569758 0.088193326955661178 0.4621983616380021 0.089826536714099237 0.13555640995036811 0.54222563980147143 0.42463453719392419 0.089826536714099681 0.11269147333223406 0.15515492705162615 0.088193326955661067 1.5662481583422052 2.9577428725315258 7.6989508012775323 8.9042596030048973 0.088193326955661178 0.61735328868962824 0.088193326955661178 0.79210673284251254 0.088193326955661955 0.089826536714099348 0.088193326955656626 0.12085752212442447 0.16985381487756968 11.082961420761416
leaf_count=104 599 2641 56 73 56 57 59 54 72 62 90 248 102 82 54 54 88 54 19354 54 167 61 54 105 55 61 54 67 54 61 55 54 59 62 604 54 72 8521 85 62 54 57 61 67 76 76 758 76 109 68 370 97 284172 99 247 222 54 85 94 56 1798 54 74 63 54 131 93 207 58 89 63 58 92 57 60 68 84 54 539 69 163 71 67 86 79 145 913 61 62 59 114 57 217 56 60 81 198 127 71 1791 116 7861 101 54 57 54 54 1088 56 4241 63 506 205 58 54 919 54 478 54 133 55 59 565 95 55 118 72 82 185 69 55 298 55 98 146 70 3610 54 47337 2142 57 55 55 54 64 278 56 638 54 3882 54 283 55 83 332 260 55 69 95 54 959 1811 4714 5452 54 378 54 485 54 55 54 74 104 6786
internal_value=-6.41393 -6.41393 -6.41393 -6.41393 -6.41393 -6.41393 -6.41393 -6.41393 -6.41393 -6.41393 -6.41393 -6.41393 -6.41393 -6.41393 -6.41393 -6.41393 -6.41393 -6.41393 -6.41393 -6.41393 -6.41393 -6.41393 -6.41393 -6.41393 -6.41393 -6.41393 -6.41393 -6.41393 -6.41393 -6.41393 -6.41393 -6.41393 -6.41393 -6.41393 -6.41393 -6.41393 -6.41393 -6.41393 -6.41393 -6.41393 -6.41393 -6.41393 -6.41393 -6.41393 -6.41393 -6.41393 -6.41393 -6.41393 -6.41393 -6.41393 -6.41393 -6.41393 -6.41393 -6.41393 -6.41393 -6.41393 -6.41393 -6.41393 -6.41393 -6.41393 -6.41393 -6.41393 -6.41393 -6.41393 -6.41393 -6.41393 -6.41393 -6.41393 -6.41393 -6.41393 -6.41393 -6.41393 -6.41393 -6.41393 -6.41393 -6.41393 -6.41393 -6.41393 -6.41393 -6.41393 -6.41393 -6.41393 -6.41393 -6.41393 -6.41393 -6.41393 -6.41393 -6.41393 -6.41393 -6.41393 -6.41393 -6.41393 -6.41393 -6.41393 -6.41393 -6.41393 -6.41393 -6.41393 -6.41393 -6.41393 -6.41393 -6.41393 -6.41393 -6.41393 -6.41393 -6.41393 -6.41393 -6.41393 -6.41393 -6.41393 -6.41393 -6.41393 -6.41393 -6.41393 -6.41393 -6.41393 -6.41393 -6.41393 -6.41393 -6.41393 -6.41393 -6.41393 -6.41393 -6.41393 -6.41393 -6.41393 -6.41393 -6.41393 -6.41393 -6.41393 -6.41393 -6.41393 -6.41393 -6.41393 -6.41393 -6.41393 -6.41393 -6.41393 -6.41393 -6.41393 -6.41393 -6.41393 -6.41393 -6.41393 -6.41393 -6.41393 -6.41393 -6.41393 -6.41393 -6.41393 -6.41393 -6.41393 -6.41393 -6.41393 -6.41393 -6.41393 -6.41393 -6.41393 -6.41393 -6.41393 -6.41393 -6.41393 -6.41393 -6.41393 -6.41393 -6.41393 -6.41393 -6.41393 -6.41393 -6.41393 -6.41393 -6.41393 -6.41393 -6.41393
internal_weight=0 27.6502 2.47758 0.476897 0.307043 2.00068 0.187819 672.203 25.1727 11.4357 7.12243 1.01912 0.40177 6.1033 1.73937 1.60545 0.690848 0.235182 81.0725 31.9782 7.31188 1.65607 0.952161 0.679415 0.507928 0.189452 1.90759 0.746377 0.390337 0.209051 0.318476 4.36394 0.184553 5.65581 1.66751 1.56625 0.205784 24.6664 1.57768 0.240082 1.3376 0.547125 0.192719 23.0887 1.36046 0.617353 13.7369 3.9883 1.16121 0.289078 0.703913 1.24941 591.13 127.018 18.6741 18.5124 0.630419 0.227016 4.17938 0.579789 3.59959 0.189452 1.23634 22.9793 9.06268 0.390337 8.67234 0.667983 17.882 10.0883 1.13508 1.03219 49.0943 16.6947 1.89126 1.79816 14.8034 1.11875 1.03056 32.3996 0.354407 13.6847 3.86417 0.228649 1.11548 13.6193 4.23001 2.73889 0.200885 2.53801 0.282545 0.181286 8.95326 0.535693 0.35604 8.41756 0.455666 7.9619 0.323376 3.75475 0.277646 108.344 9.59674 0.253148 9.34359 2.22606 0.176387 2.04968 1.95659 7.11753 0.191086 0.914597 0.48833 7.63852 0.182919 1.68711 0.186186 0.872134 0.493229 8.00436 0.307043 7.69732 1.17428 1.07792 2.25546 1.01749 0.31031 6.52304 0.436067 1.09098 0.516094 7.4556 0.664716 9.38932 3.41014 0.352773 6.08697 0.191086 98.7471 20.3057 7.46704 3.9687 3.87887 3.78578 0.738211 0.633685 0.179653 78.4414 1.13018 6.79089 0.450766 3.4771 0.552025 32.2869 0.677782 13.5687 2.34856 0.692481 0.579789 1.86513 1.65607 3.04757 7.79368 9.22927 0.325009 0.70718 0.57489 0.886833 0.426268 0.444233 0.302144 3.05737 0.258047 11.2202
internal_count=428514 16930 1517 292 188 1225 115 411584 15413 7002 4361 624 246 3737 1065 983 423 144 49640 19580 4477 1014 583 416 311 116 1168 457 239 128 195 2672 113 3463 1021 959 126 15103 966 147 819 335 118 14137 833 378 8411 2442 711 177 431 765 361944 77772 11434 11335 386 139 2559 355 2204 116 757 14070 5549 239 5310 409 10949 6177 695 632 30060 10222 1158 1101 9064 685 631 19838 217 8379 2366 140 683 8339 2590 1677 123 1554 173 111 5482 328 218 5154 279 4875 198 2299 170 66338 5876 155 5721 1363 108 1255 1198 4358 117 560 299 4677 112 1033 114 534 302 4901 188 4713 719 660 1381 623 190 3994 267 668 316 4565 407 5749 2088 216 3727 117 60462 12433 4572 2430 2375 2318 452 388 110 48029 692 4158 276 2129 338 19769 415 8308 1438 424 355 1142 1014 1866 4772 5651 199 433 352 543 261 272 185 1872 158 6870
is_linear=0
shrinkage=1


Tree=1
num_leaves=175
num_cat=0
split_feature=2 20 38 43 24 21 27 32 3 17 40 17 43 24 2 3 24 23 1 23 40 20 41 20 17 21 40 42 0 43 20 38 17 41 20 27 17 1 20 21 17 3 21 1 27 17 42 38 21 42 38 24 17 27 2 0 32 42 1 20 20 20 23 20 3 42 3 23 21 38 20 20 27 32 1 42 32 32 17 21 42 1 2 2 21 21 27 3 21 42 1 23 24 43 17 38 32 32 17 1 24 21 38 32 23 23 27 3 40 42 27 3 20 21 1 2 3 41 38 23 24 20 20 17 2 1 42 20 20 2 21 24 38 43 1 27 27 21 38 0 0 20 24 3 24 17 40 24 23 43 21 20 21 17 21 40 23 21 13 3 0 20 42 27 20 1 1 27 41 42 21 17 17 1
split_gain=2869.14 3113.6 5282.17 4674.8 1406.15 3843.29 1610.66 1588.18 1320.54 736.684 1413.79 662.89 654.284 1017.41 593.801 883.807 1257.23 2337.06 3860.61 2131.75 1634.72 450.602 578.289 1052.51 1832.35 584.756 407.392 706.862 388.14 494.54 592.416 1258.71 424.549 789.529 760.202 777.811 378.889 961.928 347.861 305.532 511.24 296.615 278.089 264.08 200.679 182.527 469.826 582.66 428.708 172.48 328.962 150.869 224.036 309.67 416.977 139.551 110.558 93.9494 93.1787 199.931 106.222 217.187 155.803 303.877 92.687 247.864 88.4414 87.1058 202.661 86.8579 83.5939 223.765 79.5487 76.057 162.745 188.89 72.0734 160.109 139.057 145.754 413.033 155.571 143.046 259.152 327.481 654.741 246.666 173.683 209.864 248.52 290.691 65.5543 55.1644 92.4521 442.289 76.1173 597.323 73.8182 98.1275 281.513 88.7298 52.0887 294.028 400.623 59.8662 131.413 151.246 277.54 57.9226 46.5827 199.037 44.4543 130.128 40.1829 52.8465 39.7002 38.1777 37.9428 37.3062 37.1362 33.8894 27.7213 135.854 27.251 23.8527 143.541 22.6121 232.54 21.102 82.9789 19.1446 83.2346 182.095 42.7201 18.5787 47.9791 181.36 17.3404 120.104 14.6798 103.341 175.413 14.3926 28.5798 13.9615 30.5115 13.8654 126.214 15.0213 80.7209 13.7152 524.551 54.6527 332.216 13.313 30.1234 12.2935 87.3142 10.5359 10.4515 10.4304 10.3663 33.1915 10.1028 9.94052 9.8749 9.71589 34.9771 9.58932 9.52721 9.06639 9.80454 8.99539 10.4763
threshold=0.87004491158567354 0.86111715408175737 -0.13735493091708337 -2.0921944823296279 -113.463954873421 1.2992519353486125 0.13511339151977744 -3.6356421356421351 -0.25610925679134727 1.0115560497466161 -0.14848883827777595 0.20556855228130033 -1.3417823149589585 -6.24672889595832 2.4505288429270107 -0.41358000420266411 -49.49403001484788 -0.038694365800649944 -0.011481087208822998 0.028566210699374355 -0.50740024034706066 0.30644290582493844 -4.1550459844196856 0.35738849563417419 1.1667902072033125 -5.4198567939954332 -0.50740024034706066 1.1847530729555942 -0.042344254518629339 -1.5530915444239251 0.72236767299037485 -0.04838464732879464 0.78072842932879183 -5.0513877631122641 0.31117603126442378 0.0041286648013694515 0.66142276707747927 -0.010687160274737649 0.52474792682830129 9.4577301600918968 1.4276755053573023 -0.98355194764977527 0.71753286987966647 -0.011178193741735799 0.029819965926812905 0.70809212507089858 -0.24648841249592113 -1.262793018272798 2.5161872310566475 -5.7957982163951112 -0.37337544801900019 -1.5647806440248389 0.51599957264776852 0.052080625096763956 0.35743836400817014 0.11218472863840477 -5.762949956101842 -0.30508883717919033 -0.011420627843101099 0.92631770198891428 0.26395774802644528 0.28097912244050144 -0.17158114783433648 0.35738849563417419 -0.35948370979060423 -0.033463102937094598 1.129684003248147 -1.0121596366303136 0.053303543080484607 -1.1386112556630323 0.64948310553333555 0.72236767299037485 -1.0000000180025095e-35 -5.1034803921568619 -0.011118132134998899 -0.055260868482054741 10.020600414078677 -10.653010033444813 0.92547183137034594 1.8525958024799019 -0.70780462093373775 -0.00019534445133032646 1.2948617187747169 1.0730451790841979 0.23455225429245771 0.66699399544926419 0.0063498062877010509 -0.14922642264600022 0.47827148487616483 0.0061848789502131013 -0.0071441221157369497 0.014815512998524702 -5.3022251118667816 -418.68951449934821 3.3461055977723677 0.057545135202516355 -234.94999999999996 -12.382142857142854 0.20556855228130033 -0.0091579537001293971 -5.7552332626251781 0.16843064905422186 -2.8887698426321391 -2.8535714285714282 -0.11004458245504463 -0.14523950350029216 0.0017998896468220504 -0.53181754670020287 -0.37934323518904028 -1.2617530664058498 0.0012629853512289501 -0.79125311730120973 0.21467511695903438 -1.0000000180025095e-35 -0.0068770814967604992 1.1312330507227297 -0.64584448582035914 -44.986722883041089 -2.2326047664287434 -2.458630905991813 67.44209709428047 0.15535208502827819 0.25167379556072245 0.46022206480563971 1.0000000180025095e-35 -0.0036584564067091998 -1.8238196963398734 0.56765116136375948 0.00061289859851125018 0.78916217049783843 -5.4198567939954332 23.012145848703483 0.03175674573031536 -4.3429042427996807 -0.011319398181415348 0.43797246462589351 0.9037507493821173 -1.2957386540291116 0.014305299676460652 0.27298810107982246 0.29828648044479655 0.29334545750375574 -37.007890819338876 0.046384664566303711 -26.108216777746488 1.4456203932124587 0.19040569768581578 -403.64988845837735 0.64324258559487013 -7.2657366501352643 0.16318670346983591 0.042129367403739557 0.17676554585494661 1.104886899324119 7.6563480249270865 -0.085983004440433483 0.71371840613143378 0.54195230788676241 0.88789688582535764 -0.31595317332286632 -0.38050779067922241 1.0592812765717301 0.10133062852727466 1.2816224067339144 0.10354022055946571 -0.011268882790318699 -0.011400342134865448 0.28165047735016124 -9.8874358322075597 1.6798819778310894 0.20998078489906444 0.48958593787011612 3.1703061501829026 0.00069444649313930016
decision_type=2 2 2 2 2 2 2 2 2 2 2 2 2 2 2 2 2 2 2 2 2 2 2 2 2 2 2 2 2 2 2 2 2 2 2 2 2 2 2 2 2 2 2 2 2 2 2 2 2 2 2 2 2 2 2 2 2 2 2 2 2 2 2 2 2 2 2 2 2 2 2 2 2 2 2 2 2 2 2 2 2 2 2 2 2 2 2 2 2 2 2 2 2 2 2 2 2 2 2 2 2 2 2 2 2 2 2 2 2 2 2 2 2 2 2 2 2 2 2 2 2 2 2 2 2 2 2 2 2 2 2 2 2 2 2 2 2 2 2 2 2 2 2 2 2 2 2 2 2 2 2 2 2 2 2 2 2 2 2 2 2 2 2 2 2 2 2 2 2 2 2 2 2 2
left_child=1 4 3 -3 5 42 7 -7 -9 10 -4 12 13 -6 15 16 17 36 -19 20 -20 111 23 24 -23 -25 27 44 120 30 32 -32 33 -30 57 -36 37 -2 -22 69 -41 -24 113 -21 -27 46 47 -31 -49 50 -34 52 53 54 -43 -39 -56 -35 59 60 123 -62 63 -63 65 -54 142 68 -47 -28 159 -72 -45 -38 75 -75 77 126 82 146 -81 -82 83 119 -85 -86 -87 88 89 90 -84 -12 95 94 -94 97 -97 150 99 -99 101 134 103 108 105 106 107 -104 -103 110 -51 112 -13 114 -1 -48 -71 -106 -119 -79 158 -76 -123 -17 125 -53 127 165 129 -113 131 133 -133 -95 135 164 -137 138 -78 161 141 -141 143 -66 145 -69 148 -148 160 -150 -16 -152 153 -153 -126 -156 -154 -158 -18 -64 -80 166 -163 -118 -100 -60 167 -128 -74 -11 -108 -172 173 -111
right_child=14 2 9 -5 11 6 -8 8 -10 169 91 21 -14 -15 92 58 28 18 19 43 38 22 41 25 -26 26 39 -29 29 45 31 -33 49 34 35 -37 73 55 -40 40 -42 51 -44 72 -46 67 115 48 -50 109 -52 124 64 -55 56 -57 -58 -59 76 -61 61 62 70 -65 66 -67 -68 144 -70 116 71 -73 168 74 121 -77 137 78 79 80 81 -83 87 84 85 86 -88 -89 -90 -91 -92 -93 93 130 -96 96 -98 98 100 -101 -102 102 104 -105 117 -107 170 -109 -110 172 -112 128 -114 -115 -116 -117 163 118 -120 -121 -122 122 -124 -125 154 -127 139 -129 -130 -131 -132 132 -134 -135 -136 136 -138 -139 -140 140 -142 -143 -144 -145 -146 -147 147 -149 149 -151 151 152 156 -155 155 -157 157 -159 -160 -161 -162 162 -164 -165 -166 -167 -168 -169 -170 -171 171 -173 -174 -175
leaf_value=5.0084275078247273e-07 1.6309000776888742e-06 4.439578423603206e-06 2.0489557348169386e-06 4.8689576423379786e-07 4.1683650988666817e-07 4.0098973242652606e-06 2.6627991143898257e-07 2.8313338689245495e-06 3.1654338993959878e-07 -1.5195230409382712e-08 -1.5195227123675176e-08 -1.519522863073488e-08 5.7372620537080786e-08 2.472843622401682e-06 -1.4832335831128608e-08 2.0082069089054448e-07 -9.6596616700419483e-09 3.8283926756212168e-06 2.7618316427582742e-06 7.753309129316198e-07 1.3309905260023696e-06 2.9704506582861185e-06 8.9844560716439417e-07 1.230847284974645e-06 -1.5195223815237616e-08 -1.5195228642163009e-08 5.0084259987057875e-07 1.5948421182533065e-06 2.7413404003674639e-08 1.6066382002271201e-06 2.3463333771995806e-06 -1.5195224811987108e-08 -1.5195226135415022e-08 6.7285529499526952e-07 6.4828211723121896e-07 2.5570551411396824e-06 -1.5195231665166059e-08 -1.5195229760463505e-08 1.2554234653858091e-07 8.362056027859174e-08 1.5329181092681777e-06 1.2232958385329222e-06 7.5886153702678622e-07 5.0084274599419283e-07 7.5886145907953979e-07 -1.519522881653196e-08 3.1654342353601402e-07 -1.5195229022035435e-08 1.128027249841777e-06 8.1415144096399422e-07 1.1107054195847885e-06 -1.5195230125782939e-08 -1.5195229033125951e-08 -1.5195229142955992e-08 -1.5195226726752804e-08 6.6034501908395768e-07 6.6034529976470934e-07 -1.5195223592482946e-08 1.4495450449994369e-07 6.2540364281799841e-07 7.6976398867612906e-07 1.145890187689452e-06 1.5368992475524648e-07 7.0022065972391098e-08 3.2883007152203361e-07 7.5088167310943877e-07 4.9146026938257149e-07 -1.5195227819211241e-08 7.4825825709056062e-07 3.1072347105845381e-07 8.2923064037402372e-07 -1.5195228348453848e-08 1.5681738365785818e-07 -1.5195223988239176e-08 -1.5195230741160236e-08 8.5903382775820762e-07 -1.5195230843733382e-08 3.2883007758583491e-07 1.5681743673468071e-07 1.0939011367758639e-06 -1.5195231010380143e-08 6.7285538367913078e-07 1.5329182843664661e-06 -1.5195227653326247e-08 1.760582431780482e-06 9.8002082121317254e-07 -1.5195227298257457e-08 -1.5195231930271916e-08 -1.5195229320655818e-08 -1.5195225201801775e-08 3.7728437375822703e-07 5.0084265017463348e-07 -1.5195230028782661e-08 3.2257508762238656e-07 1.1458900308709612e-06 1.1458902404867171e-06 -1.5195230923883335e-08 1.0168806631934414e-06 -1.5195231625297191e-08 -1.5195228149668873e-08 5.0084275204462964e-07 4.4162526059839651e-07 9.0220556348684286e-07 1.2325383241456691e-06 2.9967530098347184e-07 6.7285528233474609e-07 1.5368992975189132e-07 -1.519522804621398e-08 -1.5195228143989733e-08 -1.5195231359773031e-08 -1.5195228835793877e-08 -1.5195230436634385e-08 6.7285545346994968e-07 -1.5195231208298632e-08 -1.5195223625312276e-08 -1.5195231180495219e-08 -1.5195231567679018e-08 2.8443971603788826e-07 -9.5001455815222368e-09 -1.51952303923635e-08 2.5800136409963826e-07 6.728553993787629e-07 -1.5195229180315241e-08 -1.5195231703213591e-08 -1.519523172936353e-08 6.4828224496943637e-07 -1.5195229204037073e-08 6.4828227614214132e-07 -1.1501917049338391e-08 3.9309862418634368e-07 -1.4425187904222051e-08 8.4486815585706579e-07 -1.5195226786600807e-08 -1.5195231471849757e-08 -1.5195232177977821e-08 7.4617228269297659e-07 -1.5195229127985002e-08 -1.4848729535977131e-08 5.0811097731735896e-07 -1.5195227254702788e-08 -1.5195231442197807e-08 7.3794133486566817e-07 -1.5195231621955182e-08 -1.5195226944262507e-08 -1.5195231827938762e-08 3.2883010900401265e-07 4.4464067619623928e-07 -1.5195231801916947e-08 4.9146020117546438e-07 -1.5195230251795491e-08 1.1458902044673108e-06 9.8002088172688299e-07 -9.5182443119288044e-09 -1.5195230262741585e-08 3.2257508626579278e-07 -1.5195227671115243e-08 -1.5195230356701144e-08 5.008427668691664e-07 1.5681744507449453e-07 -1.5195231358249126e-08 -9.5175508971183132e-09 3.2257509067712211e-07 -1.5195228900927958e-08 1.4776414142668618e-07 1.4776412786016657e-07 -1.5195231473533103e-08 -1.3263844253209798e-08 3.2883011800553326e-07 -1.5195230560921985e-08 1.568174201619219e-07 1.449544586296802e-07 -1.5195231696241567e-08 1.5681743831709768e-07 1.568174296301078e-07
leaf_weight=0.088193335570394993 0.12902363715693355 0.16005470813252032 0.14698897826019675 0.12085754645522684 0.1404560866067186 0.097992688417434692 0.10779190610628575 0.10125912562943995 0.091459779068827518 0.46383163484279066 0.15842140081804135 0.22374974936246772 0.20905087084975349 0.091459808754734695 41.803637179313228 0.14045605261344407 10.962104146485217 0.094726309180259594 0.15842151187825948 0.1535217756172641 0.11269151512533671 0.091459831339315456 0.099625827977440795 0.13392327120527703 0.09799259016290307 0.22374978859443295 0.088193361298181894 0.12249084189534187 0.3560398758854717 0.1028922435361892 0.096359434304758906 0.11269148951396335 0.13392322324216366 0.088193350820802152 0.091459764284081757 0.10615867027081549 1.6822061626007783 0.32500882016029242 0.10779190098401159 0.15352173743303854 0.088193370378576219 0.17148707725574075 0.13718968362081796 0.088193336501717456 0.11759116570465267 0.24334826495032746 0.091459769406352143 0.26131359487771988 0.10615866165608168 0.091459765681065952 0.10779189865570549 0.41810170304961503 0.25151432224083692 0.26131360256113112 0.14698889874853194 0.089826596551574767 0.089826559298671782 0.094726178562269392 0.09472616622224439 0.14208927832078178 0.11595790681894902 0.091459759627469661 0.089826546376571392 0.17801987158600241 0.088193340343423521 0.15842140302993435 0.089826541021466144 0.18128631077706714 0.11922432738356292 0.093092973344028773 0.10779184952843923 0.21885012614075094 0.08819335838779796 0.096359390532597899 0.54549208935350157 0.13882285624276847 0.77904106059577216 0.088193338480778039 0.088193331263027086 0.10942508943844587 0.53079319908283651 0.088193339062854537 0.088193360366858542 0.16985383862629533 0.11105828720610589 0.091459761606529355 0.15352175361476839 1.3816955931251864 0.2678464426426217 0.11105827905703336 0.11595790786668669 0.088193352683447301 0.43280059180688013 0.089826545212418618 0.091459772083908319 0.11759112135041505 0.76760864444076915 0.088193341623991728 1.1546793938614488 0.19598518207203852 0.08819333533756335 0.099625811795704067 0.13229002489242703 0.10942507698200632 0.09635941800661374 0.088193352217785903 0.089826543582603224 0.17801986902486522 0.17801987926941365 1.0713857032824297 0.24498148332349956 0.49976220203098165 0.088193330098874867 0.81497174443212017 0.09472619555890549 0.89989868004340678 1.4715221562655614 0.10125902167055745 5.3275308357551685 0.39850324694998407 0.11105827370192933 0.088193337083794177 0.26294687832705677 3.1177975008031353 3.3791110443416987 0.091459746472513426 0.29724418371916783 0.13718962587881822 8.2150453298818302 0.14862209488637745 472.81585904001258 0.088193326955661067 0.15842134656850249 2.1199062794912598 7.8116425871849051 0.099625808303244301 0.25968037219718099 43.781454100622796 0.11595789284911007 0.17312024487182398 1.5891131050884721 0.12085753481369466 1.4404910997254763 0.15025531442370266 4.2659440070856371 0.088193330564536154 0.16495419363491237 0.82150452642235894 0.089826553128659725 0.37237183854449529 0.091459758346902897 0.091459756018596461 26.722578437300402 0.49486256146337837 0.089826545212417841 0.18781912222038943 0.52262712328229 0.088193332892842591 0.088193326955661955 1.3784290771000076 5.3438627476571137 0.089826544164678945 0.26294677867554128 0.093092960421927162 0.093092967988923081 1.3718962150160248 23.56395080126822 0.088193328236229718 0.48343017755541984 0.088193339761346579 0.094726193347014376 1.234706671326421 0.088193330564536043 0.088193334988318273
leaf_count=54 79 98 90 74 86 60 66 62 56 284 97 137 128 56 25596 86 6712 58 97 94 69 56 61 82 60 137 54 75 218 63 59 69 82 54 56 65 1030 199 66 94 54 105 84 54 72 149 56 160 65 56 66 256 154 160 90 55 55 58 58 87 71 56 55 109 54 97 55 111 73 57 66 134 54 59 334 85 477 54 54 67 325 54 54 104 68 56 94 846 164 68 71 54 265 55 56 72 470 54 707 120 54 61 81 67 59 54 55 109 109 656 150 306 54 499 58 551 901 62 3262 244 68 54 161 1909 2069 56 182 84 5030 91 289501 54 97 1298 4783 61 159 26807 71 106 973 74 882 92 2612 54 101 503 55 228 56 56 16362 303 55 115 320 54 54 844 3272 55 161 57 57 840 14428 54 296 54 58 756 54 54
internal_value=0 1.69447e-07 9.12436e-07 2.73901e-06 1.26132e-07 5.68439e-07 1.85015e-06 2.43743e-06 1.63787e-06 3.69828e-07 8.71277e-07 9.13567e-08 6.72855e-07 1.22766e-06 -5.56805e-09 2.60801e-08 1.05864e-07 3.31008e-07 8.80668e-07 6.46464e-07 1.5863e-06 7.79065e-08 1.48948e-07 3.34702e-07 1.42615e-06 2.54722e-07 2.01396e-07 6.06231e-07 5.43297e-08 1.27682e-07 2.968e-07 1.07332e-06 2.3345e-07 5.4089e-07 1.02131e-06 1.67366e-06 1.2034e-07 4.86896e-07 7.4166e-07 1.06924e-07 6.12419e-07 7.64975e-08 1.18455e-07 2.08628e-07 2.51466e-07 5.39809e-08 2.02752e-07 5.976e-07 3.15069e-07 1.09429e-07 4.86896e-07 6.48237e-08 1.49913e-07 3.92601e-07 6.5359e-07 1.31083e-07 2.41044e-07 3.16543e-07 3.63238e-09 6.36376e-08 4.89609e-08 1.30919e-07 9.50344e-08 4.35165e-07 7.53242e-08 2.80858e-07 2.76888e-08 9.58286e-09 2.3585e-07 3.69396e-08 4.39684e-08 2.63465e-07 7.67719e-08 4.94967e-08 1.45648e-07 5.00843e-07 -3.99675e-10 1.48486e-08 6.50526e-08 3.06601e-08 2.34725e-07 8.28384e-08 1.52949e-07 2.99422e-07 5.32895e-07 7.94369e-07 3.56352e-07 7.746e-08 2.97029e-07 5.6234e-07 8.76518e-07 1.69348e-07 -1.19407e-08 -1.39836e-08 1.87362e-07 -9.22669e-10 1.39045e-07 -2.34132e-09 2.54991e-08 3.05104e-07 2.08893e-08 1.8421e-08 4.76059e-08 4.55118e-07 2.61245e-08 1.01644e-07 7.25166e-08 3.75907e-07 1.48723e-07 5.18365e-08 2.10258e-07 1.33856e-09 1.79332e-07 3.04121e-08 2.33609e-07 1.541e-08 1.2259e-08 1.27894e-09 -4.01751e-09 4.71449e-08 -5.68092e-09 5.24819e-08 1.57617e-07 -5.88326e-09 6.65193e-09 1.0389e-07 -4.277e-09 5.10174e-08 -4.92582e-09 7.83935e-08 -1.42057e-08 2.80367e-08 2.92377e-07 -1.46473e-09 -5.53126e-09 4.14431e-08 1.95911e-07 -1.34974e-08 5.26054e-08 -7.66371e-09 3.31414e-08 2.94428e-07 2.87614e-09 1.12047e-07 -8.5055e-09 9.73949e-08 9.05721e-09 6.16979e-08 2.47306e-10 8.32714e-08 -9.32828e-09 -1.11408e-09 -4.87145e-09 1.40047e-07 -6.89806e-09 9.40834e-08 -7.98007e-09 5.9313e-08 -8.33099e-09 -4.86299e-09 -6.81698e-09 -1.08256e-08 7.08111e-08 -5.49932e-09 -3.03727e-09 -4.85148e-09 -1.20281e-08 6.35224e-08 1.13439e-08 1.22861e-08 6.18264e-09 -3.78407e-09 9.1207e-09 -2.11257e-09
internal_weight=0 22.2656 1.22654 0.280912 21.039 1.53358 0.398503 0.290712 0.192719 0.945629 0.393604 19.5054 0.440967 0.231916 677.588 113.57 24.9375 4.64485 1.28697 1.19224 0.378905 19.0645 9.88909 2.77482 0.189452 2.58537 2.45145 0.463832 20.2926 9.13128 2.77156 0.209051 2.56251 0.736578 0.380538 0.197618 3.35788 0.543859 0.220483 1.98762 0.241715 7.11426 1.13508 0.813339 0.341341 6.35972 1.46172 0.470365 0.367472 1.82593 0.241715 7.01464 2.84832 0.669616 0.408303 0.414835 0.236815 0.18292 88.6327 5.58068 5.43859 2.18034 2.06438 0.26948 2.1787 0.409936 1.76877 4.898 0.362573 1.7459 1.7949 0.326642 0.659817 2.81402 1.13181 0.235182 83.052 38.3755 10.5865 7.60912 0.728412 0.618987 2.97734 1.01259 0.525894 0.35604 0.244982 1.96475 0.583056 0.31521 0.204151 0.246615 564.018 475.796 0.52426 88.2211 0.8852 87.3359 17.5211 0.284179 17.2369 17.1487 7.72998 0.387071 7.34291 1.81776 1.72957 0.31031 0.277646 1.58421 0.336441 9.17537 0.311943 0.997891 0.18292 0.991358 1.65771 5.52515 5.42879 0.486697 11.1614 0.896632 0.35114 3.25825 4.16632 0.509561 27.7891 1.60381 8.86343 0.648384 475.272 2.45635 0.246615 2.20973 9.41872 1.60708 0.359306 44.6765 0.894999 26.1853 1.88309 0.293978 1.67894 0.238449 4.53542 0.26948 6.88071 0.986459 5.89425 0.462198 69.8148 28.0112 27.9197 0.586322 3.65676 0.277646 27.3334 0.61082 11.0503 1.46826 5.43206 24.3022 0.352773 1.56462 1.24777 1.46662 23.9494 0.385438 0.571624 0.552025 1.41926 1.32943 1.24777 1.15958
internal_count=428514 13633 751 172 12882 939 244 178 118 579 241 11943 270 142 414881 69538 15269 2844 788 730 232 11673 6055 1699 116 1583 1501 284 12425 5591 1697 128 1569 451 233 121 2056 333 135 1217 148 4356 695 498 209 3894 895 288 225 1118 148 4295 1744 410 250 254 145 112 54269 3417 3330 1335 1264 165 1334 251 1083 2999 222 1069 1099 200 404 1723 693 144 50852 23497 6482 4659 446 379 1823 620 322 218 150 1203 357 193 125 151 345343 291326 321 54017 542 53475 10728 174 10554 10500 4733 237 4496 1113 1059 190 170 970 206 5618 191 611 112 607 1015 3383 3324 298 6834 549 215 1995 2551 312 17015 982 5427 397 291005 1504 151 1353 5767 984 220 27355 548 16033 1153 180 1028 146 2777 165 4213 604 3609 283 42747 17151 17095 359 2239 170 16736 374 6766 899 3326 14880 216 958 764 898 14664 236 350 338 869 814 764 710
is_linear=0
shrinkage=1.51704e-08


Tree=2
num_leaves=175
num_cat=0
split_feature=2 15 9 43 28 38 43 29 38 10 9 43 38 9 3 31 15 11 43 2 28 0 24 2 15 3 24 6 0 3 43 31 15 38 31 11 2 9 16 10 43 3 15 10 43 38 24 15 24 16 28 6 9 29 24 15 11 10 28 24 0 28 43 6 38 28 6 10 43 31 31 15 15 29 31 0 3 38 2 43 31 2 2 39 29 3 16 15 43 38 16 6 29 28 38 0 43 38 31 10 43 2 9 3 38 24 10 16 24 31 24 24 38 6 6 10 31 31 15 38 10 0 15 15 15 38 2 9 24 43 15 2 29 39 38 11 39 0 24 6 15 24 38 28 29 38 10 0 29 10 28 2 9 15 11 31 16 16 43 31 24 24 9 38 38 3 3 24 33 11 28 24 38 28
split_gain=2869.14 3402.94 3625.52 3803.07 3625.39 1710.05 1884.42 2503.22 3712.9 1480.11 1795.39 1090.36 1308.66 1013.17 930.559 905.374 1376.8 1405.35 1210.01 753.45 328.604 837.117 323.004 320.077 662.459 343.564 1007.84 1539.93 277.798 262.798 330.702 569.926 1095.42 267.157 581.793 258.738 235.26 284.329 421.444 418.016 568.662 212.248 211.756 195.019 1130.96 268.656 192.412 551.866 173.302 152.034 251.828 498.824 341.596 596.579 197.138 149.698 520.731 123.533 107.571 369.825 326.482 563.15 281.161 93.8792 89.1271 86.3217 80.4092 269.36 534.363 73.5413 69.0863 66.949 66.1897 145.131 219.797 140.227 63.4005 186.586 57.4026 110.429 53.6208 118.215 52.5494 104.958 214.677 566.474 96.3038 143.001 229.274 294.139 82.6366 49.9836 409.257 42.8894 218.026 50.7765 111.088 40.7869 39.5424 155.544 417.798 82.3771 122.827 127.064 192.73 41.0277 38.2271 128.781 43.3254 37.2451 35.0926 34.5287 81.07 374.658 41.1078 57.2467 36.5508 139.279 233.254 56.211 151.109 33.6555 33.4296 65.7944 33.0865 29.7551 29.72 29.6551 29.426 195.689 21.0705 113.198 378.631 153.597 19.4924 45.3808 78.962 18.0188 26.2208 17.2765 24.4219 14.0333 41.1399 122.53 500.639 667.538 90.5428 21.284 78.3064 38.0295 14.0093 30.3293 13.4926 27.8548 140.729 30.1676 121.042 21.9896 14.0147 29.9513 13.3272 11.6191 33.4657 11.5766 251.233 10.7241 10.0524 10.0477 9.94371 33.5232 9.84814 9.80416 9.76971 9.72014
threshold=0.87004491158567354 3.1600592582766227 -0.47764655528753441 -13.627628827654105 9232.4982127586609 -0.26913124147876671 -2.2587184748263165 8.0039912777815854 -0.069466125907044748 0.97624447628209121 -0.042243401865770094 -2.2587184748263165 -0.29356145327682998 -0.49864280635691188 -0.37008435155585651 -0.05221889316891664 4.2376553124211744 0.18132403153094653 -1.6709114627846919 -1.0000000180025095e-35 15147.517402688763 -0.0079179712899376479 -8093.4482758620688 1.6413100298741428 4.7832763776354374 -0.61874302484472754 -67.641907207507089 -0.024764745465004148 0.069224792417556413 0.056030577618089612 -0.59937829508206708 3.2409217477777719 4.2925023331464578 -0.66258160950458567 0.29171567421511674 0.24343228694836302 2.4505288429270107 -0.24859866455036816 0.86904338539095927 0.63844875826536696 -3.2538322199607825 -1.1304101329247689 3.388620755261857 0.46159934899058158 -418.68951449934821 -0.087669042941401196 -54.639339972883299 4.357113516606943 -37.007890819338876 1.21880198752053 5465.5829561931068 0.0032666446433003505 -0.52149879641030039 1.0757076145260533 -76.079811132317744 5.0367656581213573 0.14002209542922148 1.030289167206812 28177.578891539306 -5.7552332626251781 -0.042344254518629339 234846.65750000003 -6.5267436591042438 -0.016396996042859296 -31.167207792207787 67453.345349087569 -0.10389699336289258 2.4998184231972993 -5.013037204541253 4.7949949798335743 21.765454104748255 4.816062418837471 4.816062418837471 95.53258762604429 1.253181598298013 0.083322923971062016 -0.054690140265932295 -0.062585250895636185 -1.0000000180025095e-35 -1.2464418100558405 -6.133374087558213 1.5239661862980942 3.0513839249493251 -1.4745423611594082 0.082394525772265206 -0.96480556060275147 2.359441373753286 4.1564070584590747 -3.6165334922263033 -2.2326047664287434 2.1751910438309152 0.017963496202150004 0.10094813092615161 22096.088545442057 -0.087669042941401196 0.13433800794579107 -1.8652355265267486 -0.19737752844367837 -0.33798775677531129 0.54195909175527446 -1.6148236095493893 1.2948617187747169 -0.049499891717608997 0.11018576777297182 -0.31943826151284843 -54.639339972883299 0.67058636795030435 0.88528875288755571 -12.419640811956802 -0.4059507348374945 -76.079811132317744 -5.3022251118667816 0.057545135202516355 -0.0021400765475207994 0.031468770638855705 1.46928554301114 -1.8881854156037583 -2.0946730632125319 4.2925023331464578 -1.116520751996037 1.030289167206812 0.11218472863840477 4.6399522230741246 4.7641628013258863 5.14186911783949 -0.18746579812404299 1.7564622714900053 -0.32550158363167503 -76.079811132317744 -1.3934412672867669 5.1942565337056168 3.0995158827710472 0.13222505474824542 3.0789928996095637 -0.35288303919401209 0.20494430061009558 1.2599289444362942 0.27298810107982246 -2.0404154274327668 -0.10389699336289258 4.1564070584590747 -0.50873098094267777 -0.26913124147876671 104873.70937243044 2.3368889430470938 -0.10351193389534179 0.5982960208246566 -0.09625051790674688 73.019303951382099 0.55520006874834882 1146041.6201677055 3.52312838223795 -0.3026507466906832 4.8997305822778792 0.19623360712744406 2.6251061449996556 1.3765706650624348 0.39715884003475338 -418.68951449934821 0.19611083393091827 -2.3149397136512833 107.75803302803625 -0.078474795914189946 -0.055468314509761092 -0.038375115916033944 1.0704248372499217 1.19288185236502 -403.64988845837735 -0.037488581266249689 0.14096040548297523 70936.176875847144 -24.115461995477649 -2.5639658731636863 170339.88028559377
decision_type=2 2 2 2 2 2 2 2 2 2 2 2 2 2 2 2 2 2 2 2 2 2 2 2 2 2 2 2 2 2 2 2 2 2 2 2 2 2 2 2 2 2 2 2 2 2 2 2 2 2 2 2 2 2 2 2 2 2 2 2 2 2 2 2 2 2 2 2 2 2 2 2 2 2 2 2 2 2 2 2 2 2 2 2 2 2 2 2 2 2 2 2 2 2 2 2 2 2 2 2 2 2 2 2 2 2 2 2 2 2 2 2 2 2 2 2 2 2 2 2 2 2 2 2 2 2 2 2 2 2 2 2 2 2 2 2 2 2 2 2 2 2 2 2 2 2 2 2 2 2 2 2 2 2 2 2 2 2 2 2 2 2 2 2 2 2 2 2 2 2 2 2 2 2
left_child=1 22 3 4 -3 29 7 9 -9 19 -11 12 28 15 -8 16 20 71 -19 -7 134 -22 -1 24 25 26 27 -17 -5 30 31 33 -33 110 -35 -20 37 38 39 40 -15 -24 -42 44 -25 170 47 127 -13 50 64 52 53 -52 -54 58 -57 69 80 60 -60 62 -62 -61 -43 172 67 68 -39 121 82 -18 91 75 -75 -74 77 -16 79 -56 81 -40 83 84 85 -45 87 90 -89 -90 -86 98 -93 137 95 96 -95 -88 99 100 -68 102 103 125 -105 -104 107 -31 -109 -21 -4 112 114 -114 116 -116 117 119 -119 120 -38 -28 -65 -124 -58 -101 -64 -41 129 -51 152 132 -132 -134 -2 -136 -137 -77 -139 140 -82 142 -100 147 146 -146 -145 148 149 -144 -84 -152 153 155 -155 157 -157 -118 159 -159 -50 -143 -163 -141 -165 -66 -78 -151 169 -85 -46 -32 -48 -27
right_child=13 2 5 11 -6 6 14 8 -10 10 -12 48 -14 36 76 23 17 18 35 109 21 -23 41 43 -26 173 57 -29 -30 106 171 32 -34 34 -36 -37 111 66 55 46 42 49 -44 70 45 -47 65 -49 160 128 51 -53 54 -55 78 56 124 -59 59 63 61 -63 126 122 165 -67 72 -69 -70 -71 -72 -73 73 74 -76 93 166 -79 -80 -81 139 -83 150 168 86 -87 97 88 89 -91 -92 92 -94 94 -96 -97 -98 -99 141 101 -102 -103 105 104 -106 -107 -108 108 -110 -111 -112 -113 113 -115 115 -117 130 118 -120 -121 -122 -123 123 -125 -126 -127 -128 -129 -130 -131 131 -133 133 -135 135 136 -138 138 -140 163 -142 161 143 144 145 -147 -148 -149 -150 167 151 -153 -154 154 -156 156 -158 158 -160 -161 -162 162 -164 164 -166 -167 -168 -169 -170 -171 -172 -173 -174 -175
leaf_value=7.7774073077111532e-07 -1.5195230895058553e-08 1.0847779850951568e-06 3.1072339018517351e-07 1.1888925365705578e-06 4.7513526487219619e-06 1.4829777662360105e-06 1.4709928084616274e-06 4.4925352643093032e-06 9.0447575330886719e-07 3.2909347621100887e-06 4.2021152752606216e-07 8.2922973926151446e-07 2.6046853766766126e-06 1.7464498853246088e-06 -1.519522745562658e-08 7.4986147922408289e-08 -1.5195227483493504e-08 2.8066752279835791e-06 1.4039075290510519e-06 3.2882995941712309e-07 3.5841490542888675e-08 1.3921797151951337e-06 7.104826985224075e-07 1.8769428310692333e-06 1.3507867398716284e-06 -1.5195231411701157e-08 1.5767052282763343e-08 2.1821246133138741e-06 -1.5195222974863738e-08 6.6034519083078461e-07 1.5681740348229355e-07 2.0902380858850871e-06 -1.5195224604686243e-08 1.3609047280355252e-06 -1.519522694049543e-08 3.2257470215016446e-07 5.4212580404520834e-07 -1.5195225831827111e-08 6.7285536398508229e-07 -1.5195227206018521e-08 -1.5195226555079167e-08 4.6525384057371063e-07 7.6609573832248149e-07 1.5047704713887734e-06 -1.5195231006981645e-08 7.8097718995466719e-07 1.5067407072709793e-07 1.4776273330150477e-06 -1.5195227498044865e-08 -1.5195230936209405e-08 1.7049297202222386e-06 1.3609055743342895e-06 7.3389150136843345e-07 9.8081357140448731e-08 -1.5195226300062881e-08 1.3609056004450162e-06 3.1654342711207362e-07 6.7285507551266789e-07 1.6291837069650923e-08 5.0084266585994862e-07 8.4664118232822004e-07 1.3254391116610255e-06 2.4523512377865386e-07 -1.5195231647502163e-08 -1.5195231680687028e-08 5.0084266143270148e-07 1.0168803870489435e-06 -1.5195230642887302e-08 1.5047709576688907e-06 4.0701766010013712e-07 4.0071599770415357e-07 5.0084262501201323e-07 4.9517199345794835e-07 -1.5195224128453023e-08 1.016880684088639e-06 -1.5195231682082193e-08 -1.5195230827316656e-08 8.4486756846250226e-07 -1.519523112222555e-08 6.7285505626037747e-07 -1.5195224111289204e-08 -1.5195227017399547e-08 -1.3191632438669852e-08 3.2883007710468854e-07 4.8234853714655259e-09 5.9114244931121211e-08 -1.5195231460349912e-08 -1.5195227864950514e-08 1.2232952407077745e-06 2.0336197643063172e-07 4.9146022141190364e-07 1.0007545254232479e-06 -1.5195230757387475e-08 6.4828198353809163e-07 6.8145592252798766e-07 -1.5195231189158338e-08 3.9124568857051444e-08 3.1072334806874905e-07 -1.0863495405342773e-08 -1.5195227224556836e-08 -1.5195229135984984e-08 -1.269019216914503e-08 3.2883004511877786e-07 1.1058525914944679e-06 1.4224010229267072e-07 -1.519523096082004e-08 -6.8496017303993852e-09 2.6915224701008504e-07 -1.5195230482645711e-08 -1.5195230139549491e-08 -1.5195230073577992e-08 -1.4517432793168315e-08 7.7346656048531591e-07 -1.5195230896977043e-08 5.0084272918573614e-07 -1.5195224690181997e-08 1.6873909568950603e-07 -1.5195225150216072e-08 1.0168806337833574e-06 -1.5195231568048004e-08 -1.5195229662115105e-08 3.2257503450635937e-07 5.0084273784056411e-07 -1.5195226921147619e-08 -1.5195229228257451e-08 3.288300614386228e-07 -1.5195228630602372e-08 3.2882998336973989e-07 -1.3624073788287492e-08 6.7798983590249982e-07 1.0684843065692576e-06 -1.519523163336734e-08 -1.5195230716773529e-08 6.4828215915145296e-07 1.8217301922138102e-08 5.9389829816356356e-07 -1.5195223709118037e-08 -1.5195225430426347e-08 3.2883009577558989e-07 -9.3982565833866133e-09 3.2883004875791659e-07 -1.4505571723013654e-08 3.2257505239382899e-07 4.8241275607632035e-07 1.5530237221512895e-06 -1.5195225390093087e-08 -1.5195231188429625e-08 -1.5195231745157197e-08 4.8241272499572029e-07 1.5067410759042332e-07 3.2883010098426256e-07 -1.5195227515904075e-08 -1.233174099741188e-08 -1.5195229583429734e-08 6.6034538567863078e-07 -1.5195229475313582e-08 5.8407464142058062e-07 -1.5195227262639798e-08 -1.153538669388529e-08 3.288301055115391e-07 1.7831897529486338e-07 3.2883008336169657e-07 -1.5195228746925324e-08 7.9960120501525619e-07 -1.5195231304422591e-08 1.5368990437967401e-07 1.5681741233623008e-07 -1.519523113502702e-08 -1.1257679397778063e-08 -1.5195228758212627e-08 1.5067410215853356e-07 -1.5195230537379614e-08 -1.5195231003147441e-08 1.4224002478672191e-07
leaf_weight=0.13392330321949231 0.66798301949165761 0.12412424536887556 0.093092996277846285 0.088193398900330067 0.12412431603297591 0.10125914041418582 0.12249086541123677 0.11105860339011997 0.16495434381067753 0.096359728137031198 0.10452550847548991 0.089826633455231786 0.12739060597959906 0.094726273790001869 0.16985391068737954 0.16822067170869559 0.16822065075393755 0.12902396789286286 0.11759126302786171 0.088193369330838323 0.29724427044857293 0.16168796073179681 0.10452550929039794 0.08819339214824129 0.11105835635680694 1.4241591130848998 0.9799260339932514 0.15188876097090576 0.08819336409214884 0.089826574199833309 0.088193348376080394 0.12249085016082972 0.10615868424065411 0.13229014410171647 0.15188858448527753 0.08982664777431637 0.16332100890576917 0.13065679767169058 0.088193341856821372 0.16658745147287846 0.14698891923763113 0.094726193579845019 0.17475352680776268 0.089826588635332882 0.82967068965081114 0.1143247692380126 0.091459783376194426 0.091459854738786817 0.17148711567278951 0.65328419837169349 0.088193420786410459 0.088193366536870488 0.10125910805072624 0.13392327469773591 0.13718969642650336 0.08819336490705687 0.091459768707863986 0.088193378993310145 0.48179695301223546 0.088193350355141198 0.15842142200563103 0.1584214314352721 0.1747535051545126 2.9381445754552273 2.3583553599892166 0.088193351053632796 0.13229006063193083 0.60592086531687528 0.08982655976433207 0.14372248970903445 0.10942506545689035 0.088193357223644853 0.14862212317529966 0.10289221990387876 0.0881933398777619 3.3774780706735332 0.6892146582249542 0.08819338772445906 0.95216138102114212 0.08819338143803146 0.10289221990387609 0.16495419444981962 7.5715608829632401 0.088193338830023893 0.75780949427280597 0.20415125205181572 1.7410017584916206 0.18618596310261637 0.1224908217554912 0.1388228926807642 0.089826549519784749 0.10452544153667886 0.71861231024377048 0.091459782794117928 0.13065682852175076 1.1301812594756482 0.27927888242993493 0.093093009083531242 21.012877607485283 0.16822062688879669 0.2841785391792645 6.0559420578647405 0.088193346979096532 0.094726194976828992 0.09635937656275928 0.83620345243252792 1.8177626867545766 0.16005458158906549 0.53732608223799616 0.4050362511770802 0.41483536153100431 470.01817059761379 0.17312028235755861 0.69574751798063417 0.088193339528514936 0.11269147333223373 0.16495422611478261 0.11759111657738586 0.088193344185128808 2.2276982612675056 0.35603975667618215 0.08982655918225646 0.088193337898701318 0.16005459020379931 0.28417855000589043 0.08819334302097559 0.23844868713058531 0.088193363277241477 9.6555368718691152 0.10942511551547696 0.097992618451825275 3.2468210842926055 0.65818356326781213 0.091459758579730988 0.45403242448810777 0.099625887349247932 0.096359406830742955 0.12085754971485585 0.088193333940580376 7.8508397880941594 0.088193346164189279 43.993771567358642 0.089826554409228154 0.091459768940694519 0.12575720413587987 0.12412394676357497 1.0534204207360742 4.4962267908267597 0.091459774994291254 0.091459762887097784 0.088193332543596514 0.1780199013883248 63.574324169429019 0.33807444502599615 0.089826547889970243 0.33154160319827575 0.10125902586150914 0.17148703453130743 8.2901730536250398 0.088193331495858729 0.15678820118773718 0.088193337200209498 0.24824790586717327 0.093093010480515548 1.3506645567249504 0.089826558250933775 0.088193343835882843 1.0370882778661323 3.8527423269115353 0.24988113413564861 0.091459765797480941 0.56345740822143842 0.76760875445324928 0.096359424176626018
leaf_count=82 409 76 57 54 76 62 75 68 101 59 64 55 78 58 104 103 103 79 72 54 182 99 64 54 68 872 600 93 54 55 54 75 65 81 93 55 100 80 54 102 90 58 107 55 508 70 56 56 105 400 54 54 62 82 84 54 56 54 295 54 97 97 107 1799 1444 54 81 371 55 88 67 54 91 63 54 2068 422 54 583 54 63 101 4636 54 464 125 1066 114 75 85 55 64 440 56 80 692 171 57 12866 103 174 3708 54 58 59 512 1113 98 329 248 254 287788 106 426 54 69 101 72 54 1364 218 55 54 98 174 54 146 54 5912 67 60 1988 403 56 278 61 59 74 54 4807 54 26937 55 56 77 76 645 2753 56 56 54 109 38926 207 55 203 62 105 5076 54 96 54 152 57 827 55 54 635 2359 153 56 345 470 59
internal_value=0 1.69447e-07 4.3321e-07 1.29835e-06 2.91807e-06 3.0422e-07 6.44879e-07 1.10341e-06 2.34819e-06 6.71442e-07 1.79723e-06 7.41349e-07 1.43304e-06 -5.56805e-09 2.20625e-07 9.49715e-08 3.75301e-07 1.00835e-06 1.65316e-06 2.91025e-07 1.6409e-07 5.13698e-07 3.60951e-08 6.16525e-08 1.99303e-07 1.58606e-07 3.122e-07 1.0748e-06 5.86849e-07 1.26671e-07 2.75076e-07 4.45523e-07 1.11272e-06 2.52932e-07 6.25403e-07 9.35614e-07 -8.99077e-09 1.19378e-08 6.99117e-08 2.95315e-07 7.13329e-07 2.93176e-08 4.09161e-07 3.48124e-08 2.27823e-07 8.73612e-08 1.60727e-07 4.66765e-07 2.38792e-07 2.44243e-08 1.0229e-07 2.52105e-07 1.86952e-07 7.36095e-07 9.15713e-08 4.36724e-08 3.11871e-07 1.24659e-07 3.49274e-08 9.63907e-08 3.22803e-07 5.25086e-07 3.03274e-07 1.26013e-08 8.6678e-09 4.88647e-08 1.0843e-09 1.50019e-07 6.0405e-07 8.48175e-08 2.08754e-08 1.62296e-07 -3.34172e-10 5.03142e-08 4.61148e-07 3.56862e-08 7.27103e-08 2.7875e-07 3.6337e-08 2.54042e-07 6.61285e-09 2.24513e-07 1.81855e-08 4.65699e-08 1.0889e-07 5.00843e-07 7.2068e-08 1.72218e-07 3.91608e-07 6.81456e-07 5.63939e-08 -3.80036e-09 1.13814e-07 2.25991e-08 8.70826e-08 3.53417e-08 1.89401e-07 1.3474e-09 -5.00468e-09 2.73513e-08 3.12641e-07 1.13555e-08 1.175e-07 3.23808e-07 6.19929e-07 1.7627e-08 3.13938e-08 1.19703e-07 5.00649e-08 4.63192e-08 4.45391e-08 -1.29387e-08 -3.80815e-09 1.41944e-07 -5.3833e-09 2.11358e-07 -5.92622e-09 4.64553e-08 4.27123e-07 1.79392e-08 1.60063e-07 4.15296e-08 -9.1227e-10 1.68134e-07 6.55759e-08 1.03132e-07 9.49473e-08 1.0389e-07 -6.45842e-09 8.42553e-08 -7.92863e-09 2.55609e-08 1.81675e-07 6.57519e-08 4.23555e-08 1.01497e-07 2.94427e-07 -6.73559e-09 1.2994e-07 7.97686e-10 1.43586e-07 -8.5034e-09 -1.39763e-10 3.11534e-08 1.58832e-07 7.74039e-07 2.45566e-08 4.81876e-10 5.42962e-08 2.21587e-08 -9.38859e-09 9.87764e-08 -9.80315e-09 6.98481e-09 1.26617e-07 1.38875e-09 1.25011e-07 -4.75068e-09 -8.09786e-09 1.01644e-07 7.72295e-08 -1.38264e-08 7.49862e-08 -2.13786e-09 3.73426e-08 -8.99864e-09 4.31881e-09 -1.75285e-09 -4.33551e-09 7.45505e-08 1.27407e-09 8.08468e-09 2.46386e-09 -5.21813e-09
internal_weight=0 22.2656 7.47684 0.970128 0.248249 6.50671 2.22933 1.07139 0.276013 0.795374 0.200885 0.721879 0.303777 677.588 1.15795 22.308 2.36979 0.592856 0.336442 0.594489 1.77693 0.458932 14.7887 19.9382 3.25335 3.1423 1.62178 0.320109 0.176387 4.27738 1.67241 1.02076 0.22865 0.792107 0.284179 0.207418 655.28 103.995 16.3991 1.70997 0.416469 14.6548 0.321742 16.6849 1.12365 1.03546 1.2935 0.346241 0.418102 14.5503 4.13202 1.58911 1.50092 0.222117 1.2788 14.6891 0.463832 1.30167 14.2253 4.48643 1.21184 0.730045 0.571624 3.27459 2.54291 0.947262 87.5956 0.826404 0.220483 1.21348 15.5612 0.256414 86.7692 5.55781 0.191086 5.36673 1.03546 0.258047 1.17754 0.225383 9.73883 0.253148 15.4518 7.61403 3.42321 0.293978 3.12923 1.29514 0.4475 0.261314 0.847636 81.2114 0.823138 5.21811 1.63158 1.50092 0.370739 1.83409 80.3882 7.84431 0.416469 7.42784 1.3719 0.4475 0.191086 0.924397 2.60497 0.787207 0.697381 0.49323 0.507928 551.285 81.2669 0.868868 80.398 0.200885 80.1971 2.95284 0.205784 2.74706 0.519361 1.06975 3.18639 0.248248 0.375638 0.256414 0.413202 0.254781 10.4182 0.762709 77.2443 4.09446 0.847636 0.749643 1.318 0.650018 0.195985 3.58653 0.209051 9.48568 0.191086 72.5439 28.2137 7.20082 1.39476 0.249881 1.14488 5.80606 1.30983 1.21837 7.83777 0.266213 73.1498 9.57551 0.427901 9.14761 0.432801 8.71481 8.54985 0.25968 0.328275 44.3302 0.336441 9.2946 1.44376 2.44818 0.777408 1.12855 4.19082 0.338074 0.92113 0.651651 0.859069 1.52052
internal_count=428514 13633 4578 594 152 3984 1365 656 169 487 123 442 186 414881 709 13659 1451 363 206 364 1088 281 9055 12208 1992 1924 993 196 108 2619 1024 625 140 485 174 127 401222 63675 10041 1047 255 8973 197 10216 688 634 792 212 256 8909 2530 973 919 136 783 8994 284 797 8710 2747 742 447 350 2005 1557 580 53634 506 135 743 9528 157 53128 3403 117 3286 634 158 721 138 5963 155 9461 4662 2096 180 1916 793 274 160 519 49725 504 3195 999 919 227 1123 49221 4803 255 4548 840 274 117 566 1595 482 427 302 311 337547 49759 532 49227 123 49104 1808 126 1682 318 655 1951 152 230 157 253 156 6379 467 47296 2507 519 459 807 398 120 2196 128 5808 117 44418 17275 4409 854 153 701 3555 802 746 4799 163 44789 5863 262 5601 265 5336 5235 159 201 27143 206 5691 884 1499 476 691 2566 207 564 399 526 931
is_linear=0
shrinkage=1.51704e-08


Tree=3
num_leaves=175
num_cat=0
split_feature=25 19 41 10 11 11 19 29 41 15 17 8 16 10 19 31 11 29 19 19 31 17 11 17 10 29 36 16 19 8 31 31 41 29 10 41 15 11 19 8 10 19 19 25 17 10 41 17 8 16 31 16 41 15 35 19 11 8 41 35 7 31 24 25 25 29 15 31 41 11 19 25 31 19 11 15 11 19 31 7 35 36 15 19 11 17 16 31 25 11 19 24 10 11 7 25 36 31 10 31 19 41 15 19 11 19 8 10 17 31 19 16 19 8 10 31 31 25 8 29 29 8 16 16 0 41 11 29 17 19 25 15 41 31 35 7 17 31 7 10 36 31 7 8 11 35 7 35 15 29 25 31 7 31 19 31 16 24 17 24 0 7 0 29 31 36 15 19 36 15 17 25 8 41
split_gain=1214.68 2095.52 3397.77 3788.9 2003.88 1145.71 1646.89 914.421 508.167 497.157 692.47 1881.57 648.982 428.941 1131.07 4107.86 1150.61 2101.84 2845.04 980.517 480.764 504.966 1246.97 307.503 410.498 299.421 324.294 291.627 502.491 1258.23 2207.46 850.02 422.08 646.665 252.042 242.086 340.793 899.637 1682.08 2431.32 743.404 845.544 634.36 1254.57 319.449 944.605 242.193 222.535 181.514 165.76 157.796 136.373 181.41 202.52 303.004 558.845 1498.12 340.132 1071.94 243.372 187.61 155.092 211.386 128.536 231.613 124.469 128.503 105.888 166.619 94.5714 91.7485 91.0302 394.169 89.849 83.5717 81.3563 72.1052 70.081 146.38 69.9194 104.883 67.6313 67.5851 67.0858 333.547 142.872 375.943 61.9048 56.1561 54.9549 224.217 317.702 767.743 128.095 371.374 81.2673 86.5637 77.1172 67.6165 55.9855 186.128 65.3122 465.5 52.9221 175.926 48.8601 116.541 47.3118 40.5543 38.9674 36.6633 36.3113 124.106 560.457 56.0872 35.2787 59.9827 32.973 68.6612 64.7344 135.794 267.462 64.0511 128.579 30.6008 30.421 28.8374 67.6071 27.8124 25.5021 24.9856 24.133 217.545 23.9048 144.704 21.8052 21.1115 23.871 16.0298 23.8351 59.6591 15.0933 29.9513 14.9983 126.256 49.2382 13.4107 30.8628 13.1016 112.874 225.988 157.409 12.4912 31.3597 10.9427 83.4308 10.8688 33.4077 10.8469 10.7744 10.3678 34.3226 10.3621 9.94398 9.88682 9.45828 9.2158 28.928 60.9244 9.92671 9.15417 8.99991 8.58092 9.33512
threshold=-0.94705494931664247 -4.8334999999999999 -23.439867051245134 0.66545628840685989 0.26030179086986904 0.17179405365796344 -394.90499999999992 2.567099393852875 -0.225704492526868 3.388620755261857 0.50381940715941187 -1.2198750835244809 0.67718027470785891 0.83547783909038975 255.54100000000003 0.022287438793922306 0.1308318634634332 2.7903395935209203 977.88800000000003 307.07000000000011 0.15216354047358591 0.84413300987510376 0.14905541595982788 0.3275926177608432 0.83547783909038975 0.80970545916680015 -108.94804679477517 1.5827982697788299 57.063500000000005 -1.0270319777749128 2.0339961262611665 0.50981988779472087 -430.08154235787782 1.5630957136994914 0.61613548717600308 -3.1958103620895346 3.5058149264663254 0.16600109234521829 -67.310999999999993 0.72529691892312964 0.46159934899058158 98.164500000000018 1260.0539999999999 0.13400359268765102 1.1434861834190444 1.1989864870294824 -3.5292351956150187 0.80884033959212231 -2.6847694382821423 1.5185058291041666 0.022287438793922306 1.8588505936877773 -1.2285333247033134 3.3362736400113575 19.57580078470415 33.367500000000014 0.19426051059064328 -0.47206945269329276 -11.596856237344172 14.788371545679123 -0.045069470535116847 -0.83544297760265918 -54.639339972883299 -15.102912966814186 -16.467977576327783 12.734662319425695 4.816062418837471 -26.21655584689147 -0.12914002473646011 0.2654321660779832 2239.0185000000006 -40.513352642395127 0.26469440621830448 -2542.3404999999998 0.19241950565079788 2.2435466045352057 0.20969129359874542 7.9895000000000014 1.3260204965928355 0.061006607196955102 15.062303528776171 -856.5642120153617 4.4543019741521244 150.35350000000003 0.32276554820965847 1.0341517868347558 2.1010707025743298 43.69519197782008 12.18828899660881 0.15468066659585963 -3.4725000000000006 -7.8751144262679889 0.91477129636065102 0.32276554820965847 -0.00015050587125259998 6.6383537057204682 -95.6852384438846 -42.330417157561847 0.48688230404252431 2.8002462673514361 1023.8735000000001 -2.1915017420795802 4.157375999033067 -98.508999999999986 0.13266205156177333 328.9815000000001 1.8668877762125267 0.46159934899058158 0.73585928379198517 4.3964575208972478 -2542.3404999999998 1.2087209078805865 27.723500000000001 0.19351169618335387 0.85386588168568378 4.7949949798335743 14.465463035019457 -4.6579520468011637 0.30216263746976263 4.4574607192547404 24.25466444040536 -2.4472445850874061 1.507649152397091 1.5288946912900281 0.057872918552871001 -2.9127231637730104 0.33379019927328035 2.9425324699766597 0.40156065713797529 243.96450000000002 -0.88125963868550172 5.2505521006164111 -0.80956812285737267 3.5425411577819252 55.899941446060403 -0.013644720262822449 0.20556855228130033 -1.0000000180025095e-35 0.029878106309626905 1.7607502006538094 -90.43441476198457 -26.21655584689147 0.0029085087332706007 -0.22384367191739193 0.32276554820965847 -256.79876172200289 -0.062711141538860038 1.0000000180025095e-35 4.8331148680383924 0.13222505474824542 -2.5559957038248529 0.52623478269867807 -0.017928320233036945 1.5237005987652854 123.51150000000003 1.253181598298013 1.6140690466647987 -40.508652659937177 1.1124483109377195 -3.7618127818838327 -0.38931580237686625 0.0027357731819439004 -0.037624110571023092 1.3955435670399357 3.1618604031187814 -16.359718857430035 3.9705185030259931 -128.05499999999998 -36.93983982031213 4.0758597501808103 0.59816325004912763 -22.963303550002397 -0.71298842790835792 -1.5739583924491318
decision_type=2 2 2 2 2 2 2 2 2 2 2 2 2 2 2 2 2 2 2 2 2 2 2 2 2 2 2 2 2 2 2 2 2 2 2 2 2 2 2 2 2 2 2 2 2 2 2 2 2 2 2 2 2 2 2 2 2 2 2 2 2 2 2 2 2 2 2 2 2 2 2 2 2 2 2 2 2 2 2 2 2 2 2 2 2 2 2 2 2 2 2 2 2 2 2 2 2 2 2 2 2 2 2 2 2 2 2 2 2 2 2 2 2 2 2 2 2 2 2 2 2 2 2 2 2 2 2 2 2 2 2 2 2 2 2 2 2 2 2 2 2 2 2 2 2 2 2 2 2 2 2 2 2 2 2 2 2 2 2 2 2 2 2 2 2 2 2 2 2 2 2 2 2 2
left_child=1 2 3 4 -1 48 -7 -5 9 25 11 12 23 14 27 -16 170 20 19 -19 -18 22 -22 124 -25 26 -8 28 32 30 49 -31 33 -3 -21 36 88 40 39 -39 41 -38 44 -44 45 46 65 76 -4 -30 -46 52 53 133 55 57 59 61 -59 125 -56 62 -55 64 77 66 -40 68 -54 -33 -23 72 81 -50 -27 -10 82 135 -79 87 -81 -53 -12 109 85 86 -85 138 136 -37 91 92 -91 95 -95 96 -93 -98 -99 131 101 102 -101 104 110 126 -107 -52 -77 143 -42 112 128 -114 -115 -75 -117 118 119 -65 121 -121 -119 -124 -11 -57 165 -128 -103 158 -105 141 -133 -15 -135 -34 137 -2 146 140 -140 142 -92 154 145 -145 147 -69 -73 150 151 -150 153 -132 156 -156 157 -29 -87 -113 161 -158 -109 -76 -130 -62 -100 168 -168 -169 -17 -147 173 -63
right_child=35 13 5 7 -6 6 8 -9 75 10 47 -13 -14 51 15 16 17 18 -20 34 21 70 -24 24 -26 74 -28 83 29 31 -32 69 63 -35 -36 89 37 38 42 -41 103 -43 43 -45 50 -47 -48 -49 73 -51 107 71 67 54 60 56 -58 58 -60 -61 105 172 -64 117 -66 -67 -68 79 -70 -71 -72 148 -74 115 163 108 -78 78 -80 80 -82 -83 -84 84 -86 129 -88 -89 -90 90 99 93 -94 94 -96 -97 97 98 166 100 -102 111 -104 130 -106 106 -108 162 -110 -111 -112 159 113 114 -116 116 -118 122 -120 120 -122 -123 123 -125 -126 -127 127 -129 164 -131 152 132 -134 134 -136 -137 -138 -139 139 -141 -142 -143 -144 144 -146 171 -148 -149 149 -151 -152 -153 -154 -155 155 -157 160 -159 -160 -161 -162 -163 -164 -165 -166 -167 167 169 -170 -171 -172 -173 -174 -175
leaf_value=1.3358826921967819e-06 3.2882995112187771e-07 -1.5195226658009856e-08 5.2069031805916406e-07 1.400219997531337e-06 4.3637339722712956e-06 2.0489524495856017e-06 9.8081276182494451e-08 -1.5195229746637955e-08 4.9146000203514662e-07 3.2882961288036267e-07 6.7285472748731504e-07 2.9262144864119603e-06 1.8425379379379793e-06 -1.0506345033916623e-08 3.4680543016728368e-06 1.2994045286668883e-07 1.1458890909427061e-06 1.8901735688612474e-06 3.5804125294990109e-06 9.9811459677830261e-07 2.2209672534296398e-06 -1.5195232112310272e-08 5.9713471676063782e-08 1.3462200764070978e-07 1.432389416922094e-06 5.0084253337886593e-07 1.1328431980369067e-06 3.2882989188631631e-07 -1.519522664894624e-08 1.4591976662399974e-06 2.9857595873742978e-06 -1.5195232078589311e-08 2.0082054382652671e-07 1.5812941538793888e-06 5.068196140497761e-08 -1.4351129041380316e-08 -1.5195224367922005e-08 3.3348089472891607e-06 -1.5195231429691928e-08 1.1381411671741997e-07 3.2257508781075869e-07 2.0489547407682122e-06 2.3929758140746286e-06 -1.5195225810578641e-08 6.7285512854128647e-07 1.7540752086340458e-06 9.4570233087721092e-07 8.6346334889202861e-07 4.9146007013202806e-07 8.2923020704411361e-07 2.6346527480240582e-07 -1.5195231799944009e-08 8.4486790578598939e-07 1.0168799425297944e-06 5.6534745434331695e-07 -1.5195228294270556e-08 2.518076103673857e-06 2.011421484565701e-06 -1.5195228474117502e-08 1.0168793543523615e-06 -1.5195232475027915e-08 -1.5195232034712594e-08 -1.5195224351598923e-08 -4.7232095405234377e-09 8.9844532032730382e-07 6.7285434032408149e-07 5.5641593455345225e-07 3.2883002400970646e-07 -1.5195226515287442e-08 5.008425915956475e-07 4.8241256385002167e-07 -1.2486809733752528e-08 1.0335268411330346e-06 -1.8205947714675977e-09 1.5681737345505574e-07 -1.5195231945527062e-08 -1.5195230030616124e-08 8.2922955847214337e-07 7.3268384285332347e-08 6.7285515456438854e-07 -1.5195226180656736e-08 3.7728438487042527e-07 1.1563117071539127e-07 -1.519522851151852e-08 9.8002018462403002e-07 1.5681742865541044e-07 1.1888931769662359e-06 3.1654352746961141e-07 2.7507610704772142e-07 -1.5195228769767586e-08 -1.519522814703069e-08 5.0084243385274705e-07 1.5329179086808952e-06 9.5687601411904659e-07 2.9461901870569999e-08 4.9146022966458461e-07 4.3425718198437184e-07 3.6653134092362456e-07 -1.5195232601477645e-08 -1.5195231060549408e-08 6.2101568746093628e-07 2.2606931069211845e-07 1.1888925228069625e-06 1.9121998103982672e-07 5.8407457400448476e-07 6.7285527319860541e-07 -1.5195227583021275e-08 1.5067411809255902e-07 3.2257496283747663e-07 3.0510411173778426e-07 1.3917078049554522e-09 1.5067413176866521e-07 1.3609056445397585e-06 3.4670156969359762e-07 -1.5195231132828337e-08 5.0084264678838973e-07 -1.5195226455041793e-08 -1.233805455200424e-08 3.8006765930915815e-07 -1.5195225575919731e-08 -1.5195230124811028e-08 1.0684838859582423e-06 5.8796599736244204e-07 -1.5195229342235392e-08 -1.5195228240790941e-08 3.2883011223616295e-07 -1.5195228068963994e-08 5.0084252606716159e-07 1.5067413976839951e-07 2.0596392361765025e-07 -1.5195228762450737e-08 7.2200169380696356e-07 -1.5195231991781966e-08 -1.519523097218207e-08 6.4828216864285535e-07 -1.51952310063701e-08 -1.4482035084512399e-08 -1.5195224508782324e-08 5.0084266710207627e-07 -1.5195229855290164e-08 -1.5195226313575892e-08 -1.4247093171661742e-08 3.2883009735161438e-07 2.6346532407397678e-07 5.31197626034847e-07 1.2770760227631624e-07 -1.2025753528096791e-08 -1.5195228475660425e-08 -1.5195231710948831e-08 -1.2903427321992767e-08 7.1537533403874303e-07 6.6034534076372841e-07 -1.0726653232715593e-08 3.2883008298771521e-07 -1.5195231456264593e-08 4.7368274708537489e-07 -1.5195229717735851e-08 -1.5195229546282803e-08 -1.5195232398340371e-08 -1.5195232761208435e-08 -1.3468711071506642e-08 3.2883008631998904e-07 -1.5195232287985398e-08 -1.5195231533508919e-08 -9.6629591943444492e-09 1.3462220367348457e-07 -1.5195226655932104e-08 1.5067412169002679e-07 5.0084264173949611e-07 -1.5195231939538331e-08 -1.5195232466397063e-08 -1.5195232459493608e-08 1.5067413460946599e-07 1.39616174135077e-07
leaf_weight=0.089826768962665393 0.088193372474052012 0.13229005481116374 0.16985386970918526 0.17148745968006551 0.11432526900898665 0.13229028915520791 0.13392336980905384 0.27111309382598847 0.089826588635332327 0.088193458272144754 0.088193423696793616 0.097992824623360453 0.089826719020493329 3.23538892506622 0.091459936928003027 0.10452543711289797 0.11759123869705979 0.12739053345285345 0.10125934996176511 0.089826645795255899 0.088193419156595954 1.2608382434118537 0.202518155798316 0.10125918034464121 0.12575738527812064 0.088193372939713299 0.14535584230907372 0.088193386443890631 0.13229003199376155 0.10289232316426833 0.10615881043486297 1.1154824303230269 0.14045614865608513 0.10452564456500113 0.23028262157458812 449.30414048326202 0.09472620754968275 0.099626192590222096 0.61408719385508448 0.11759125581011176 0.089826544513925799 0.088193419738672674 0.088193563860840984 0.1143247599247843 0.088193372357637023 0.10289238358382136 0.094726251554675178 0.12085763865616173 0.089826576411722203 0.089826583862304688 0.16332101542502631 0.78557392349466681 0.088193353032693267 0.088193403789773583 0.15678818372543935 0.17965309810824692 0.089826760930009186 0.089826776762492955 0.18128629471175384 0.088193454430438578 2.294659914565274 1.0517873099306596 0.094726198702119402 1.4486575177870675 0.099625859642398562 0.088193473173305392 0.10615867574233562 0.088193353032688715 0.12575714511331249 0.088193363160826155 0.091459804447367676 50.410650596953928 0.10125904576852918 4.5370572785614067 0.088193363742902875 0.91623107413761296 0.2923448293004185 0.089826652547344565 0.17148713697679341 0.088193369214423778 0.12085752550046891 0.1159579048398871 0.11595802532974631 0.1845527363475411 0.091459820745512732 0.088193335221149805 0.088193351635709405 0.13718962355051267 0.15678818535525252 0.19761846447363485 0.17148704337887366 0.088193389936350175 0.11759118421468884 0.14045611186884344 0.3397077218396588 0.089826548122800776 0.10125902388244856 0.11922438140027125 2.8009547634283081 0.45566554274409909 0.11922438920009959 0.12575715768616369 0.088193399948067963 0.1469888946739929 0.15188856865279365 0.088193353614769765 0.15842138626612723 0.09145975753199409 0.089826578740030527 0.094726204872130348 0.91459747904445876 0.091459749382918676 0.088193362113088258 0.12575716245919466 0.45566549664363265 0.088193353498354443 0.12575716571882367 5.3095655695069608 0.15352184639777977 0.11269150755833834 0.2956110053928569 0.097992656752467044 0.12575718481093634 0.23028259444981813 0.18291973730083555 0.088193329633213469 0.17312032880727191 0.088193373987451196 0.091459744726308023 0.13718963426072139 0.19761838053818337 0.10289225610904396 0.88030004408210416 0.43770023563411076 0.091459757066331804 0.45893214095849544 21.270923558971845 0.097992626950150874 0.088193350122310221 0.27274603024125099 0.12412395351566452 64.000587515416555 0.0881933334749192 0.16332098608836609 0.11105834203772236 0.10615864291321564 14.359180116443889 0.18781915330328047 0.6826817262917757 6.6193989751627669 0.14535571145824988 0.089826553943566978 10.18469589587767 0.08819333731662482 0.58632232784293492 0.093092987779527903 0.27437925443520228 0.24661473301240633 1.9451528661884365 6.1833318507997337 17.573337729321782 0.088193336385302246 1.6577080880524577 0.62878604093566537 2.7421592188766226 0.10125904704909761 0.1306567998835817 0.091459754621609823 0.088193354546092451 0.90153189934790134 2.3175247847102582 2.2750612619565822 0.091459747869521268 0.097992590162902959
leaf_count=55 54 81 104 105 70 81 82 166 55 54 54 60 55 1981 56 64 72 78 62 55 54 772 124 62 77 54 89 54 81 63 65 683 86 64 141 275105 58 61 376 72 55 54 54 70 54 63 58 74 55 55 100 481 54 54 96 110 55 55 111 54 1405 644 58 887 61 54 65 54 77 54 56 30866 62 2778 54 561 179 55 105 54 74 71 71 113 56 54 54 84 96 121 105 54 72 86 208 55 62 73 1715 279 73 77 54 90 93 54 97 56 55 58 560 56 54 77 279 54 77 3251 94 69 181 60 77 141 112 54 106 54 56 84 121 63 539 268 56 281 13024 60 54 167 76 39187 54 100 68 65 8792 115 418 4053 89 55 6236 54 359 57 168 151 1191 3786 10760 54 1015 385 1679 62 80 56 54 552 1419 1393 56 60
internal_value=0 4.13496e-08 2.61273e-07 1.32181e-06 3.03148e-06 1.81763e-07 3.87566e-07 5.33213e-07 3.24475e-07 4.48603e-07 6.48281e-07 9.80019e-07 6.55653e-07 2.4804e-08 6.58886e-08 2.83628e-07 2.22072e-07 4.64348e-07 1.28411e-06 7.64511e-07 2.08836e-07 1.41771e-07 7.15375e-07 4.41625e-07 8.53529e-07 2.08628e-07 6.36642e-07 3.57482e-08 1.02093e-07 3.46702e-07 1.18633e-06 1.35746e-07 5.75179e-08 6.89463e-07 3.16543e-07 -9.65995e-09 2.78592e-08 8.24351e-08 2.9915e-07 1.59111e-06 2.03304e-08 9.8002e-07 2.11704e-07 1.03353e-06 1.5635e-07 3.76859e-07 2.19961e-07 2.79683e-07 3.32464e-08 3.263e-07 4.54656e-08 5.3108e-09 3.52767e-08 8.97043e-08 1.51039e-07 2.89468e-07 7.67367e-07 1.63777e-07 6.56275e-07 3.25674e-07 5.41973e-08 7.00221e-08 4.82413e-07 4.0384e-08 2.05964e-07 1.34925e-07 6.90559e-08 4.15418e-09 3.39335e-07 2.26149e-08 1.84594e-08 -7.21769e-09 1.36086e-07 1.61431e-08 6.01693e-08 5.402e-08 1.37579e-07 1.25809e-07 3.3313e-07 -4.82423e-10 2.75076e-07 3.52868e-08 3.56352e-07 6.71352e-09 8.05644e-08 4.68949e-08 3.74151e-07 -4.25801e-09 -1.09839e-08 -1.22774e-08 -7.77039e-10 9.55231e-08 5.62339e-07 6.54411e-08 3.00746e-07 3.98285e-08 3.04408e-08 2.06407e-08 1.05047e-08 -7.39096e-09 2.50031e-08 1.82016e-08 1.80062e-07 5.42052e-09 1.02881e-07 2.65986e-08 2.30863e-07 1.65338e-08 1.49628e-08 -1.9127e-09 3.01154e-08 9.31318e-09 4.75097e-08 2.34013e-07 6.30802e-08 7.15637e-09 1.97523e-07 1.993e-08 7.11442e-08 4.68845e-08 1.94549e-07 4.88842e-07 8.70526e-10 1.97848e-07 9.67165e-08 9.80814e-08 7.64112e-09 1.58968e-07 5.3096e-09 5.77246e-09 -5.19357e-09 -1.26375e-08 6.19533e-08 4.95376e-09 9.94799e-08 3.54243e-08 -1.30742e-08 1.47764e-07 -7.16872e-09 7.86299e-08 1.99159e-07 -1.37788e-08 1.01644e-07 -3.25875e-09 3.05056e-08 8.65249e-09 -1.00124e-08 9.473e-08 -9.69757e-09 8.95737e-09 1.66612e-07 6.3356e-08 -7.9509e-09 9.09612e-08 -7.99036e-09 5.17905e-08 -1.02134e-08 7.54261e-08 -7.73444e-09 -1.27776e-08 -1.1812e-08 6.84866e-08 -6.52232e-09 5.9635e-09 -4.48781e-09 -8.86348e-09 -7.32355e-11 3.48785e-08 1.9276e-07 8.2211e-11 -8.93179e-09 -8.82439e-09 9.24868e-09 -2.00108e-09
internal_weight=0 132.535 9.27337 0.646753 0.204152 8.62662 3.61593 0.442601 3.48364 2.38776 1.3033 0.685949 0.587956 123.262 39.6641 4.82287 4.73141 2.30936 0.548759 0.4475 1.7606 1.64301 0.290712 0.49813 0.227017 1.08445 0.279279 34.8413 10.6061 1.63484 0.328275 1.30657 8.97122 0.236816 0.320109 567.318 36.9971 15.3832 3.42648 0.217217 11.9567 0.18292 3.20926 0.202518 3.00674 1.00606 0.903166 0.617354 5.01069 0.222117 2.00068 83.5975 24.6468 8.96632 5.20177 2.14114 0.445867 1.69527 0.271113 0.35604 3.06064 1.42416 0.18292 8.73441 0.960328 0.808439 0.720246 15.6804 0.21395 1.20368 1.3523 58.9507 1.00279 4.84083 0.805173 1.09588 0.496496 0.860702 0.261314 15.4665 0.209051 0.901532 0.204151 24.2352 2.53474 2.44328 0.272746 15.2574 21.6139 530.321 81.017 5.20667 0.31521 4.89146 0.480164 4.4113 4.32147 4.23328 4.13202 75.8103 10.5669 10.4476 0.543859 11.7738 1.15631 2.90385 0.246615 1.91249 1.00606 21.7005 1.00442 9.90378 3.62899 0.669616 0.581423 4.75101 0.213951 7.77408 2.10847 1.95495 0.506295 0.210684 5.66561 0.35604 0.271113 0.267846 2.65723 0.261314 2.95938 2.17054 10.6175 65.2435 0.983192 3.76455 0.52916 0.599388 21.4571 0.186186 15.1203 0.485063 0.212317 64.2603 0.25968 21.6057 2.6556 2.54454 14.6352 0.276013 57.9479 7.53726 0.917864 0.772508 10.4705 0.285812 18.9501 0.679415 18.2707 0.334808 2.03335 6.27479 17.9359 0.362573 1.74917 0.716979 2.83362 2.39592 4.0128 1.21184 0.21885 0.992992 2.42205 2.38122 1.24124 1.14978
internal_count=428514 81150 5678 396 125 5282 2214 271 2133 1462 798 420 360 75472 24286 2953 2897 1414 336 274 1078 1006 178 305 139 664 171 21333 6494 1001 201 800 5493 145 196 347364 22653 9419 2098 133 7321 112 1965 124 1841 616 553 378 3068 136 1225 51186 15091 5490 3185 1311 273 1038 166 218 1874 872 112 5348 588 495 441 9601 131 737 828 36095 614 2964 493 671 304 527 160 9470 128 552 125 14839 1552 1496 167 9342 13234 324711 49606 3188 193 2995 294 2701 2646 2592 2530 46418 6470 6397 333 7209 708 1778 151 1171 616 13287 615 6064 2222 410 356 2909 131 4760 1291 1197 310 129 3469 218 166 164 1627 160 1812 1329 6501 39948 602 2305 324 367 13138 114 9258 297 130 39346 159 13229 1626 1558 8961 169 35481 4615 562 473 6411 175 11603 416 11187 205 1245 3842 10982 222 1071 439 1735 1467 2457 742 134 608 1483 1458 760 704
is_linear=0
shrinkage=1.51704e-08


Tree=4
num_leaves=175
num_cat=0
split_feature=9 20 4 26 19 38 20 42 26 19 43 38 4 20 43 31 44 15 20 34 44 43 19 25 15 43 26 26 4 44 20 42 26 6 15 25 26 6 25 26 43 25 32 19 26 26 16 19 4 4 6 42 38 37 9 31 25 43 31 15 19 31 25 26 20 26 20 25 37 20 25 19 32 19 32 6 42 38 43 4 15 19 25 44 26 43 38 42 38 20 43 26 37 43 32 19 15 25 43 6 43 44 25 38 32 6 31 31 19 31 19 4 15 44 31 44 4 19 38 43 19 31 32 20 20 37 42 44 31 38 4 43 20 38 15 15 26 26 19 31 43 20 6 32 25 4 9 31 31 15 43 26 25 44 42 32 44 6 19 43 34 15 37 34 25 19 20 42 26 20 26 31 15 4
split_gain=2284.29 3729.21 5473.54 3288.54 1723.16 1352.99 793.574 1122.14 1154.32 802.825 785.151 1683.16 695.818 650.702 1266.76 5036.14 512.588 1381.22 483.221 467.476 442.098 429.727 400.141 785.314 1371.63 960.866 1353.56 413.873 358.824 527.919 282.717 1283.5 240.565 469.217 221.69 330.336 236.617 362.602 156.545 281.132 287.813 147.221 310.194 615.481 1627.45 438.4 201.52 472.265 757.001 408.57 138.852 138.552 525.88 139.937 350.601 132.993 121.858 200.728 123.314 107.471 295.732 107.029 105.372 100.026 95.26 156.857 88.951 83.1872 77.9102 96.2311 76.6323 102.414 76.5576 129.679 226.749 248.989 206.342 139.95 385.13 74.5046 156.961 71.9096 221.558 71.9086 319.763 70.8023 69.0425 146.892 82.2415 107.979 123.964 63.3584 132.71 77.9672 58.7082 140.613 146.153 243.718 62.1065 56.5328 108.145 52.3941 49.4244 125.09 47.3033 98.2175 265.597 66.0943 210.43 42.8072 42.4746 51.9519 41.3769 93.9104 148.949 38.551 38.5327 35.7254 35.1732 140.6 33.513 38.0074 32.5987 28.3468 27.9048 63.3816 27.1878 26.269 150.635 30.7286 25.0134 24.0055 23.3583 93.6984 163.88 22.6822 77.6681 252.231 21.9334 19.1144 22.8855 18.0807 148.527 309.091 18.4346 161.052 17.3644 54.7639 17.2934 16.7777 52.0615 120.602 79.5314 13.5924 29.0271 13.0128 47.869 10.9608 10.6936 10.5482 10.2903 10.1035 9.76278 9.69526 9.65365 9.60908 9.50976 73.0407 324.062 15.5531 27.8609 10.1135 9.99417 9.46895
threshold=-0.47764655528753441 0.63678010151351161 -0.12446256350415665 0.081819074599292954 299.89550000000003 -0.13286655600479727 0.19309639100009182 -0.11745846320910434 0.66930722619173233 -67.310999999999993 -42.620847615102157 -0.15433440525129408 -0.35888901955939873 0.86111715408175737 -2.0921944823296279 2.6251061449996556 28.635503478573366 3.7216920109325229 1.0592812765717301 1.0002500000000001 35.685925195631818 -29.295625414255955 -6.7279999999999989 -1.249495525321169 4.8507540874576778 -22.36883229486574 0.11402434551867362 0.015533501609797952 -0.88628290293250245 52.130742851878132 0.69997917395037446 0.47280816060820891 0.9853086864838575 -0.0095804977765687489 4.2546320399835542 -8.2115290667037204 0.023717358825023401 -0.026542220852729496 -1.249495525321169 0.49810116901931945 -0.90239688640082794 -1.1697269560423338 -5.1034803921568619 354.28350000000012 0.059002368081123607 0.36956830516542499 1.4998593397258322 12.582999999999998 0.52276653998188893 0.12663182711996573 0.0044918218931782007 0.56985408002508364 -0.14941130375960052 73.711920056679858 -0.31731177503918245 -3.5277538906537811 -2.9008287914420046 -22.36883229486574 -0.24988977302670876 5.14186911783949 216.27350000000004 0.31865091063493939 -31.449467841841642 0.9853086864838575 0.57281984394603158 0.24199473539947958 0.59149409119718066 -40.513352642395127 50.328758666862925 0.34189948342891685 12.18828899660881 66.410000000000011 10.020600414078677 -3.4725000000000006 -5.762949956101842 0.0093238302967004003 0.77734485002826703 0.057545135202516355 1.5232650683563687 -0.50152490200478528 3.6583382001375968 -3.4725000000000006 -15.102912966814186 14.361444414110759 0.33474481224901975 -75.756357477579854 -0.04838464732879464 -1.4600591690847786 -0.65076837764021822 0.42463364206081905 -0.010145467653776248 0.42342593064348211 -102.93017074961118 -0.11240819298524368 -35.334999999999994 -858.78549999999984 4.8921948532866741 -3.3374131974343348 -8.2138921232108419 0.0050282449605967509 -0.13703744416847632 34.827909606887516 -40.513352642395127 -4.1419651978376972 -12.382142857142854 -0.10389699336289258 0.073644980249430961 -0.14085849077965598 1.8969999999999667 3.0075295896510368 5.6465000000000005 0.4911741209256299 4.948914192596054 41.438018744945801 0.95524244840304129 36.473321257201043 0.32818509316863148 -247.89999999999995 -0.04838464732879464 -0.64874712411477164 299.89550000000003 -3.2014380103572857 -1.2232187344294965 0.00093636501228445003 0.36286934935889675 -316.85758269108248 0.05799400893036296 36.727088129997178 3.5425411577819252 -0.12793141876647043 0.27329799683351558 -2116.6716780848687 0.11240964129864738 -3.1048391149780481 3.6398732193642105 3.5736206519032847 0.070053274535839413 0.059002368081123607 -158.03349999999995 -0.50484845553474089 -1.4937696353101217 0.66242687649936871 0.014628186560789602 66.401388888888917 0.18721742508145159 -0.043025327453544447 -0.80936706815413406 0.29171567421511674 1.253181598298013 5.325833154831046 -0.53210371159392222 0.014006121401432852 -0.53659528472854323 34.287643542636715 -0.24648841249592113 -8.165422885572136 35.116612942419017 -0.10389699336289258 2428.7495000000004 -22.36883229486574 -0.59861111111111087 4.7709881716889138 30.503457872814199 0.55579501915708829 -1.4342412493890173 273.95500000000004 0.50244563436512168 -1.8238196963398734 0.16001095873929927 0.5085041441233612 0.19336816646820179 -19.480777106163462 5.2850282864652565 1.0977312579404324
decision_type=2 2 2 2 2 2 2 2 2 2 2 2 2 2 2 2 2 2 2 2 2 2 2 2 2 2 2 2 2 2 2 2 2 2 2 2 2 2 2 2 2 2 2 2 2 2 2 2 2 2 2 2 2 2 2 2 2 2 2 2 2 2 2 2 2 2 2 2 2 2 2 2 2 2 2 2 2 2 2 2 2 2 2 2 2 2 2 2 2 2 2 2 2 2 2 2 2 2 2 2 2 2 2 2 2 2 2 2 2 2 2 2 2 2 2 2 2 2 2 2 2 2 2 2 2 2 2 2 2 2 2 2 2 2 2 2 2 2 2 2 2 2 2 2 2 2 2 2 2 2 2 2 2 2 2 2 2 2 2 2 2 2 2 2 2 2 2 2 2 2 2 2 2 2
left_child=1 6 3 -3 18 -5 63 10 9 -9 11 122 -11 20 15 16 17 -15 56 34 22 -18 23 24 25 26 -2 -27 29 -16 32 126 41 -34 36 -36 37 -14 39 55 -41 42 64 46 -45 -46 47 67 49 -49 101 53 -53 135 -55 -12 57 -4 -59 70 -61 -37 -30 81 91 -66 86 -44 138 -70 -43 -72 73 74 77 76 79 94 -79 80 -76 82 -1 84 -83 -38 88 -88 89 90 165 118 -93 120 98 -96 99 -98 -22 115 -101 130 103 -85 149 106 -106 108 116 139 -69 -112 127 114 123 -97 -107 -81 155 -120 121 -94 -8 -114 153 -126 173 128 129 -109 164 -129 158 134 -134 -25 137 -137 -40 140 -87 -74 144 -144 145 -143 147 -135 -127 166 151 -151 -153 157 -155 -24 -157 -48 -104 -117 -138 -23 -119 -58 -29 -57 -75 168 -168 170 -169 -171 -173 -32
right_child=13 2 4 5 -6 -7 7 8 -10 12 38 -13 19 14 28 -17 21 -19 -20 -21 72 161 30 51 -26 27 -28 50 62 -31 31 -33 33 -35 35 61 85 -39 68 40 -42 59 43 44 45 -47 124 48 -50 -51 -52 52 -54 54 -56 66 163 58 -60 60 -62 -63 -64 -65 65 -67 -68 110 69 -71 71 -73 141 104 75 -77 -78 78 -80 117 -82 83 -84 102 -86 109 87 -89 -90 -91 -92 92 93 -95 95 96 97 -99 -100 100 -102 -103 132 -105 105 107 -108 112 -110 -111 111 -113 113 -115 -116 159 -118 162 119 -121 -122 -123 -124 -125 125 148 -128 131 -130 -131 -132 -133 133 146 -136 136 160 -139 -140 -141 -142 142 143 -145 -146 -147 -148 -149 -150 150 -152 152 -154 154 -156 156 -158 -159 -160 -161 -162 -163 -164 -165 -166 -167 167 169 -170 171 -172 172 -174 -175
leaf_value=7.8097648381510113e-07 2.373312370834438e-06 4.5068965240415449e-06 9.4570127151682293e-07 -1.5195223703724379e-08 1.9677770764062449e-06 2.4291879085077896e-06 -1.519522910076636e-08 1.5329141200405159e-06 2.1411016575317619e-06 1.2983536566384834e-06 5.9590176270925141e-07 2.0489504682287485e-06 -1.5195224162681098e-08 -1.5195228502168672e-08 1.5329162228156685e-06 3.394560529747922e-06 9.3748848564782294e-07 2.0355459864976666e-06 1.1622411978090278e-06 1.2325371576569978e-06 3.051041590620513e-07 -1.5195231912005264e-08 -1.1996649076373131e-08 -1.5195232669454785e-08 1.9403129149123433e-06 1.0314156498674192e-06 -1.5195225140967912e-08 -1.5195231983827258e-08 3.9763507356082541e-07 -1.519522611653073e-08 -1.5195231452307619e-08 1.6239802184695204e-06 1.2325365795273467e-06 -1.5195228574493298e-08 1.0954058254684247e-06 6.1454513249095907e-07 4.7368196865592356e-07 1.3358824944549613e-06 1.584249343108308e-07 1.4223993726356022e-07 1.3358848622964128e-06 -1.1406406182927217e-08 4.1187038551267645e-07 2.4728385141843597e-06 -1.5195230302633019e-08 1.1888914390478039e-06 1.5681737143186477e-07 1.1280256480443605e-06 1.7826120819910633e-06 3.474389256672828e-08 6.7285503531184513e-07 1.3358837286836416e-06 -1.5195229573101987e-08 1.1058515904004871e-06 -1.5195228808549105e-08 -1.5195231101508738e-08 1.5368990050556321e-07 6.7285388617424861e-07 3.2195986133871276e-08 -1.5195229350441868e-08 1.016880355629803e-06 -1.519522819766586e-08 -1.519523271579472e-08 4.2712293981924253e-07 3.6988378098061052e-08 6.6446431975965759e-07 4.9377328853172771e-07 -1.5195231991265409e-08 -1.5195224417615824e-08 6.7285489874119663e-07 -1.5195225820194785e-08 6.7285521289145718e-07 -1.4695104348579373e-08 -1.2421869421235429e-08 8.4486739058869852e-07 1.0168800190999205e-06 7.1537489477380626e-07 -1.519522884197556e-08 1.1888924529550924e-06 3.2882959752879609e-07 -1.5195225409723485e-08 1.8337925707135246e-08 2.3029783373729136e-08 3.0337528789712612e-08 1.0168799642848063e-06 -1.5195223713288963e-08 -1.5195226328476962e-08 7.7198070409709599e-07 -1.5195232207465152e-08 6.7285472302525643e-07 5.0664085519322602e-07 6.7285523530181762e-07 2.9967535819107839e-07 5.0084267231117474e-07 6.6034470873248045e-07 2.9967532019458974e-07 -1.5195227210620193e-08 9.2713438822228866e-07 -1.5195232788234497e-08 6.603452500584731e-07 -1.5195227013166642e-08 3.4670131000813098e-07 -1.2493069383176508e-08 6.7285502979554168e-07 -1.519522879544494e-08 -1.519523119965886e-08 9.6256038853542603e-07 -1.5195231870212661e-08 7.2789923220457997e-07 2.781314969482998e-07 5.00842361211398e-07 -1.5195223942234616e-08 3.2883006729513661e-07 4.6948867671877737e-09 8.4486765153602672e-07 1.5067405183676745e-07 3.2882995801483151e-07 -1.5195231529590855e-08 -1.5195230139709553e-08 6.7285519006523893e-07 3.1072328623466722e-07 -1.5195232025730068e-08 3.2882934496542646e-07 -1.5195227218027172e-08 4.82412426632791e-07 -1.5195230340140452e-08 2.6627986112241902e-07 1.8243635902644578e-07 6.7285519425992766e-07 2.5019563771382135e-07 2.229759245803214e-07 -8.3544178226119092e-09 -1.5195226115766346e-08 3.8289107206643203e-07 8.4486757909410745e-07 -1.5195229326466709e-08 1.5368991882682265e-07 8.9844538544002805e-07 -1.5195232582209733e-08 -1.5195231979977371e-08 3.2882985644746926e-07 6.7285539119793711e-07 8.8009961022112231e-07 2.7807946819361965e-08 -1.5195232802956681e-08 -1.5195231742377698e-08 -7.0757518812632038e-09 -1.5195229646702986e-08 1.7831890317479649e-07 6.6034531278691785e-07 -1.5195232400133616e-08 -1.5195231221795176e-08 4.6525387488665946e-07 3.2883009454702895e-07 -1.519522774312287e-08 8.7446796904805428e-09 2.8443974316470994e-07 -1.5195232540739325e-08 1.5368991609725183e-07 -1.5195232498085379e-08 -1.5195232134112489e-08 1.5368985491272442e-07 1.5368989928823287e-07 -1.5195231382065827e-08 1.4495441188942054e-07 1.5681731230531767e-07 -1.519523050356415e-08 -1.5195227185428377e-08 1.0168802596881813e-06 1.4776414195221272e-07 3.2883010198550776e-07 -1.3222693567354353e-08 1.4224006522484636e-07 1.5067404017212533e-07
leaf_weight=0.11432487063575536 0.11432523280382145 0.1241248049773277 0.094726357026956975 0.089826653711497784 0.1453560752561317 0.12412433628924191 0.22538317088037729 0.13719005614984858 0.091459955787286051 0.1616880916990352 0.12412409065291363 0.14698935498017807 0.093092991504818201 0.18945245293434698 0.088193478411994763 0.12902413425035764 0.12739062588661887 0.12575761298649013 0.11595814523752768 0.10942518024239678 0.14208929892629196 0.881933658500202 14.228523434838291 3.5799957431154317 0.12412423209752876 0.11595806456170965 0.10452551511116326 1.0125907422043376 0.14698893798049528 0.11922432272695005 0.59122212626971204 0.13882320036645979 0.10942523123230785 0.18945239903405209 0.15025565936230123 0.096359526272863039 0.09309313667472574 0.089826782234011193 0.17475357721559692 0.09635947784408927 0.089826624142005929 40.039769211201929 0.1420893782051279 0.091459997347555944 0.32990855467505753 0.088193479576148093 0.088193364790641104 0.10615881113335479 0.10125915636308491 0.30377731390763074 0.088193384115584084 0.089826700510457158 0.25314761674962927 0.094726280076429248 0.19925163593143214 0.48996306944172829 0.089826559182255239 0.088193531613796949 0.32010937423910912 0.23191582050640036 0.088193368399515748 0.17475352075416595 4.4504968187538898 0.13718967838212925 0.2907114545814683 0.13392327213659883 0.11922443867661048 1.0011580418795336 0.099625831004232057 0.088193401927128434 0.11432471568696101 0.088193361065350473 454.99424274347257 87.520440762513317 0.088193406001664476 0.088193397154100128 0.14535579923540343 0.19925172324292439 0.088193405070342124 0.088193461997434275 0.10942513903137296 0.4523991902824499 0.39687030180357652 0.33317490457557142 0.0881934022763744 0.089826619136147201 0.12575723766349256 0.096359467715955716 1.6299444035394115 0.08819342462811619 0.14535571995657104 0.08819335838779796 0.096359400660730787 0.088193349074571326 0.089826638461090957 0.096359412418678736 0.1437225624686107 0.11269156448543061 7.1518254992552093 0.08982656616717577 0.13882283982820798 0.12575725279748429 11.228317801607769 0.088193384930490448 0.2041512592695679 0.49812909809407457 0.09309302014298737 0.82477102905977517 0.12249079206958413 0.15515502716880281 0.08819340239278961 0.091459804447367787 0.088193341391159974 0.76270904601551592 0.088193379226140678 0.091459794901313063 0.088193369680084288 0.64021839445922457 0.30377707933075726 0.088193364324982038 0.093093026080168673 1.0452544032596049 0.088193527888506651 0.14698890666477382 0.091459829942323267 0.32990855420939613 0.10779192508198321 0.15352173219434995 0.088193363510072231 0.1143247421132354 0.12739050271920849 13.305760794435624 0.12085755681619081 0.11432474176399465 0.088193386560305953 0.23028274055104692 0.089826549519784638 0.099625852308236063 4.0095306618604809 1.0142235310049699 0.08819339587353292 0.088193338247947395 0.13555643230211067 0.35277329746168107 7.4931660309666768 0.69738058838992945 1.8683922503842028 0.2613136355066672 0.15678825916256756 0.089826557901688253 1.6691403493750829 0.48669654270634055 0.094726187060587108 0.088193334173411131 0.15678816603030998 3.1684273115824921 0.15188853174913663 2.5576068867230797 0.089826551149600031 2.5020778657635661 1.0975171907339243 0.089826583163812757 0.089826559997163713 0.60592117754276842 0.094726220821030771 0.088193395407870412 0.33970766142010589 0.14045603259000738 0.088193376432172954 0.093092959839849665 0.088193332543596625 7.6907847453840086 0.096359399612992891 0.091459799907170236
leaf_count=70 70 76 58 55 89 76 138 84 56 99 76 90 57 116 54 79 78 77 71 67 87 540 8712 2192 76 71 64 620 90 73 362 85 67 116 92 59 57 55 107 59 55 24516 87 56 202 54 54 65 62 186 54 55 155 58 122 300 55 54 196 142 54 107 2725 84 178 82 73 613 61 54 70 54 278589 53588 54 54 89 122 54 54 67 277 243 204 54 55 77 59 998 54 89 54 59 54 55 59 88 69 4379 55 85 77 6875 54 125 305 57 505 75 95 54 56 54 467 54 56 54 392 186 54 57 640 54 90 56 202 66 94 54 70 78 8147 74 70 54 141 55 61 2455 621 54 54 83 216 4588 427 1144 160 96 55 1022 298 58 54 96 1940 93 1566 55 1532 672 55 55 371 58 54 208 86 54 57 54 4709 59 56
internal_value=0 1.35135e-07 8.03153e-07 2.54255e-06 4.00406e-07 1.40292e-06 8.86709e-08 1.90544e-07 4.67721e-07 4.05331e-07 1.01559e-07 7.09453e-07 3.38534e-07 -5.55863e-09 1.47303e-07 5.25416e-07 2.6368e-07 8.02978e-07 2.27118e-07 2.66493e-07 -7.01602e-09 1.09022e-07 2.76741e-08 1.31709e-07 3.98342e-07 2.91025e-07 1.23254e-06 1.59331e-07 2.58493e-08 6.43058e-07 1.58751e-08 2.78647e-07 1.22003e-08 4.41625e-07 2.14796e-07 5.24844e-07 1.34321e-07 6.48281e-07 6.40563e-08 1.46646e-07 7.18121e-07 1.02601e-08 3.87536e-08 1.3618e-07 6.39776e-07 2.38792e-07 8.77899e-08 2.16401e-07 6.08007e-07 3.17865e-07 8.9525e-08 4.30079e-08 3.38659e-07 2.41994e-08 3.46031e-07 1.10045e-07 1.36663e-07 3.16543e-07 1.70578e-07 -7.71521e-09 2.69152e-07 2.08628e-07 -1.99639e-09 1.93242e-08 1.01187e-08 2.34885e-07 8.83757e-08 6.50773e-08 5.62364e-09 3.07889e-07 -9.91757e-09 2.8444e-07 -1.14208e-08 -9.88514e-10 4.62611e-08 2.39788e-07 1.80769e-07 2.3968e-08 3.54241e-07 1.04273e-07 3.68634e-07 1.56543e-08 1.92539e-07 9.51694e-09 1.81242e-07 6.90559e-08 7.0231e-08 3.263e-07 4.69364e-08 1.717e-07 1.10611e-07 5.18673e-09 1.03063e-07 6.50774e-08 1.49768e-08 6.84447e-08 5.16986e-08 3.9895e-07 -8.95563e-09 2.11902e-08 2.50196e-07 5.171e-08 2.97596e-09 1.64818e-07 -5.95919e-09 1.77466e-08 2.91025e-07 1.27575e-08 1.56025e-07 4.10998e-08 2.3347e-08 2.38132e-07 6.23645e-09 9.65484e-08 3.13193e-07 1.72405e-09 3.65523e-08 4.04256e-08 -2.51155e-09 1.39616e-07 3.39512e-08 1.13818e-08 8.15618e-08 1.13814e-07 1.97904e-08 1.16001e-07 4.23792e-08 -5.34397e-10 7.34091e-08 1.71132e-08 2.16646e-08 -6.17818e-09 -1.97604e-09 4.04627e-08 3.47644e-07 5.63809e-09 5.47949e-08 2.60706e-07 -7.94411e-09 1.02532e-08 1.55239e-07 -1.42793e-08 7.29973e-09 2.64397e-07 -7.86543e-09 6.20496e-08 1.18461e-08 1.05962e-07 4.71449e-08 -9.95331e-09 3.01787e-08 1.43006e-07 6.30802e-08 5.48302e-10 1.08654e-07 -5.68611e-09 2.13564e-08 -9.46148e-09 -1.11742e-08 -9.34593e-09 -2.4185e-09 4.15999e-10 5.58482e-09 6.60918e-09 -1.49511e-09 1.1044e-08 -1.09311e-08 4.35242e-09 1.97523e-07 -5.84107e-09 1.175e-07 -9.41988e-09 -1.1299e-08 7.0265e-09
