tree
version=v4
num_class=1
num_tree_per_iteration=1
label_index=0
max_feature_idx=44
objective=binary sigmoid:1
feature_names=StkIndx STInt dtdlevel dtdtrend liqnonfinlevel liqnonfintrend ni2talevel ni2tatrend sizelevel sizetrend m2b sigma liqfinlevel lqfintrend DTDmedianFin DTDmedianNonFin current_ratio quick_ratio cash_ratio net_working_capital debt_ratio debt_to_equity_ratio equity_ratio cashflow_to_debt_ratio net_profit_margin return_on_assets asset_turnover inventory_turnover days_in_inventory receivables_turnover day_sales_outstanding working_capital_turnover price_to_earnings dividend_payout_ratio retention_ratio gross_margin_ratio operating_profit_margin ebitda_margin debt_service_coverage_ratio interest_coverage_ratio Rolling_Sortino macd macd_h macd_s rsi
feature_infos=[-0.46605693843195262:0.46711741030511528] [-0.0116324345026203:0.011896202737836301] [-0.44902720905117421:17.742214048068398] [-4.9694091986737829:4.6538056267579506] [-1.6706938991979925:3.5560692459975614] [-1.3095420945223275:1.2657671640427035] [-0.21560680324414391:0.059733952565668602] [-0.13527234322148771:0.1339793611468327] [-4.580998390764381:6.4179771999022099] [-1.1942066325584213:1.0458765018221872] [0.27648166458712919:20.517723181034857] [0.0303477379726503:0.62954765821054526] [-6.8315519180182607:0] [-1.3243816917536959:1.382799115435982] [0:5.1443932715032021] [0:5.4163529850772756] [0.015625:223.92875989445909] [0.015625:223.92875989445909] [-11.894736842105264:9.5742207245155857] [-4853:14645] [0:1.5489407738029335] [-26.469026548672566:35.304239401496261] [-1.4582426027923656:0.9899939963978388] [-32257:3772] [-29011900:362.522031725685] [-82.743190661478607:30.548082097009761] [0:1.4305259978930591] [-633.02286198137165:200] [0:21394226.685731489] [-157.59245350500714:5732.4339516582349] [0:9551.0594581218556] [-92.437464306110797:97.709644670050764] [-1481:2275] [-9.375:15] [-14:10.375] [-5251700:100] [-21892500:99.338842975206603] [-21855400:116.02988211114577] [-149041.10344827591:37.012861736334393] [-297211:11423.450000000001] [-2.7045588840239545:2.789041264984403] [-38836389.478387192:1304941.6607078109] [-424188.78312618507:9865714.7369849458] [-48702104.215372138:1061887.028962035] [0:100]
tree_sizes=765 800 802 798 801 802 805 798 799 802 800 808 801 803 804 805 799 803 804 802 800 805 800 804 802 797 804 800 801 800 799 802 805 800 801 808 800 802 807 806 807 803 795 804 804 805 800 802 799 798 801 804 797 805 801 807 800 806 801 801 802 802 797 806 805 799 800 804 798 801 798 808 803 804 806 803 800 799 802 798 805 807 800 799 801 802 803 799 806 800 802 800 804 800 803 801 802 801 801 807 806 803 804 800 803 801 800 801 801 807 799 807 811 805 798 806 806 799 797 800 803 802 800 806 803 801 801 806 800 800 807 805 803 803 804 803 802 802 801 805 804 804 798 804 804 804 805 799 806 799 804 800 804 802 802 810 799 801 801 807 802 795 800 798 803 803

Tree=0
num_leaves=6
num_cat=0
split_feature=2 15 20 35 8
split_gain=2869.05 3402.78 7637.85 5785.43 6157.57
threshold=0.87004491158567354 3.1600592582766227 0.81857471022550732 17.385717135460197 -1.3297186413338393
decision_type=2 2 2 2 2
left_child=1 -1 -3 4 -4
right_child=-2 2 3 -5 -6
leaf_value=-6.4139333005559278 -6.4139336186859452 -6.413931366031556 -6.4139212529302618 -6.413925203230125 -6.4138785272872019
leaf_weight=14.788714362657631 677.58769779058639 6.8725466635078183 0.093092956230975688 0.42300132743548602 0.088193326955661067
leaf_count=9055 414881 4208 57 259 54
internal_value=-6.41393 -6.41393 -6.41393 -6.41392 -6.4139
internal_weight=0 22.2655 7.47683 0.604288 0.181286
internal_count=428514 13633 4578 370 111
is_linear=0
shrinkage=1


Tree=1
num_leaves=6
num_cat=0
split_feature=2 20 35 27 36
split_gain=2869.04 3113.09 7022 4905.47 1988.35
threshold=0.87004491158567354 0.86111715408175737 21.397383257892866 0.0015181805068971001 -76.192513088493214
decision_type=2 2 2 2 2
left_child=1 -1 3 -3 -5
right_child=-2 2 -4 4 -6
leaf_value=9.6319323360219708e-07 -4.2520004909495619e-08 4.7678317296495054e-05 1.793665032416905e-06 8.3691359218981203e-06 3.4196559010326374e-05
leaf_weight=21.039028820930984 677.58764949208125 0.075130969751625143 0.90970055479556322 0.19108712370507419 0.05063007993157953
leaf_count=12882 414881 46 557 117 31
internal_value=0 1.29397e-06 6.96743e-06 2.18203e-05 1.3781e-05
internal_weight=0 22.2656 1.22655 0.316848 0.241717
internal_count=428514 13633 751 194 148
is_linear=0
shrinkage=1.15849e-07


Tree=2
num_leaves=6
num_cat=0
split_feature=2 15 20 31 4
split_gain=2869.04 3402.76 7637.59 5450.49 4720.45
threshold=0.87004491158567354 3.1600592582766227 0.81857471022550732 2.8002462673514361 0.15439526836400977
decision_type=2 2 2 2 2
left_child=1 -1 -3 -4 -5
right_child=-2 2 3 4 -6
leaf_value=2.7560947465909673e-07 -4.2519996660298074e-08 2.2101270965632827e-06 1.1294799781076724e-05 1.4058408911052828e-05 6.8269187822703374e-05
leaf_weight=14.788734542089516 677.58764949208125 6.8725682180374852 0.51773890864569683 0.040831312420777977 0.045732576982118189
leaf_count=9055 414881 4208 317 25 28
internal_value=0 1.29397e-06 3.30815e-06 1.57949e-05 4.27042e-05
internal_weight=0 22.2656 7.47687 0.604303 0.0865639
internal_count=428514 13633 4578 370 53
is_linear=0
shrinkage=1.15849e-07


Tree=3
num_leaves=6
num_cat=0
split_feature=2 15 19 8 36
split_gain=2869.04 3402.74 3895.95 6133.1 3143.25
threshold=0.87004491158567354 3.1600592582766227 977.88800000000003 0.81696857394482902 -79.198920270059673
decision_type=2 2 2 2 2
left_child=1 -1 -3 4 -4
right_child=-2 2 3 -5 -6
leaf_value=2.7560936324831606e-07 -4.2519999691127258e-08 2.8401027649317002e-06 1.1693785542048772e-05 -1.1194288114017564e-07 5.2661682355685359e-05
leaf_weight=14.788738757604735 677.58760119357612 7.2498747521312898 0.039197243750095367 0.1175917312502861 0.070231987396255025
leaf_count=9055 414881 4439 24 72 43
internal_value=0 1.29397e-06 3.30814e-06 1.82527e-05 3.79916e-05
internal_weight=0 22.2656 7.4769 0.227021 0.109429
internal_count=428514 13633 4578 139 67
is_linear=0
shrinkage=1.15849e-07


Tree=4
num_leaves=6
num_cat=0
split_feature=2 15 20 31 4
split_gain=2869.03 3402.72 7637.38 5449.97 4719.62
threshold=0.87004491158567354 3.1600592582766227 0.81857471022550732 2.8002462673514361 0.15439526836400977
decision_type=2 2 2 2 2
left_child=1 -1 -3 -4 -5
right_child=-2 2 3 4 -6
leaf_value=2.7560925215549556e-07 -4.2519991441929124e-08 2.2101146918487866e-06 1.1294627958103907e-05 1.4058170077477519e-05 6.8262762467252358e-05
leaf_weight=14.788742974167691 677.58760119357612 6.872604949399828 0.51774669624865044 0.040832000086084008 0.045736873988062143
leaf_count=9055 414881 4208 317 25 28
internal_value=0 1.29397e-06 3.30813e-06 1.57945e-05 4.27017e-05
internal_weight=0 22.2657 7.47692 0.604316 0.0865689
internal_count=428514 13633 4578 370 53
is_linear=0
shrinkage=1.15849e-07


Tree=5
num_leaves=6
num_cat=0
split_feature=9 20 4 35 27
split_gain=2284.22 3728.77 5472.35 4354.25 3634.64
threshold=-0.47764655528753441 0.63678010151351161 -0.12446256350415665 -23.866093333151657 0.04570623998168661
decision_type=2 2 2 2 2
left_child=1 -1 3 -3 -5
right_child=-2 2 -4 4 -6
leaf_value=6.7712176377949351e-07 -4.2448109720118185e-08 4.547667477777002e-05 3.0573785096149252e-06 2.6816742082229757e-05 -1.126097334776705e-07
leaf_weight=25.852083258680072 672.20298944436945 0.068595154327340424 1.4600958414375769 0.1290246592834593 0.14045689825434238
leaf_count=15829 411584 42 894 79 86
internal_value=0 1.03195e-06 6.13303e-06 1.94148e-05 1.27791e-05
internal_weight=0 27.6503 1.79817 0.338077 0.269482
internal_count=428514 16930 1101 207 165
is_linear=0
shrinkage=1.15849e-07


Tree=6
num_leaves=6
num_cat=0
split_feature=9 20 19 43 42
split_gain=2284.21 3728.74 3939.03 2973.42 1655.48
threshold=-0.47764655528753441 0.63678010151351161 -55.434000000000005 -7.2657366501352643 0.29230740339103001
decision_type=2 2 2 2 2
left_child=1 -1 3 -3 -4
right_child=-2 2 4 -5 -6
leaf_value=6.7712125569069932e-07 -4.2448104501114966e-08 4.243503526096078e-05 2.9318432017856967e-06 1.0518846957348722e-05 1.3561611665315206e-05
leaf_weight=25.852099843323234 672.20294158358593 0.065330711309798062 1.4062044539023175 0.097994468407705537 0.22865393012762081
leaf_count=15829 411584 40 861 60 140
internal_value=0 1.03195e-06 6.13299e-06 2.32884e-05 4.41884e-06
internal_weight=0 27.6503 1.79818 0.163325 1.63486
internal_count=428514 16930 1101 100 1001
is_linear=0
shrinkage=1.15849e-07


Tree=7
num_leaves=6
num_cat=0
split_feature=2 15 20 35 8
split_gain=2869.03 3402.7 7637.19 5784.5 6155.82
threshold=0.87004491158567354 3.1600592582766227 0.81857471022550732 17.385717135460197 -1.3297186413338393
decision_type=2 2 2 2 2
left_child=1 -1 -3 4 -4
right_child=-2 2 3 -5 -6
leaf_value=2.7560903141426936e-07 -4.251998634421688e-08 2.210108412365938e-06 1.2322613196275737e-05 8.3725307603535809e-06 5.5039892417934709e-05
leaf_weight=14.788751637446696 677.58755234919954 6.8726235174108288 0.093097616103477776 0.42302151571493596 0.088207698077894636
leaf_count=9055 414881 4208 57 259 54
internal_value=0 1.29396e-06 3.30812e-06 1.57943e-05 3.31079e-05
internal_weight=0 22.2657 7.47695 0.604327 0.181305
internal_count=428514 13633 4578 370 111
is_linear=0
shrinkage=1.15849e-07


Tree=8
num_leaves=6
num_cat=0
split_feature=2 15 20 35 8
split_gain=2869.02 3402.68 7637.02 5784.17 6155.2
threshold=0.87004491158567354 3.1600592582766227 0.81857471022550732 17.385717135460197 -1.3297186413338393
decision_type=2 2 2 2 2
left_child=1 -1 -3 4 -4
right_child=-2 2 3 -5 -6
leaf_value=2.7560892019111294e-07 -4.2519989076115234e-08 2.2101032813889365e-06 1.2322460835140162e-05 8.3724599848011581e-06 5.5036865786239576e-05
leaf_weight=14.788755843299443 677.58750406454783 6.8726387029746538 0.093098757788538933 0.42302504531107843 0.088212537579238304
leaf_count=9055 414881 4208 57 259 54
internal_value=0 1.29396e-06 3.3081e-06 1.5794e-05 3.31068e-05
internal_weight=0 22.2657 7.47698 0.604336 0.181311
internal_count=428514 13633 4578 370 111
is_linear=0
shrinkage=1.15849e-07


Tree=9
num_leaves=6
num_cat=0
split_feature=2 15 20 31 27
split_gain=2869.02 3402.67 7636.86 5449.28 3706.69
threshold=0.87004491158567354 3.1600592582766227 0.81857471022550732 2.8002462673514361 0.0010170189726616001
decision_type=2 2 2 2 2
left_child=1 -1 -3 4 -4
right_child=-2 2 3 -5 -6
leaf_value=2.7560882805861278e-07 -4.2519980840225198e-08 2.210098285506124e-06 3.2229211350727107e-05 4.2697948963006802e-05 6.7029247264958047e-06
leaf_weight=14.788759073126132 677.58750405069441 6.8726534685119978 0.093107757624238618 0.086576545611023903 0.42466154671274126
leaf_count=9055 414881 4208 57 53 260
internal_value=0 1.29396e-06 3.30809e-06 1.57938e-05 1.12941e-05
internal_weight=0 22.2658 7.477 0.604346 0.517769
internal_count=428514 13633 4578 370 317
is_linear=0
shrinkage=1.15849e-07


Tree=10
num_leaves=6
num_cat=0
split_feature=2 15 20 35 8
split_gain=2869.01 3402.65 7636.69 5783.69 6154.22
threshold=0.87004491158567354 3.1600592582766227 0.81857471022550732 17.385717135460197 -1.3297186413338393
decision_type=2 2 2 2 2
left_child=1 -1 -3 4 -4
right_child=-2 2 3 -5 -6
leaf_value=2.7560871485205952e-07 -4.2519983744466116e-08 2.210093153494258e-06 1.232222470989601e-05 8.3722685143519839e-06 5.5032055634612915e-05
leaf_weight=14.78876328666229 677.58745576580986 6.8726686543086535 0.093100524158217013 0.42303459462709725 0.088220233097672351
leaf_count=9055 414881 4208 57 259 54
internal_value=0 1.29396e-06 3.30808e-06 1.57935e-05 3.31051e-05
internal_weight=0 22.2658 7.47702 0.604355 0.181321
internal_count=428514 13633 4578 370 111
is_linear=0
shrinkage=1.15849e-07


Tree=11
num_leaves=6
num_cat=0
split_feature=44 20 0 11 23
split_gain=2035.25 3059.82 2429.01 3769.55 3998.96
threshold=34.287643542636715 0.63678010151351161 -0.040790636315408593 0.14096040548297523 -0.11004458245504463
decision_type=2 2 2 2 2
left_child=1 -1 -3 -4 -5
right_child=-2 2 3 4 -6
leaf_value=3.7135319639648622e-07 -7.2303045567122545e-08 2.0494909870921555e-07 -1.1553507480387302e-07 5.4596475297099863e-07 1.2700034056036964e-05
leaf_weight=78.199767752783373 617.18656774889678 1.8030727830482645 0.95542916725389604 0.52426634565927077 1.1841215157182885
leaf_count=47881 377898 1104 585 321 725
internal_value=0 5.39812e-07 3.48884e-06 5.71144e-06 8.9705e-06
internal_weight=0 82.6667 4.46689 2.66382 1.70839
internal_count=428514 50616 2735 1631 1046
is_linear=0
shrinkage=1.15849e-07


Tree=12
num_leaves=6
num_cat=0
split_feature=2 15 20 35 8
split_gain=2869.01 3402.63 7636.49 5783.33 6153.55
threshold=0.87004491158567354 3.1600592582766227 0.81857471022550732 17.385717135460197 -1.3297186413338393
decision_type=2 2 2 2 2
left_child=1 -1 -3 4 -4
right_child=-2 2 3 -5 -6
leaf_value=2.7560849613678917e-07 -4.2519977087675456e-08 2.2100867712001935e-06 1.232202200481731e-05 8.372164107229476e-06 5.5028682412659783e-05
leaf_weight=14.788771566352809 677.58740220463369 6.8726875118445596 0.093102043145336211 0.42303979606367648 0.088225629064254352
leaf_count=9055 414881 4208 57 259 54
internal_value=0 1.29396e-06 3.30807e-06 1.57932e-05 3.31038e-05
internal_weight=0 22.2658 7.47705 0.604367 0.181328
internal_count=428514 13633 4578 370 111
is_linear=0
shrinkage=1.15849e-07


Tree=13
num_leaves=6
num_cat=0
split_feature=2 20 35 27 5
split_gain=2869 3112.84 7020.65 4902.86 1931.52
threshold=0.87004491158567354 0.86111715408175737 21.397383257892866 0.0015181805068971001 0.063150201640222517
decision_type=2 2 2 2 2
left_child=1 -1 3 -3 -5
right_child=-2 2 -4 4 -6
leaf_value=9.6318276113416831e-07 -4.2519969980427236e-08 4.7663687526915182e-05 1.7936055885273475e-06 9.1078065059808595e-06 3.6752729367639266e-05
leaf_weight=21.039233360672373 677.58739648002665 0.075153974001294754 0.90972887072712183 0.20090387330856174 0.04083537554834038
leaf_count=12882 414881 46 557 123 25
internal_value=0 1.29395e-06 6.96701e-06 2.18171e-05 1.37797e-05
internal_weight=0 22.2659 1.22662 0.316893 0.241739
internal_count=428514 13633 751 194 148
is_linear=0
shrinkage=1.15849e-07


Tree=14
num_leaves=6
num_cat=0
split_feature=9 20 4 35 37
split_gain=2284.21 3728.67 5471.99 4353.75 1818.25
threshold=-0.47764655528753441 0.63678010151351161 -0.12446256350415665 -23.866093333151657 -50.057118334217144
decision_type=2 2 2 2 2
left_child=1 -1 3 -3 -5
right_child=-2 2 -4 4 -6
leaf_value=6.771203208898878e-07 -4.2448098796425795e-08 4.5473147934270665e-05 3.0573277611534825e-06 9.7067361493887448e-07 2.0450533980087675e-05
leaf_weight=25.852130595943894 672.20289123395924 0.068600462982431054 1.4601192113477723 0.10616186470724642 0.16333034075796615
leaf_count=15829 411584 42 894 65 100
internal_value=0 1.03195e-06 6.1329e-06 1.94139e-05 1.27786e-05
internal_weight=0 27.6503 1.79821 0.338093 0.269492
internal_count=428514 16930 1101 207 165
is_linear=0
shrinkage=1.15849e-07


Tree=15
num_leaves=6
num_cat=0
split_feature=9 20 19 15 42
split_gain=2284.2 3728.64 3938.71 2916.82 1655.38
threshold=-0.47764655528753441 0.63678010151351161 -55.434000000000005 4.1532055968542556 0.29230740339103001
decision_type=2 2 2 2 2
left_child=1 -1 3 -3 -4
right_child=-2 2 4 -5 -6
leaf_value=6.7711979041413447e-07 -4.2448091439441404e-08 9.8336188807033313e-06 2.9317995015484092e-06 4.1113223635703039e-05 1.3561045348541883e-05
leaf_weight=25.852147755678747 672.20289032324217 0.093099763151258341 1.4062246119137838 0.070235107908956707 0.22866340016480546
leaf_count=15829 411584 57 861 43 140
internal_value=0 1.03195e-06 6.13286e-06 2.32871e-05 4.41875e-06
internal_weight=0 27.6504 1.79822 0.163335 1.63489
internal_count=428514 16930 1101 100 1001
is_linear=0
shrinkage=1.15849e-07


Tree=16
num_leaves=6
num_cat=0
split_feature=2 20 36 31 23
split_gain=2869 3112.8 5301.17 5871.05 2066.11
threshold=0.87004491158567354 0.86111715408175737 -68.325836148519031 1.141758345792258 0.018468712233176202
decision_type=2 2 2 2 2
left_child=1 -1 3 4 -3
right_child=-2 2 -4 -5 -6
leaf_value=9.6318141490972849e-07 -4.2519972173803627e-08 6.5912394848936818e-06 1.9216427819123595e-06 4.8223531821008715e-05 3.054367632534992e-05
leaf_weight=21.039259652839977 677.58734857442323 0.24173860962036997 0.8525662861065928 0.071886999765411019 0.060440876986831427
leaf_count=12882 414881 148 522 44 37
internal_value=0 1.29395e-06 6.96695e-06 1.84648e-05 1.13837e-05
internal_weight=0 22.2659 1.22663 0.374066 0.302179
internal_count=428514 13633 751 229 185
is_linear=0
shrinkage=1.15849e-07


Tree=17
num_leaves=6
num_cat=0
split_feature=9 20 4 24 27
split_gain=2284.2 3728.6 5471.74 3988.3 2991.82
threshold=-0.47764655528753441 0.63678010151351161 -0.12446256350415665 -85.513994173271769 0.011015060251337151
decision_type=2 2 2 2 2
left_child=1 -1 3 -3 -5
right_child=-2 2 -4 4 -6
leaf_value=6.7711921732607845e-07 -4.2448090975116134e-08 4.0594153510763303e-05 3.0572998907416813e-06 3.4380286374865702e-05 4.7730955659784289e-06
leaf_weight=25.852166560129266 672.2028253270546 0.088204897358082235 1.460132020176387 0.060435357387177757 0.18946343299467117
leaf_count=15829 411584 54 894 37 116
internal_value=0 1.03195e-06 6.13281e-06 1.94133e-05 1.19352e-05
internal_weight=0 27.6504 1.79824 0.338104 0.249899
internal_count=428514 16930 1101 207 153
is_linear=0
shrinkage=1.15849e-07


Tree=18
num_leaves=6
num_cat=0
split_feature=2 15 20 27 40
split_gain=2868.99 3402.59 7636.08 4624.87 4096.72
threshold=0.87004491158567354 3.1600592582766227 0.81857471022550732 0.0015181805068971001 0.22189681153017013
decision_type=2 2 2 2 2
left_child=1 -1 -3 4 -4
right_child=-2 2 3 -5 -6
leaf_value=2.7560737216227379e-07 -4.2519969536497142e-08 2.2100756163710803e-06 4.7149963048478711e-05 1.0298420729008877e-05 2.8267304495950523e-06
leaf_weight=14.788814130821267 677.58732480334584 6.872720490791834 0.098029894521459826 0.4671572808874771 0.039203519001603127
leaf_count=9055 414881 4208 60 286 24
internal_value=0 1.29395e-06 3.30804e-06 1.57926e-05 3.44917e-05
internal_weight=0 22.2659 7.47711 0.604391 0.137233
internal_count=428514 13633 4578 370 84
is_linear=0
shrinkage=1.15849e-07


Tree=19
num_leaves=6
num_cat=0
split_feature=2 20 36 28 23
split_gain=2868.99 3112.74 5300.93 5049.02 2161.98
threshold=0.87004491158567354 0.86111715408175737 -68.325836148519031 279187.874573707 -0.017204401827600146
decision_type=2 2 2 2 2
left_child=1 -1 3 4 -3
right_child=-2 2 -4 -5 -6
leaf_value=9.6317917697517442e-07 -4.2519964417018005e-08 2.9645226731645223e-06 1.9216289096054097e-06 5.2476207230290393e-05 2.195990387590737e-05
leaf_weight=21.039303375990134 677.58727829484269 0.15026970917824656 0.85257210000418016 0.050654607475735247 0.17315421754028648
leaf_count=12882 414881 92 522 31 106
internal_value=0 1.29395e-06 6.96684e-06 1.84642e-05 1.31357e-05
internal_weight=0 22.266 1.22665 0.374079 0.323424
internal_count=428514 13633 751 229 198
is_linear=0
shrinkage=1.15849e-07


Tree=20
num_leaves=6
num_cat=0
split_feature=2 15 19 8 37
split_gain=2868.99 3402.57 3895.49 6131.61 3141.68
threshold=0.87004491158567354 3.1600592582766227 977.88800000000003 0.81696857394482902 -74.554722968670404
decision_type=2 2 2 2 2
left_child=1 -1 -3 4 -4
right_child=-2 2 3 -5 -6
leaf_value=2.7560682244214292e-07 -4.2519957057423079e-08 2.8400086938115368e-06 1.1693345236256131e-05 -1.1194297640695398e-07 5.2648742931360943e-05
leaf_weight=14.788834936683999 677.58727649226785 7.2501056127948678 0.039198705577291548 0.11759436421561986 0.070249210344627389
leaf_count=9055 414881 4439 24 72 43
internal_value=0 1.29395e-06 3.30803e-06 1.8251e-05 3.79851e-05
internal_weight=0 22.266 7.47715 0.227042 0.109448
internal_count=428514 13633 4578 139 67
is_linear=0
shrinkage=1.15849e-07


Tree=21
num_leaves=6
num_cat=0
split_feature=2 20 35 27 5
split_gain=2868.98 3112.71 7019.84 4901.47 1931.26
threshold=0.87004491158567354 0.86111715408175737 21.397383257892866 0.0015181805068971001 0.063150201640222517
decision_type=2 2 2 2 2
left_child=1 -1 3 -3 -5
right_child=-2 2 -4 4 -6
leaf_value=9.6317681123571635e-07 -4.2519959042852948e-08 4.7655703043424838e-05 1.7935783577145763e-06 9.1073401517443002e-06 3.6749108378232268e-05
leaf_weight=21.039349429309372 677.58722937724087 0.075166534865273915 0.90974185930099338 0.20091403077822179 0.040839387220330536
leaf_count=12882 414881 46 557 123 25
internal_value=0 1.29394e-06 6.96678e-06 2.18153e-05 1.37789e-05
internal_weight=0 22.266 1.22666 0.31692 0.241753
internal_count=428514 13633 751 194 148
is_linear=0
shrinkage=1.15849e-07


Tree=22
num_leaves=6
num_cat=0
split_feature=2 15 20 35 8
split_gain=2868.98 3402.54 7635.68 5781.75 6150.88
threshold=0.87004491158567354 3.1600592582766227 0.81857471022550732 17.385717135460197 -1.3297186413338393
decision_type=2 2 2 2 2
left_child=1 -1 -3 4 -4
right_child=-2 2 3 -5 -6
leaf_value=2.756062672579078e-07 -4.2519953837775077e-08 2.2100587579881008e-06 1.2321106089783779e-05 8.3718014893107127e-06 5.5015031935084454e-05
leaf_weight=14.788855935563335 677.58718564838637 6.8727702572941771 0.093108898727223277 0.42305787082295865 0.088247473584487923
leaf_count=9055 414881 4208 57 259 54
internal_value=0 1.29394e-06 3.30801e-06 1.5792e-05 3.30986e-05
internal_weight=0 22.266 7.47718 0.604414 0.181356
internal_count=428514 13633 4578 370 111
is_linear=0
shrinkage=1.15849e-07


Tree=23
num_leaves=6
num_cat=0
split_feature=9 19 43 35 18
split_gain=2284.2 2868.91 3180.09 2965.04 1356.86
threshold=-0.47764655528753441 -4.8334999999999999 -13.627628827654105 -99.382293319833835 -0.011586650209683748
decision_type=2 2 2 2 2
left_child=1 2 3 -1 -5
right_child=-2 -3 -4 4 -6
leaf_value=3.821316284630054e-05 -4.2448089531187691e-08 6.6170728953433784e-07 3.0655443188375633e-06 1.5693082456593157e-06 1.7097200777497708e-05
leaf_weight=0.060436830623075366 672.2028042365564 25.17281451029703 2.1117733868304667 0.13719230354763567 0.16822798724751953
leaf_count=37 411584 15413 1293 84 103
internal_value=0 1.03194e-06 4.79337e-06 1.47653e-05 1.01238e-05
internal_weight=0 27.6504 2.47763 0.365857 0.30542
internal_count=428514 16930 1517 224 187
is_linear=0
shrinkage=1.15849e-07


Tree=24
num_leaves=6
num_cat=0
split_feature=9 20 4 35 27
split_gain=2284.19 3728.54 5471.48 4352.87 3634
threshold=-0.47764655528753441 0.63678010151351161 -0.12446256350415665 -23.866093333151657 0.04570623998168661
decision_type=2 2 2 2 2
left_child=1 -1 3 -3 -5
right_child=-2 2 -4 4 -6
leaf_value=6.7711774486987482e-07 -4.2448084340536412e-08 4.5467412777450198e-05 3.0572724930858887e-06 2.6813134922662156e-05 -1.1260991691351044e-07
leaf_weight=25.852214402752001 672.2027564792661 0.068609092617407441 1.4601446283049868 0.12904194334987562 0.14046402729582042
leaf_count=15829 411584 42 894 79 86
internal_value=0 1.03194e-06 6.13273e-06 1.94126e-05 1.27779e-05
internal_weight=0 27.6505 1.79826 0.338115 0.269506
internal_count=428514 16930 1101 207 165
is_linear=0
shrinkage=1.15849e-07


Tree=25
num_leaves=6
num_cat=0
split_feature=2 15 20 31 4
split_gain=2868.97 3402.52 7635.5 5447.53 4716.51
threshold=0.87004491158567354 3.1600592582766227 0.81857471022550732 2.8002462673514361 0.15439526836400977
decision_type=2 2 2 2 2
left_child=1 -1 -3 -4 -5
right_child=-2 2 3 4 -6
leaf_value=2.7560606569701344e-07 -4.25199465105443e-08 2.2100522765609767e-06 1.1292819115207497e-05 1.4055428090905949e-05 6.8234004521385271e-05
leaf_weight=14.788863565074282 677.58718047000002 6.8727893317118278 0.51782878581434477 0.040839900262653828 0.045756118022836745
leaf_count=9055 414881 4208 317 25 28
internal_value=0 1.29394e-06 3.308e-06 1.57917e-05 4.26883e-05
internal_weight=0 22.2661 7.47721 0.604425 0.086596
internal_count=428514 13633 4578 370 53
is_linear=0
shrinkage=1.15849e-07


Tree=26
num_leaves=6
num_cat=0
split_feature=2 21 35 36 18
split_gain=2868.97 2724.47 2000.2 5259.02 2472.21
threshold=0.87004491158567354 -1.2957386540291116 15.923999316470855 -79.198920270059673 -0.21525745053142953
decision_type=2 2 2 2 2
left_child=1 2 3 4 -1
right_child=-2 -3 -4 -5 -6
leaf_value=2.9732129059881494e-05 -4.2519948495928615e-08 9.1013292736472539e-07 3.0540854636516961e-06 4.9762227165984708e-05 5.0600914976115587e-06
leaf_weight=0.062084222445264459 677.58713325799908 20.433473796700127 1.2788919563172383 0.044120272621514967 0.44753606233280152
leaf_count=38 414881 12511 783 27 274
internal_value=0 1.29394e-06 5.57303e-06 1.13898e-05 8.06671e-06
internal_weight=0 22.2661 1.83263 0.553741 0.50962
internal_count=428514 13633 1122 339 312
is_linear=0
shrinkage=1.15849e-07


Tree=27
num_leaves=6
num_cat=0
split_feature=2 15 44 27 17
split_gain=2868.96 3402.5 3874.27 3264.72 4234.86
threshold=0.87004491158567354 3.1600592582766227 35.116612942419017 0.041075198208306705 0.20556855228130033
decision_type=2 2 2 2 2
left_child=1 -1 3 4 -3
right_child=-2 2 -4 -5 -6
leaf_value=2.7560553609042037e-07 -4.2519943282137243e-08 3.6882502659088524e-05 1.1332634591602505e-06 2.3811486487621973e-06 8.72180980586226e-06
leaf_weight=14.788883548462765 677.58708960644435 0.075135218095965128 4.4507147009717301 1.3915653232252223 1.5598361302400006
leaf_count=9055 414881 46 2725 852 955
internal_value=0 1.29394e-06 3.30798e-06 6.50587e-06 1.00162e-05
internal_weight=0 22.2661 7.47725 3.02654 1.63497
internal_count=428514 13633 4578 1853 1001
is_linear=0
shrinkage=1.15849e-07


Tree=28
num_leaves=6
num_cat=0
split_feature=2 15 41 8 0
split_gain=2868.96 3402.48 3686.62 5016.26 6126.17
threshold=0.87004491158567354 3.1600592582766227 -1.8906234685885559 -2.6847694382821423 0.056504950815721301
decision_type=2 2 2 2 2
left_child=1 -1 3 -3 -5
right_child=-2 2 -4 4 -6
leaf_value=2.756054255461257e-07 -4.2519943333499766e-08 7.0410524363993215e-07 1.1146282229567654e-06 2.1068171975639525e-05 6.1246001911164596e-06
leaf_weight=14.788887725677343 677.58708390267566 1.2707064221613111 4.3298382598441085 0.50309442076832045 1.3736370169790459
leaf_count=9055 414881 778 2651 308 841
internal_value=0 1.29393e-06 3.30797e-06 6.32513e-06 1.01308e-05
internal_weight=0 22.2662 7.47728 3.14744 1.87673
internal_count=428514 13633 4578 1927 1149
is_linear=0
shrinkage=1.15849e-07


Tree=29
num_leaves=6
num_cat=0
split_feature=2 15 19 8 19
split_gain=2868.95 3402.47 3895.18 6130.67 3019.05
threshold=0.87004491158567354 3.1600592582766227 977.88800000000003 0.81696857394482902 -14.244999999999999
decision_type=2 2 2 2 2
left_child=1 -1 4 -4 -3
right_child=-2 2 3 -5 -6
leaf_value=2.7560531481462405e-07 -4.2519937953037039e-08 8.3742098509525954e-06 3.7980905072437425e-05 -1.1194304904170915e-07 1.8300063945665534e-06
leaf_weight=14.788891938631425 677.58704120386392 1.1188326622359452 0.10945986118167628 0.11759631254244596 6.1314120254246509
leaf_count=9055 414881 685 67 72 3754
internal_value=0 1.29393e-06 3.30796e-06 1.82499e-05 2.83995e-06
internal_weight=0 22.2662 7.4773 0.227056 7.25024
internal_count=428514 13633 4578 139 4439
is_linear=0
shrinkage=1.15849e-07


Tree=30
num_leaves=6
num_cat=0
split_feature=2 15 20 28 44
split_gain=2868.95 3402.45 7635.14 4744.22 2867.07
threshold=0.87004491158567354 3.1600592582766227 0.81857471022550732 279187.874573707 33.724707662541299
decision_type=2 2 2 2 2
left_child=1 -1 4 -4 -3
right_child=-2 2 3 -5 -6
leaf_value=2.7560520410820347e-07 -4.2519930854969306e-08 5.4057866529466214e-06 1.192170301697081e-05 4.3026513287193637e-05 4.5797735123639901e-07
leaf_weight=14.788896120735446 677.58703558251727 2.4336241905111811 0.5292714051902293 0.075176113285124302 4.4392536995001137
leaf_count=9055 414881 1490 324 46 2718
internal_value=0 1.29393e-06 3.30794e-06 1.57911e-05 2.21002e-06
internal_weight=0 22.2662 7.47733 0.604448 6.87288
internal_count=428514 13633 4578 370 4208
is_linear=0
shrinkage=1.15849e-07


Tree=31
num_leaves=6
num_cat=0
split_feature=2 15 20 31 28
split_gain=2868.95 3402.43 7634.97 5446.74 3161.73
threshold=0.87004491158567354 3.1600592582766227 0.81857471022550732 2.8002462673514361 351298.96257721621
decision_type=2 2 2 2 2
left_child=1 -1 -3 4 -4
right_child=-2 2 3 -5 -6
leaf_value=2.7560510366456976e-07 -4.2519932836801833e-08 2.2100171587556934e-06 8.1526904550731062e-06 4.2684101469738671e-05 3.7405277831026887e-05
leaf_weight=14.788899765699172 677.58698842837475 6.8728931396035469 0.46228947537019838 0.086604555719532073 0.05556299933232367
leaf_count=9055 414881 4208 283 53 34
internal_value=0 1.29393e-06 3.30793e-06 1.57908e-05 1.12923e-05
internal_weight=0 22.2662 7.47735 0.604457 0.517852
internal_count=428514 13633 4578 370 317
is_linear=0
shrinkage=1.15849e-07


Tree=32
num_leaves=6
num_cat=0
split_feature=2 20 35 27 36
split_gain=2868.94 3112.52 7018.87 4899.74 1987.16
threshold=0.87004491158567354 0.86111715408175737 21.397383257892866 0.0015181805068971001 -76.192513088493214
decision_type=2 2 2 2 2
left_child=1 -1 3 -3 -5
right_child=-2 2 -4 4 -6
leaf_value=9.6316591259059707e-07 -4.2519924951103758e-08 4.7645777491327574e-05 1.7935315405330176e-06 8.3676710307889668e-06 3.4182874170911106e-05
leaf_weight=21.039561812998731 677.58698719227687 0.075182155473156653 0.90976414352189749 0.19112011732067913 0.050650280783884227
leaf_count=12882 414881 46 557 117 31
internal_value=0 1.29393e-06 6.96646e-06 2.1813e-05 1.37779e-05
internal_weight=0 22.2663 1.22672 0.316953 0.24177
internal_count=428514 13633 751 194 148
is_linear=0
shrinkage=1.15849e-07


Tree=33
num_leaves=6
num_cat=0
split_feature=2 15 20 35 8
split_gain=2868.94 3402.41 7634.71 5780.36 6148.31
threshold=0.87004491158567354 3.1600592582766227 0.81857471022550732 17.385717135460197 -1.3297186413338393
decision_type=2 2 2 2 2
left_child=1 -1 -3 4 -4
right_child=-2 2 3 -5 -6
leaf_value=2.7560455713190941e-07 -4.2519927666989185e-08 2.2100098284759e-06 1.2320168594464592e-05 8.3712049928547663e-06 5.5001767978538223e-05
leaf_weight=14.788920541992413 677.58693902764935 6.8729148070560759 0.093115916708484292 0.42308759584557265 0.088268710649572202
leaf_count=9055 414881 4208 57 259 54
internal_value=0 1.29393e-06 3.30792e-06 1.57904e-05 3.30934e-05
internal_weight=0 22.2663 7.47739 0.604472 0.181385
internal_count=428514 13633 4578 370 111
is_linear=0
shrinkage=1.15849e-07


Tree=34
num_leaves=6
num_cat=0
split_feature=2 15 20 35 5
split_gain=2868.93 3402.39 7634.54 5780.03 5092.67
threshold=0.87004491158567354 3.1600592582766227 0.81857471022550732 17.385717135460197 -0.14840842838648285
decision_type=2 2 2 2 2
left_child=1 -1 -3 4 -4
right_child=-2 2 3 -5 -6
leaf_value=2.7560444686508665e-07 -4.2519922287941334e-08 2.2100046994251934e-06 5.6255910293343886e-06 8.3711342587500491e-06 4.6816006677235838e-05
leaf_weight=14.788924732827583 677.5868963097455 6.8729299441911271 0.060447106719948351 0.42309112520888448 0.12094350287225086
leaf_count=9055 414881 4208 37 259 74
internal_value=0 1.29392e-06 3.3079e-06 1.57902e-05 3.30923e-05
internal_weight=0 22.2663 7.47741 0.604482 0.181391
internal_count=428514 13633 4578 370 111
is_linear=0
shrinkage=1.15849e-07


Tree=35
num_leaves=6
num_cat=0
split_feature=9 20 4 24 27
split_gain=2284.19 3728.46 5471.21 3987.53 2991.45
threshold=-0.47764655528753441 0.63678010151351161 -0.12446256350415665 -85.513994173271769 0.011015060251337151
decision_type=2 2 2 2 2
left_child=1 -1 3 -3 -5
right_child=-2 2 -4 4 -6
leaf_value=6.7711667957384406e-07 -4.2448072761126357e-08 4.0589343846942964e-05 3.0572351323290186e-06 3.4377067663263731e-05 4.7729052595195033e-06
leaf_weight=25.852249215473424 672.20271724963095 0.088215320254676044 1.4601618201704682 0.060440998175181559 0.18947080988436937
leaf_count=15829 411584 54 894 37 116
internal_value=0 1.03194e-06 6.13263e-06 1.94119e-05 1.19346e-05
internal_weight=0 27.6505 1.79829 0.338127 0.249912
internal_count=428514 16930 1101 207 153
is_linear=0
shrinkage=1.15849e-07


Tree=36
num_leaves=6
num_cat=0
split_feature=2 20 35 31 28
split_gain=2868.93 3112.43 7018.31 4877.26 3358.72
threshold=0.87004491158567354 0.86111715408175737 21.397383257892866 2.8002462673514361 241189.51360964257
decision_type=2 2 2 2 2
left_child=1 -1 3 4 -3
right_child=-2 2 -4 -5 -6
leaf_value=9.6316260446377767e-07 -4.2519920028329977e-08 1.0443820723375024e-05 1.7935157533855261e-06 5.6085375223347716e-05 4.7121064238242856e-05
leaf_weight=21.039626327226873 677.58686812629458 0.23033951444085576 0.90977167931851 0.047401628224179149 0.039229654357768595
leaf_count=12882 414881 141 557 29 24
internal_value=0 1.29392e-06 6.96631e-06 2.18118e-05 1.57832e-05
internal_weight=0 22.2664 1.22674 0.316971 0.269569
internal_count=428514 13633 751 194 165
is_linear=0
shrinkage=1.15849e-07


Tree=37
num_leaves=6
num_cat=0
split_feature=2 15 20 31 4
split_gain=2868.92 3402.36 7634.26 5445.62 4714.06
threshold=0.87004491158567354 3.1600592582766227 0.81857471022550732 2.8002462673514361 0.15439526836400977
decision_type=2 2 2 2 2
left_child=1 -1 -3 -4 -5
right_child=-2 2 3 4 -6
leaf_value=2.7560387870145741e-07 -4.2519911984316799e-08 2.2099968311357464e-06 1.1291653146592413e-05 1.4053486396671714e-05 6.8211927176090097e-05
leaf_weight=14.788945939391853 677.5868668644689 6.8729532224824643 0.51788171101361502 0.040845496696420014 0.045770902186632156
leaf_count=9055 414881 4208 317 25 28
internal_value=0 1.29392e-06 3.30789e-06 1.57897e-05 4.26782e-05
internal_weight=0 22.2664 7.47745 0.604498 0.0866164
internal_count=428514 13633 4578 370 53
is_linear=0
shrinkage=1.15849e-07


Tree=38
num_leaves=6
num_cat=0
split_feature=9 20 4 24 27
split_gain=2284.19 3728.42 5471.03 3987.24 2991.29
threshold=-0.47764655528753441 0.63678010151351161 -0.12446256350415665 -85.513994173271769 0.011015060251337151
decision_type=2 2 2 2 2
left_child=1 -1 3 -3 -5
right_child=-2 2 -4 4 -6
leaf_value=6.7711609384865838e-07 -4.2448075316328535e-08 4.0587602572684081e-05 3.0572195805092104e-06 3.4375815742299978e-05 4.7728677554399376e-06
leaf_weight=25.852268346585337 672.20267299946863 0.088219094322994351 1.4601689666742446 0.060443191905506066 0.18947225972078741
leaf_count=15829 411584 54 894 37 116
internal_value=0 1.03194e-06 6.13258e-06 1.94115e-05 1.19344e-05
internal_weight=0 27.6506 1.7983 0.338135 0.249915
internal_count=428514 16930 1101 207 153
is_linear=0
shrinkage=1.15849e-07


Tree=39
num_leaves=6
num_cat=0
split_feature=2 15 20 31 27
split_gain=2868.92 3402.34 7634.08 5445.24 3704.03
threshold=0.87004491158567354 3.1600592582766227 0.81857471022550732 2.8002462673514361 0.0010170189726616001
decision_type=2 2 2 2 2
left_child=1 -1 -3 4 -4
right_child=-2 2 3 -5 -6
leaf_value=2.7560371745302032e-07 -4.2519912030986091e-08 2.2099912164278638e-06 3.2213344832599918e-05 4.2676407722914549e-05 6.7017478195106131e-06
leaf_weight=14.788952280767264 677.58680064789951 6.8729697907110667 0.093153453432023414 0.086620126967318356 0.42473484785296023
leaf_count=9055 414881 4208 57 53 260
internal_value=0 1.29392e-06 3.30787e-06 1.57895e-05 1.12915e-05
internal_weight=0 22.2664 7.47748 0.604508 0.517888
internal_count=428514 13633 4578 370 317
is_linear=0
shrinkage=1.15849e-07


Tree=40
num_leaves=6
num_cat=0
split_feature=2 20 35 27 5
split_gain=2868.91 3112.34 7017.84 4897.95 1930.73
threshold=0.87004491158567354 0.86111715408175737 21.397383257892866 0.0015181805068971001 0.063150201640222517
decision_type=2 2 2 2 2
left_child=1 -1 3 -3 -5
right_child=-2 2 -4 4 -6
leaf_value=9.6315928795057845e-07 -4.2519904830434326e-08 4.7635492936103577e-05 1.7934954447287381e-06 9.1061313414381075e-06 3.6741471392859229e-05
leaf_weight=21.039690896985125 677.58679496019613 0.075198348145930849 0.90978134202305228 0.20094036497175694 0.040847848867997527
leaf_count=12882 414881 46 557 123 25
internal_value=0 1.29392e-06 6.96617e-06 2.18107e-05 1.37769e-05
internal_weight=0 22.2665 1.22677 0.316987 0.241788
internal_count=428514 13633 751 194 148
is_linear=0
shrinkage=1.15849e-07


Tree=41
num_leaves=6
num_cat=0
split_feature=2 21 35 38 26
split_gain=2868.91 2724.24 1999.9 3265.31 4849.23
threshold=0.87004491158567354 -1.2957386540291116 15.923999316470855 -0.20234257824740684 0.14481028709588892
decision_type=2 2 2 2 2
left_child=1 2 3 -1 -5
right_child=-2 -3 -4 4 -6
leaf_value=4.5441701627783949e-06 -4.251990695250857e-08 9.1011935495882889e-07 3.0539413060708372e-06 1.1700515919389724e-05 5.1059485812570267e-05
leaf_weight=0.34792617568746209 677.58674834971316 20.433744222857058 1.2789501169463617 0.14701883320231246 0.058848213870078325
leaf_count=213 414881 12511 783 90 36
internal_value=0 1.29391e-06 5.57268e-06 1.13887e-05 2.29539e-05
internal_weight=0 22.2665 1.83274 0.553793 0.205867
internal_count=428514 13633 1122 339 126
is_linear=0
shrinkage=1.15849e-07


Tree=42
num_leaves=6
num_cat=0
split_feature=2 15 19 8 3
split_gain=2868.91 3402.31 3894.75 6129.26 3197.3
threshold=0.87004491158567354 3.1600592582766227 977.88800000000003 0.81696857394482902 -0.37008435155585651
decision_type=2 2 2 2 2
left_child=1 -1 4 -4 -3
right_child=-2 2 3 -5 -6
leaf_value=2.7560274512075499e-07 -4.2519898940623768e-08 8.7082237567335044e-06 3.79747948686736e-05 -1.1194312683615268e-07 1.8312158817859486e-06
leaf_weight=14.788989057997243 677.5867465895135 1.0633543576113877 0.10947741952259082 0.11759838520083576 6.18709735746961
leaf_count=9055 414881 651 67 72 3788
internal_value=0 1.29391e-06 3.30785e-06 1.82483e-05 2.83987e-06
internal_weight=0 22.2665 7.47753 0.227076 7.25045
internal_count=428514 13633 4578 139 4439
is_linear=0
shrinkage=1.15849e-07


Tree=43
num_leaves=6
num_cat=0
split_feature=9 20 4 35 27
split_gain=2284.18 3728.36 5470.84 4351.88 3633.53
threshold=-0.47764655528753441 0.63678010151351161 -0.12446256350415665 -23.866093333151657 0.04570623998168661
decision_type=2 2 2 2 2
left_child=1 -1 3 -3 -5
right_child=-2 2 -4 4 -6
leaf_value=6.7711530954742458e-07 -4.244807043401499e-08 4.5460718226497002e-05 3.0571976293879321e-06 2.6810441332221435e-05 -1.1261004037677059e-07
leaf_weight=25.852294014184739 672.20262845710386 0.068619171623140574 1.4601790722226711 0.12905485322698962 0.14046883129049093
leaf_count=15829 411584 42 894 79 86
internal_value=0 1.03194e-06 6.13251e-06 1.9411e-05 1.27771e-05
internal_weight=0 27.6506 1.79832 0.338143 0.269524
internal_count=428514 16930 1101 207 165
is_linear=0
shrinkage=1.15849e-07


Tree=44
num_leaves=6
num_cat=0
split_feature=2 15 20 31 27
split_gain=2868.9 3402.29 7633.69 5444.5 3703.59
threshold=0.87004491158567354 3.1600592582766227 0.81857471022550732 2.8002462673514361 0.0010170189726616001
decision_type=2 2 2 2 2
left_child=1 -1 -3 4 -4
right_child=-2 2 3 -5 -6
leaf_value=2.7560259456377401e-07 -4.2519899042612855e-08 2.2099731680592759e-06 3.2210871209154282e-05 4.2672721674418427e-05 6.7016122676833134e-06
leaf_weight=14.788994796108456 677.58668000646867 6.8730231028748667 0.093160580610856303 0.086627589305862784 0.42474329762626439
leaf_count=9055 414881 4208 57 53 260
internal_value=0 1.29391e-06 3.30784e-06 1.57889e-05 1.12912e-05
internal_weight=0 22.2665 7.47755 0.604531 0.517904
internal_count=428514 13633 4578 370 317
is_linear=0
shrinkage=1.15849e-07


Tree=45
num_leaves=6
num_cat=0
split_feature=9 20 4 24 27
split_gain=2284.18 3728.33 5470.67 3986.67 2990.99
threshold=-0.47764655528753441 0.63678010151351161 -0.12446256350415665 -85.513994173271769 0.011015060251337151
decision_type=2 2 2 2 2
left_child=1 -1 3 -3 -5
right_child=-2 2 -4 4 -6
leaf_value=6.771147649666317e-07 -4.2448060610499093e-08 4.058416120656727e-05 3.0571849994590639e-06 3.4373367762547613e-05 4.7727736428158344e-06
leaf_weight=25.852311628055762 672.20260610082187 0.088226552703417838 1.4601848848396899 0.060447481693700067 0.18947591108735651
leaf_count=15829 411584 54 894 37 116
internal_value=0 1.03194e-06 6.13247e-06 1.94106e-05 1.19341e-05
internal_weight=0 27.6506 1.79833 0.33815 0.249923
internal_count=428514 16930 1101 207 153
is_linear=0
shrinkage=1.15849e-07


Tree=46
num_leaves=6
num_cat=0
split_feature=2 15 20 28 44
split_gain=2868.9 3402.28 7633.52 4741.35 2866.97
threshold=0.87004491158567354 3.1600592582766227 0.81857471022550732 279187.874573707 33.724707662541299
decision_type=2 2 2 2 2
left_child=1 -1 4 -4 -3
right_child=-2 2 3 -5 -6
leaf_value=2.7560243891739053e-07 -4.2519896761655844e-08 5.4056221028056294e-06 1.1920204108886345e-05 4.3010246422896245e-05 4.5796580922524375e-07
leaf_weight=14.789000405813569 677.58665229065809 2.4336966939736149 0.52933731721714128 0.075204469612799585 4.4393429983174428
leaf_count=9055 414881 1490 324 46 2718
internal_value=0 1.29391e-06 3.30783e-06 1.57886e-05 2.20997e-06
internal_weight=0 22.2666 7.47758 0.604542 6.87304
internal_count=428514 13633 4578 370 4208
is_linear=0
shrinkage=1.15849e-07


Tree=47
num_leaves=6
num_cat=0
split_feature=2 15 20 35 5
split_gain=2868.89 3402.26 7633.35 5778.36 5090.64
threshold=0.87004491158567354 3.1600592582766227 0.81857471022550732 17.385717135460197 -0.14840842838648285
decision_type=2 2 2 2 2
left_child=1 -1 -3 4 -4
right_child=-2 2 3 -5 -6
leaf_value=2.7560233325548636e-07 -4.2519888645510922e-08 2.2099624083065573e-06 5.6251465398470051e-06 8.3704196633868486e-06 4.6804652770918178e-05
leaf_weight=14.789004577207381 677.58665049972478 6.8730549121974027 0.060451786383055151 0.42312674666754901 0.1209727688692509
leaf_count=9055 414881 4208 37 259 74
internal_value=0 1.29391e-06 3.30782e-06 1.57883e-05 3.30861e-05
internal_weight=0 22.2666 7.47761 0.604551 0.181425
internal_count=428514 13633 4578 370 111
is_linear=0
shrinkage=1.15849e-07


Tree=48
num_leaves=6
num_cat=0
split_feature=2 15 20 35 8
split_gain=2868.89 3402.24 7633.19 5778.03 6144.41
threshold=0.87004491158567354 3.1600592582766227 0.81857471022550732 17.385717135460197 -1.3297186413338393
decision_type=2 2 2 2 2
left_child=1 -1 -3 4 -4
right_child=-2 2 3 -5 -6
leaf_value=2.7560222610443793e-07 -4.2519891475026322e-08 2.209957276751644e-06 1.2318480951786787e-05 8.3703489250063566e-06 5.4980999798576494e-05
leaf_weight=14.789008697611282 677.58660337515175 6.8730700702872118 0.093128555221483111 0.42313027603086084 0.088301982614211627
leaf_count=9055 414881 4208 57 259 54
internal_value=0 1.2939e-06 3.3078e-06 1.57881e-05 3.3085e-05
internal_weight=0 22.2666 7.47763 0.604561 0.181431
internal_count=428514 13633 4578 370 111
is_linear=0
shrinkage=1.15849e-07


Tree=49
num_leaves=6
num_cat=0
split_feature=2 15 20 35 5
split_gain=2868.88 3402.22 7633.03 5777.7 5089.9
threshold=0.87004491158567354 3.1600592582766227 0.81857471022550732 17.385717135460197 -0.14840842838648285
decision_type=2 2 2 2 2
left_child=1 -1 -3 4 -4
right_child=-2 2 3 -5 -6
leaf_value=2.7560211480513854e-07 -4.2519886083710913e-08 2.2099521492319341e-06 5.6250042266519564e-06 8.3702781760527165e-06 4.6800593270612276e-05
leaf_weight=14.789012910448948 677.58655969589017 6.8730852346634483 0.060453284648247063 0.42313380527775735 0.1209832370514049
leaf_count=9055 414881 4208 37 259 74
internal_value=0 1.2939e-06 3.30779e-06 1.57878e-05 3.30839e-05
internal_weight=0 22.2667 7.47766 0.60457 0.181437
internal_count=428514 13633 4578 370 111
is_linear=0
shrinkage=1.15849e-07


Tree=50
num_leaves=6
num_cat=0
split_feature=2 15 20 35 8
split_gain=2868.88 3402.21 7632.86 5777.37 6143.42
threshold=0.87004491158567354 3.1600592582766227 0.81857471022550732 17.385717135460197 -1.3297186413338393
decision_type=2 2 2 2 2
left_child=1 -1 -3 4 -4
right_child=-2 2 3 -5 -6
leaf_value=2.7560200429691323e-07 -4.2519878879847255e-08 2.2099470149462466e-06 1.2318025650142878e-05 8.3702074446140085e-06 5.4975661117659689e-05
leaf_weight=14.789017082308421 677.58655398257542 6.8731004076544187 0.093131964793428779 0.42313733522314578 0.088310538674704619
leaf_count=9055 414881 4208 57 259 54
internal_value=0 1.2939e-06 3.30778e-06 1.57876e-05 3.30828e-05
internal_weight=0 22.2667 7.47768 0.60458 0.181443
internal_count=428514 13633 4578 370 111
is_linear=0
shrinkage=1.15849e-07


Tree=51
num_leaves=6
num_cat=0
split_feature=9 20 19 0 41
split_gain=2284.17 3728.27 3937.69 2993.62 3359.04
threshold=-0.47764655528753441 0.63678010151351161 -55.434000000000005 -0.037624110571023092 -6.3296684832265955
decision_type=2 2 2 2 2
left_child=1 -1 3 -3 -5
right_child=-2 2 -4 4 -6
leaf_value=6.7711400408136273e-07 -4.2448061088854021e-08 -1.06526622899985e-07 4.4184710260065711e-06 5.6596335686701612e-05 1.6241674969895215e-05
leaf_weight=25.85233651089948 672.20254098507576 0.050637504667975008 1.634990150807424 0.049017305253073573 0.063710511196404807
leaf_count=15829 411584 31 1001 30 39
internal_value=0 1.03193e-06 6.1324e-06 2.32827e-05 3.37934e-05
internal_weight=0 27.6507 1.79836 0.163365 0.112728
internal_count=428514 16930 1101 100 69
is_linear=0
shrinkage=1.15849e-07


Tree=52
num_leaves=6
num_cat=0
split_feature=2 20 31 39 19
split_gain=2868.87 3112.11 4787.09 3608.12 2639.82
threshold=0.87004491158567354 0.86111715408175737 2.8002462673514361 1.5852140471612188 -115.57449999999999
decision_type=2 2 2 2 2
left_child=1 -1 4 -4 -3
right_child=-2 2 3 -5 -6
leaf_value=9.6314888295185752e-07 -4.2519875567947843e-08 3.1659789783305849e-05 5.7099198070225542e-05 1.131117726205827e-05 3.7227820174024423e-06
leaf_weight=21.039893812616359 677.5865300494479 0.04738040012307454 0.042512091691605636 0.050647688913159072 1.0862960044760246
leaf_count=12882 414881 29 26 31 665
internal_value=0 1.2939e-06 6.96577e-06 3.22111e-05 4.8908e-06
internal_weight=0 22.2667 1.22684 0.0931598 1.13368
internal_count=428514 13633 751 57 694
is_linear=0
shrinkage=1.15849e-07


Tree=53
num_leaves=6
num_cat=0
split_feature=2 15 20 31 27
split_gain=2868.87 3402.18 7632.58 5443.15 3702.56
threshold=0.87004491158567354 3.1600592582766227 0.81857471022550732 2.8002462673514361 0.0010170189726616001
decision_type=2 2 2 2 2
left_child=1 -1 -3 4 -4
right_child=-2 2 3 -5 -6
leaf_value=2.7560141613057162e-07 -4.2519878469020983e-08 2.2099392713515247e-06 3.2204604002576719e-05 4.2665167359338802e-05 6.7011149555327213e-06
leaf_weight=14.789039102965036 677.58648339647334 6.8731232837308189 0.093178644776344188 0.086642885347828269 0.42477428133133799
leaf_count=9055 414881 4208 57 53 260
internal_value=0 1.2939e-06 3.30776e-06 1.57872e-05 1.12901e-05
internal_weight=0 22.2668 7.47772 0.604596 0.517953
internal_count=428514 13633 4578 370 317
is_linear=0
shrinkage=1.15849e-07


Tree=54
num_leaves=6
num_cat=0
split_feature=2 20 35 31 17
split_gain=2868.87 3112.06 7016.32 4873.55 2011.11
threshold=0.87004491158567354 0.86111715408175737 21.397383257892866 2.8002462673514361 1.1588384153610181
decision_type=2 2 2 2 2
left_child=1 -1 3 4 -3
right_child=-2 2 -4 -5 -6
leaf_value=9.6314679414409837e-07 -4.2519873010312589e-08 2.3744208372668026e-05 1.7934243096376702e-06 5.6058868722620191e-05 3.2034921369887337e-06
leaf_weight=21.039934445056137 677.58643919602036 0.16506079945247509 0.90981523378286511 0.047423994867131114 0.10455260402522981
leaf_count=12882 414881 101 557 29 64
internal_value=0 1.2939e-06 6.96568e-06 2.18072e-05 1.57806e-05
internal_weight=0 22.2668 1.22685 0.317037 0.269613
internal_count=428514 13633 751 194 165
is_linear=0
shrinkage=1.15849e-07


Tree=55
num_leaves=6
num_cat=0
split_feature=44 21 4 35 41
split_gain=2035.24 2170.45 2174.13 4142.93 1185.12
threshold=34.287643542636715 -1.2957386540291116 -0.18127585878741345 -39.689897698209698 -9.8874358322075597
decision_type=2 2 2 2 2
left_child=1 2 3 -1 -5
right_child=-2 -3 -4 4 -6
leaf_value=3.7920899908554938e-05 -7.2303001070929585e-08 4.3464234458714186e-07 2.3695424929437035e-06 2.0139567074348936e-05 3.1621531023271973e-06
leaf_weight=0.066992625361308455 617.18604495201726 80.151844946318306 2.0971916762646279 0.068608434055931866 0.28256814507767591
leaf_count=41 377898 49076 1284 42 173
internal_value=0 5.39808e-07 3.89071e-06 1.15185e-05 6.48037e-06
internal_weight=0 82.6672 2.51536 0.418169 0.351177
internal_count=428514 50616 1540 256 215
is_linear=0
shrinkage=1.15849e-07


Tree=56
num_leaves=6
num_cat=0
split_feature=2 15 19 29 42
split_gain=2868.86 3402.16 3894.34 5621.57 4987.95
threshold=0.87004491158567354 3.1600592582766227 977.88800000000003 2.7547539829508101 0.47280816060820891
decision_type=2 2 2 2 2
left_child=1 -1 -3 -4 -5
right_child=-2 2 3 4 -6
leaf_value=2.7560079962329194e-07 -4.2519865175144979e-08 2.8397805213055543e-06 -1.1176531547787383e-07 2.826504176287745e-06 5.380923639797273e-05
leaf_weight=14.789062668452972 677.58642846974544 7.2506651454605153 0.11270566144958127 0.039206532295793295 0.075182410189881921
leaf_count=9055 414881 4439 69 24 46
internal_value=0 1.29389e-06 3.30775e-06 1.82468e-05 3.63393e-05
internal_weight=0 22.2668 7.47776 0.227095 0.114389
internal_count=428514 13633 4578 139 70
is_linear=0
shrinkage=1.15849e-07


Tree=57
num_leaves=6
num_cat=0
split_feature=2 20 35 27 36
split_gain=2868.86 3112.01 7016.04 4894.75 1986.01
threshold=0.87004491158567354 0.86111715408175737 21.397383257892866 0.0015181805068971001 -76.192513088493214
decision_type=2 2 2 2 2
left_child=1 -1 3 -3 -5
right_child=-2 2 -4 4 -6
leaf_value=9.6314417788404087e-07 -4.2519867051221929e-08 4.7617162527214792e-05 1.7934172668195114e-06 8.366360770468969e-06 3.4169794918100539e-05
leaf_weight=21.039985517156314 677.58638477930799 0.075227225315755986 0.90981858456507325 0.19114963861647993 0.050669602700509131
leaf_count=12882 414881 46 557 117 31
internal_value=0 1.29389e-06 6.96561e-06 2.18065e-05 1.37751e-05
internal_weight=0 22.2669 1.22687 0.317046 0.241819
internal_count=428514 13633 751 194 148
is_linear=0
shrinkage=1.15849e-07


Tree=58
num_leaves=6
num_cat=0
split_feature=2 20 36 28 23
split_gain=2868.85 3111.99 5297.9 5041.08 2160.74
threshold=0.87004491158567354 0.86111715408175737 -68.325836148519031 279187.874573707 -0.017204401827600146
decision_type=2 2 2 2 2
left_child=1 -1 3 4 -3
right_child=-2 2 -4 -5 -6
leaf_value=9.6314312636264751e-07 -4.2519860018666245e-08 2.9639259487232702e-06 1.921452487841616e-06 5.2423339005494164e-05 2.1951104270759155e-05
leaf_weight=21.040006002527665 677.58637910918333 0.15029881719965488 0.85264590568840393 0.05070557922590524 0.17322326463181525
leaf_count=12882 414881 92 522 31 106
internal_value=0 1.29389e-06 6.96556e-06 1.84568e-05 1.31317e-05
internal_weight=0 22.2669 1.22687 0.374228 0.323522
internal_count=428514 13633 751 229 198
is_linear=0
shrinkage=1.15849e-07


Tree=59
num_leaves=6
num_cat=0
split_feature=2 15 20 28 44
split_gain=2868.85 3402.13 7632.06 4738.76 2866.89
threshold=0.87004491158567354 3.1600592582766227 0.81857471022550732 279187.874573707 33.724707662541299
decision_type=2 2 2 2 2
left_child=1 -1 4 -4 -3
right_child=-2 2 3 -5 -6
leaf_value=2.7559981782364867e-07 -4.2519862074240243e-08 5.4054835462644314e-06 1.1918856611120173e-05 4.2995549066008721e-05 4.5795532365661876e-07
leaf_weight=14.789099577348681 677.58633248822298 2.4337577804690218 0.52939657936803985 0.075230107759125531 4.4394240126712248
leaf_count=9055 414881 1490 324 46 2718
internal_value=0 1.29389e-06 3.30772e-06 1.57864e-05 2.20992e-06
internal_weight=0 22.2669 7.47781 0.604627 6.87318
internal_count=428514 13633 4578 370 4208
is_linear=0
shrinkage=1.15849e-07


Tree=60
num_leaves=6
num_cat=0
split_feature=2 15 20 35 8
split_gain=2868.84 3402.11 7631.89 5775.86 6140.66
threshold=0.87004491158567354 3.1600592582766227 0.81857471022550732 17.385717135460197 -1.3297186413338393
decision_type=2 2 2 2 2
left_child=1 -1 -3 4 -4
right_child=-2 2 3 -5 -6
leaf_value=2.7559971148388103e-07 -4.2519856629385615e-08 2.2099142903191893e-06 1.231708578403117e-05 8.3696713539027756e-06 5.4961568348558569e-05
leaf_weight=14.789103499264458 677.58628825156484 6.8731970444787285 0.093139004660770297 0.42316406103782356 0.088333135005086549
leaf_count=9055 414881 4208 57 259 54
internal_value=0 1.29389e-06 3.30771e-06 1.57861e-05 3.30774e-05
internal_weight=0 22.2669 7.47783 0.604636 0.181472
internal_count=428514 13633 4578 370 111
is_linear=0
shrinkage=1.15849e-07


Tree=61
num_leaves=6
num_cat=0
split_feature=44 20 15 43 35
split_gain=2035.23 3059.55 4181.1 4057.91 4535.89
threshold=34.287643542636715 0.63678010151351161 3.3362736400113575 -2.2587184748263165 20.491271924005577
decision_type=2 2 2 2 2
left_child=1 -1 -3 4 -4
right_child=-2 2 3 -5 -6
leaf_value=3.7135099163000224e-07 -7.2302994316261298e-08 2.1970104672107698e-07 2.0379410131124513e-05 1.7305768477910159e-06 5.4824840422187072e-06
leaf_weight=78.200121368048713 617.18594824150205 2.4139615861931807 0.49173899285960965 0.94077977316919703 0.62069924944080412
leaf_count=47881 377898 1478 301 576 380
internal_value=0 5.39807e-07 3.4886e-06 7.33161e-06 1.20679e-05
internal_weight=0 82.6673 4.46718 2.05322 1.11244
internal_count=428514 50616 2735 1257 681
is_linear=0
shrinkage=1.15849e-07


Tree=62
num_leaves=6
num_cat=0
split_feature=2 15 20 35 8
split_gain=2868.84 3402.09 7631.69 5775.44 6139.97
threshold=0.87004491158567354 3.1600592582766227 0.81857471022550732 17.385717135460197 -1.3297186413338393
decision_type=2 2 2 2 2
left_child=1 -1 -3 4 -4
right_child=-2 2 3 -5 -6
leaf_value=2.7559955486471119e-07 -4.2519848666629379e-08 2.209908115167877e-06 1.2316843093395479e-05 8.3695836815718953e-06 5.4958011288291073e-05
leaf_weight=14.789109512697907 677.5862760215532 6.8732153002638361 0.093140823184512556 0.42316843767184764 0.088338840520009287
leaf_count=9055 414881 4208 57 259 54
internal_value=0 1.29388e-06 3.3077e-06 1.57858e-05 3.3076e-05
internal_weight=0 22.267 7.47786 0.604648 0.18148
internal_count=428514 13633 4578 370 111
is_linear=0
shrinkage=1.15849e-07


Tree=63
num_leaves=6
num_cat=0
split_feature=9 20 4 35 28
split_gain=2284.17 3728.17 5470.19 4350.87 1934.91
threshold=-0.47764655528753441 0.63678010151351161 -0.12446256350415665 -23.866093333151657 7807.3576082398931
decision_type=2 2 2 2 2
left_child=1 -1 3 -3 -5
right_child=-2 2 -4 4 -6
leaf_value=6.7711270291002918e-07 -4.2448051981011831e-08 4.5453792510635432e-05 3.0571085833367729e-06 5.7369508677144876e-06 2.6471007699525677e-05
leaf_weight=25.852378921583298 672.20246278936975 0.068629599409177899 1.4602200498338775 0.17805623810272675 0.091486217803321779
leaf_count=15829 411584 42 894 109 56
internal_value=0 1.03193e-06 6.13227e-06 1.94093e-05 1.27762e-05
internal_weight=0 27.6508 1.79839 0.338172 0.269542
internal_count=428514 16930 1101 207 165
is_linear=0
shrinkage=1.15849e-07


Tree=64
num_leaves=6
num_cat=0
split_feature=9 4 22 35 16
split_gain=2284.16 2636.73 1897.08 4538.86 2064.87
threshold=-0.47764655528753441 -0.12446256350415665 0.18794438026589941 -62.724773676595504 0.7175440894288877
decision_type=2 2 2 2 2
left_child=1 2 3 4 -1
right_child=-2 -3 -4 -5 -6
leaf_value=1.6891544394000146e-05 -4.2448044799856148e-08 7.1525194655256186e-07 2.1809542485534335e-06 6.5073219132081902e-06 5.3750244514803708e-05
leaf_weight=0.040841186768375337 672.20245781471021 25.641809712164104 1.2102357611292971 0.71705926407594534 0.040853784885257483
leaf_count=25 411584 15700 741 439 25
internal_value=0 1.03193e-06 5.07362e-06 9.45584e-06 3.53298e-05
internal_weight=0 27.6508 2.00899 0.798754 0.081695
internal_count=428514 16930 1230 489 50
is_linear=0
shrinkage=1.15849e-07


Tree=65
num_leaves=6
num_cat=0
split_feature=2 15 20 31 4
split_gain=2868.83 3402.07 7631.51 5441.57 4709.43
threshold=0.87004491158567354 3.1600592582766227 0.81857471022550732 2.8002462673514361 0.15439526836400977
decision_type=2 2 2 2 2
left_child=1 -1 -3 -4 -5
right_child=-2 2 3 4 -6
leaf_value=2.7559935091778172e-07 -4.251985068147528e-08 2.209901934744009e-06 1.1289075357605166e-05 1.404873087371439e-05 6.8167467401425465e-05
leaf_weight=14.789117125328632 677.58623337815516 6.8732335757231331 0.51799875893630076 0.040859210304915905 0.045800703694112599
leaf_count=9055 414881 4208 317 25 28
internal_value=0 1.29388e-06 3.30768e-06 1.57855e-05 4.26568e-05
internal_weight=0 22.267 7.47789 0.604659 0.0866599
internal_count=428514 13633 4578 370 53
is_linear=0
shrinkage=1.15849e-07


Tree=66
num_leaves=6
num_cat=0
split_feature=2 15 20 35 8
split_gain=2868.83 3402.05 7631.34 5774.97 6139.09
threshold=0.87004491158567354 3.1600592582766227 0.81857471022550732 17.385717135460197 -1.3297186413338393
decision_type=2 2 2 2 2
left_child=1 -1 -3 4 -4
right_child=-2 2 3 -5 -6
leaf_value=2.755992400026573e-07 -4.2519846196644069e-08 2.2098968140266954e-06 1.2316520265251692e-05 8.3693753291319665e-06 5.4953474259050184e-05
leaf_weight=14.789121327572504 677.58618581236806 6.8732487226370713 0.093143241596408188 0.4231788240140304 0.088346118107437976
leaf_count=9055 414881 4208 57 259 54
internal_value=0 1.29388e-06 3.30767e-06 1.57853e-05 3.30742e-05
internal_weight=0 22.267 7.47792 0.604668 0.181489
internal_count=428514 13633 4578 370 111
is_linear=0
shrinkage=1.15849e-07


Tree=67
num_leaves=6
num_cat=0
split_feature=44 20 15 43 35
split_gain=2035.23 3059.51 4180.98 4057.71 4535.52
threshold=34.287643542636715 0.63678010151351161 3.3362736400113575 -2.2587184748263165 20.491271924005577
decision_type=2 2 2 2 2
left_child=1 -1 -3 4 -4
right_child=-2 2 3 -5 -6
leaf_value=3.7135060680944345e-07 -7.2302986816098852e-08 2.1970028522953406e-07 2.0378474182418774e-05 1.7305644935005671e-06 5.4823976076439472e-06
leaf_weight=78.200183236273006 617.18584104499314 2.4139670403674236 0.49176144471857719 0.94078607053961594 0.62070883507840335
leaf_count=47881 377898 1478 301 576 380
internal_value=0 5.39806e-07 3.48857e-06 7.33147e-06 1.20676e-05
internal_weight=0 82.6674 4.46722 2.05326 1.11247
internal_count=428514 50616 2735 1257 681
is_linear=0
shrinkage=1.15849e-07


Tree=68
num_leaves=6
num_cat=0
split_feature=2 15 20 35 8
split_gain=2868.82 3402.03 7631.14 5774.55 6138.4
threshold=0.87004491158567354 3.1600592582766227 0.81857471022550732 17.385717135460197 -1.3297186413338393
decision_type=2 2 2 2 2
left_child=1 -1 -3 4 -4
right_child=-2 2 3 -5 -6
leaf_value=2.7559909921279757e-07 -4.2519837273680657e-08 2.2098906361766281e-06 1.231627747696268e-05 8.3692875823008489e-06 5.494991745379202e-05
leaf_weight=14.789126499672422 677.58617748878896 6.8732669779565176 0.093145060469396412 0.42318320146296173 0.088351825019344576
leaf_count=9055 414881 4208 57 259 54
internal_value=0 1.29388e-06 3.30766e-06 1.5785e-05 3.30728e-05
internal_weight=0 22.2671 7.47795 0.60468 0.181497
internal_count=428514 13633 4578 370 111
is_linear=0
shrinkage=1.15849e-07


Tree=69
num_leaves=6
num_cat=0
split_feature=2 15 20 35 8
split_gain=2868.82 3402.01 7630.97 5774.22 6137.78
threshold=0.87004491158567354 3.1600592582766227 0.81857471022550732 17.385717135460197 -1.3297186413338393
decision_type=2 2 2 2 2
left_child=1 -1 -3 4 -4
right_child=-2 2 3 -5 -6
leaf_value=2.7559898917779734e-07 -4.251984008692194e-08 2.2098855058840979e-06 1.2316124964986764e-05 8.3692168136901389e-06 5.4946901868581035e-05
leaf_weight=14.789130680728706 677.58612932497635 6.8732821360463268 0.093146203318610787 0.42318673175759614 0.088356663123704382
leaf_count=9055 414881 4208 57 259 54
internal_value=0 1.29388e-06 3.30765e-06 1.57847e-05 3.30717e-05
internal_weight=0 22.2671 7.47797 0.60469 0.181503
internal_count=428514 13633 4578 370 111
is_linear=0
shrinkage=1.15849e-07


Tree=70
num_leaves=6
num_cat=0
split_feature=2 15 19 8 42
split_gain=2868.82 3401.99 3893.88 6126.51 7979.55
threshold=0.87004491158567354 3.1600592582766227 977.88800000000003 0.81696857394482902 0.43040827229171102
decision_type=2 2 2 2 2
left_child=1 -1 -3 4 -4
right_child=-2 2 3 -5 -6
leaf_value=2.7559887813658958e-07 -4.2519832284421917e-08 2.8396927114075834e-06 -1.0511887222694138e-07 -1.1194331597940059e-07 6.3644193291714112e-05
leaf_weight=14.789134882506916 677.58612521598116 7.250880545238032 0.044109677080996224 0.11760368256364018 0.06540250254329294
leaf_count=9055 414881 4439 27 72 40
internal_value=0 1.29387e-06 3.30764e-06 1.8245e-05 3.79627e-05
internal_weight=0 22.2671 7.478 0.227116 0.109512
internal_count=428514 13633 4578 139 67
is_linear=0
shrinkage=1.15849e-07


Tree=71
num_leaves=6
num_cat=0
split_feature=9 20 19 0 43
split_gain=2284.16 3728.09 3937.23 2993.08 3783.74
threshold=-0.47764655528753441 0.63678010151351161 -55.434000000000005 -0.037624110571023092 -8.2138921232108419
decision_type=2 2 2 2 2
left_child=1 -1 3 -3 -5
right_child=-2 2 -4 4 -6
leaf_value=6.7711108873291763e-07 -4.2448043625027883e-08 -1.0652685337972923e-07 4.4183226426931384e-06 6.0259633764542887e-05 1.6760472983328876e-05
leaf_weight=25.852431567269381 672.20238633151166 0.050638713175430894 1.6350436587817954 0.044124350300990045 0.068616524571552984
leaf_count=15829 411584 31 1001 27 42
internal_value=0 1.03193e-06 6.13216e-06 2.32807e-05 3.37895e-05
internal_weight=0 27.6509 1.79842 0.16338 0.112741
internal_count=428514 16930 1101 100 69
is_linear=0
shrinkage=1.15849e-07


Tree=72
num_leaves=6
num_cat=0
split_feature=44 20 15 35 23
split_gain=2035.23 3059.48 4180.88 3621.03 6877.46
threshold=34.287643542636715 0.63678010151351161 3.3362736400113575 19.57580078470415 -0.11004458245504463
decision_type=2 2 2 2 2
left_child=1 -1 -3 4 -4
right_child=-2 2 3 -5 -6
leaf_value=3.7135029246273389e-07 -7.2302986765493358e-08 2.1969969402119262e-07 2.424991540933459e-07 3.4159296156483793e-06 2.2086111019057105e-05
leaf_weight=78.200233557843603 617.18572618451435 2.4139713271288192 0.32177215104456991 1.2462723483331499 0.48524613375775549
leaf_count=47881 377898 1478 197 763 297
internal_value=0 5.39806e-07 3.48854e-06 7.33134e-06 1.33773e-05
internal_weight=0 82.6675 4.46726 2.05329 0.807018
internal_count=428514 50616 2735 1257 494
is_linear=0
shrinkage=1.15849e-07


Tree=73
num_leaves=6
num_cat=0
split_feature=9 21 10 35 21
split_gain=2284.15 2403.39 1889.55 3188.09 1338.5
threshold=-0.47764655528753441 -1.2957386540291116 1.2342341326393746 -62.724773676595504 1.2992519353486125
decision_type=2 2 2 2 2
left_child=1 2 3 -1 -3
right_child=-2 4 -4 -5 -6
leaf_value=4.038464045499676e-05 -4.2448037857116013e-08 4.2842459942956061e-07 1.1143233812333881e-06 8.4656893895340988e-06 2.5449360710638096e-06
leaf_weight=0.045754719525575638 672.20232657215092 21.702375216176737 0.47040204098448157 0.51292622473556793 4.9194374348735428
leaf_count=28 411584 13288 288 314 3012
internal_value=0 1.03193e-06 6.52544e-06 1.10807e-05 8.19552e-07
internal_weight=0 27.6509 1.02908 0.558681 26.6218
internal_count=428514 16930 630 342 16300
is_linear=0
shrinkage=1.15849e-07


Tree=74
num_leaves=6
num_cat=0
split_feature=9 20 15 43 27
split_gain=2284.15 3728.02 2806.86 4638.6 3593.92
threshold=-0.47764655528753441 0.63678010151351161 3.3362736400113575 -2.2587184748263165 0.038402874957597657
decision_type=2 2 2 2 2
left_child=1 -1 -3 4 -4
right_child=-2 2 3 -5 -6
leaf_value=6.7710971815655153e-07 -4.2448029817658576e-08 1.1499440253192809e-06 2.7153110814169261e-05 2.8008295603821834e-06 6.2132280388647939e-06
leaf_weight=25.852476285537708 672.20232626528013 0.82320418790914007 0.27612604259047657 0.51615620369557291 0.18296125531196594
leaf_count=15829 411584 504 169 316 112
internal_value=0 1.03192e-06 6.13208e-06 1.0337e-05 1.88089e-05
internal_weight=0 27.6509 1.79845 0.975244 0.459087
internal_count=428514 16930 1101 597 281
is_linear=0
shrinkage=1.15849e-07


Tree=75
num_leaves=6
num_cat=0
split_feature=2 15 44 27 41
split_gain=2868.81 3401.97 3873.58 3263.96 4804.46
threshold=0.87004491158567354 3.1600592582766227 35.116612942419017 0.041075198208306705 -154.02977207696426
decision_type=2 2 2 2 2
left_child=1 -1 3 4 -3
right_child=-2 2 -4 -5 -6
leaf_value=2.7559858893843391e-07 -4.2519831336037963e-08 3.5335979707734121e-05 1.1331583753372797e-06 2.3808912156232337e-06 8.4568084316741212e-06
leaf_weight=14.789145806687886 677.58604929968715 0.094751756754703709 4.4510890789097175 1.3917088033631442 1.5404857032699504
leaf_count=9055 414881 58 2725 852 943
internal_value=0 1.29387e-06 3.30762e-06 6.50498e-06 1.00146e-05
internal_weight=0 22.2672 7.47804 3.02695 1.63524
internal_count=428514 13633 4578 1853 1001
is_linear=0
shrinkage=1.15849e-07


Tree=76
num_leaves=6
num_cat=0
split_feature=2 15 20 35 5
split_gain=2868.8 3401.95 7630.64 5773.58 5085.76
threshold=0.87004491158567354 3.1600592582766227 0.81857471022550732 17.385717135460197 -0.14840842838648285
decision_type=2 2 2 2 2
left_child=1 -1 -3 4 -4
right_child=-2 2 3 -5 -6
leaf_value=2.7559847849775906e-07 -4.2519823420619832e-08 2.2098624522738525e-06 5.6236807876677151e-06 8.3690498955213328e-06 4.677569773787358e-05
leaf_weight=14.789149977965282 677.58604800351895 6.8733502613613373 0.060467224102467299 0.42319505265913904 0.12104746804106969
leaf_count=9055 414881 4208 37 259 74
internal_value=0 1.29387e-06 3.30761e-06 1.57842e-05 3.30696e-05
internal_weight=0 22.2672 7.47806 0.60471 0.181515
internal_count=428514 13633 4578 370 111
is_linear=0
shrinkage=1.15849e-07


Tree=77
num_leaves=6
num_cat=0
split_feature=2 15 20 35 5
split_gain=2868.8 3401.93 7630.48 5773.25 5085.32
threshold=0.87004491158567354 3.1600592582766227 0.81857471022550732 17.385717135460197 -0.14840842838648285
decision_type=2 2 2 2 2
left_child=1 -1 -3 4 -4
right_child=-2 2 3 -5 -6
leaf_value=2.755983673517873e-07 -4.2519826115938366e-08 2.2098573150610229e-06 5.6236486176389368e-06 8.3689791208582404e-06 4.6773512047598794e-05
leaf_weight=14.789154181955384 677.58600075496361 6.8733654352836302 0.060467563569545746 0.42319858504924923 0.1210531115066259
leaf_count=9055 414881 4208 37 259 74
internal_value=0 1.29387e-06 3.3076e-06 1.57839e-05 3.30685e-05
internal_weight=0 22.2672 7.47808 0.604719 0.181521
internal_count=428514 13633 4578 370 111
is_linear=0
shrinkage=1.15849e-07


Tree=78
num_leaves=6
num_cat=0
split_feature=2 15 20 35 8
split_gain=2868.8 3401.92 7630.32 5772.92 6135.92
threshold=0.87004491158567354 3.1600592582766227 0.81857471022550732 17.385717135460197 -1.3297186413338393
decision_type=2 2 2 2 2
left_child=1 -1 -3 4 -4
right_child=-2 2 3 -5 -6
leaf_value=2.7559825664232576e-07 -4.2519818470814139e-08 2.2098521761354604e-06 1.2315154385269559e-05 8.3689083635881479e-06 5.4936610519592825e-05
leaf_weight=14.789158368250357 677.58599524374586 6.8733806052478021 0.093153476365841925 0.42320211417973042 0.088373180828057118
leaf_count=9055 414881 4208 57 259 54
internal_value=0 1.29386e-06 3.30759e-06 1.57837e-05 3.30674e-05
internal_weight=0 22.2673 7.47811 0.604729 0.181527
internal_count=428514 13633 4578 370 111
is_linear=0
shrinkage=1.15849e-07


Tree=79
num_leaves=6
num_cat=0
split_feature=2 15 20 35 8
split_gain=2868.79 3401.9 7630.15 5772.59 6135.31
threshold=0.87004491158567354 3.1600592582766227 0.81857471022550732 17.385717135460197 -1.3297186413338393
decision_type=2 2 2 2 2
left_child=1 -1 -3 4 -4
right_child=-2 2 3 -5 -6
leaf_value=2.755981524927363e-07 -4.2519812972592445e-08 2.2098471006816512e-06 1.2315001570164469e-05 8.3688376350167125e-06 5.493359604689125e-05
leaf_weight=14.78916252218187 677.58595233829692 6.873395587084814 0.093154620029963553 0.42320564354304224 0.088378019863739499
leaf_count=9055 414881 4208 57 259 54
internal_value=0 1.29386e-06 3.30757e-06 1.57834e-05 3.30663e-05
internal_weight=0 22.2673 7.47813 0.604738 0.181533
internal_count=428514 13633 4578 370 111
is_linear=0
shrinkage=1.15849e-07


Tree=80
num_leaves=6
num_cat=0
split_feature=9 20 19 43 18
split_gain=2284.15 3727.96 3936.91 2970.72 1561.37
threshold=-0.47764655528753441 0.63678010151351161 -55.434000000000005 -7.2657366501352643 0.76634476279844144
decision_type=2 2 2 2 2
left_child=1 -1 3 -3 -4
right_child=-2 2 4 -5 -6
leaf_value=6.7710896461256783e-07 -4.244803065231665e-08 4.2410484163333783e-05 3.6593436123691002e-06 1.0515995134226166e-05 2.1316056334192442e-05
leaf_weight=25.852500849636275 672.20225975441281 0.065368427312932909 1.5648313497658803 0.098020752659067623 0.070247657364234439
leaf_count=15829 411584 40 958 60 43
internal_value=0 1.03192e-06 6.13201e-06 2.32793e-05 4.41822e-06
internal_weight=0 27.651 1.79847 0.163389 1.63508
internal_count=428514 16930 1101 100 1001
is_linear=0
shrinkage=1.15849e-07


Tree=81
num_leaves=6
num_cat=0
split_feature=9 20 4 24 27
split_gain=2284.14 3727.93 5469.44 3984.92 2990.23
threshold=-0.47764655528753441 0.63678010151351161 -0.12446256350415665 -85.513994173271769 0.011015060251337151
decision_type=2 2 2 2 2
left_child=1 -1 3 -3 -5
right_child=-2 2 -4 4 -6
leaf_value=6.7710840975303183e-07 -4.2448022604538066e-08 4.0572979445988944e-05 3.0569927255750705e-06 3.4366448194798301e-05 4.7722706753190227e-06
leaf_weight=25.852518946398053 672.20225943124387 0.088250799220986664 1.4602733592037098 0.060459612403065077 0.18949540506582707
leaf_count=15829 411584 54 894 37 116
internal_value=0 1.03192e-06 6.13197e-06 1.94074e-05 1.19325e-05
internal_weight=0 27.651 1.79848 0.338206 0.249955
internal_count=428514 16930 1101 207 153
is_linear=0
shrinkage=1.15849e-07


Tree=82
num_leaves=6
num_cat=0
split_feature=2 15 20 35 8
split_gain=2868.79 3401.88 7629.96 5772.22 6134.67
threshold=0.87004491158567354 3.1600592582766227 0.81857471022550732 17.385717135460197 -1.3297186413338393
decision_type=2 2 2 2 2
left_child=1 -1 -3 4 -4
right_child=-2 2 3 -5 -6
leaf_value=2.7559795673967592e-07 -4.2519815627651212e-08 2.2098410214981202e-06 1.231478588857681e-05 8.3687509290370242e-06 5.4930343476665795e-05
leaf_weight=14.789169701747598 677.58590501954313 6.8734135627746573 0.09315623773727566 0.42320996534544975 0.08838324190583069
leaf_count=9055 414881 4208 57 259 54
internal_value=0 1.29386e-06 3.30756e-06 1.57831e-05 3.30651e-05
internal_weight=0 22.2673 7.47816 0.604749 0.181539
internal_count=428514 13633 4578 370 111
is_linear=0
shrinkage=1.15849e-07


Tree=83
num_leaves=6
num_cat=0
split_feature=2 15 20 35 8
split_gain=2868.78 3401.86 7629.8 5771.89 6134.05
threshold=0.87004491158567354 3.1600592582766227 0.81857471022550732 17.385717135460197 -1.3297186413338393
decision_type=2 2 2 2 2
left_child=1 -1 -3 4 -4
right_child=-2 2 3 -5 -6
leaf_value=2.7559784546984523e-07 -4.2519807950432053e-08 2.2098358835901705e-06 1.2314633308441475e-05 8.3686801864451827e-06 5.492732992456923e-05
leaf_weight=14.789173913770357 677.58589986339211 6.8734287203988051 0.093157380819320679 0.42321349389385432 0.08838808094151307
leaf_count=9055 414881 4208 57 259 54
internal_value=0 1.29386e-06 3.30755e-06 1.57829e-05 3.3064e-05
internal_weight=0 22.2674 7.47819 0.604759 0.181545
internal_count=428514 13633 4578 370 111
is_linear=0
shrinkage=1.15849e-07


Tree=84
num_leaves=6
num_cat=0
split_feature=2 15 20 31 4
split_gain=2868.78 3401.84 7629.63 5439.52 4706.46
threshold=0.87004491158567354 3.1600592582766227 0.81857471022550732 2.8002462673514361 0.15439526836400977
decision_type=2 2 2 2 2
left_child=1 -1 -3 -4 -5
right_child=-2 2 3 4 -6
leaf_value=2.7559773546319684e-07 -4.2519803151583924e-08 2.2098307505407149e-06 1.1287189106874807e-05 1.4046529269933325e-05 6.8141001234090585e-05
leaf_weight=14.789178085513415 677.58585650485475 6.873443884891457 0.51808444329071779 0.040865561459213495 0.045818462735041976
leaf_count=9055 414881 4208 317 25 28
internal_value=0 1.29386e-06 3.30754e-06 1.57826e-05 4.26449e-05
internal_weight=0 22.2674 7.47821 0.604768 0.086684
internal_count=428514 13633 4578 370 53
is_linear=0
shrinkage=1.15849e-07


Tree=85
num_leaves=6
num_cat=0
split_feature=2 15 20 31 4
split_gain=2868.77 3401.83 7629.47 5439.15 4705.87
threshold=0.87004491158567354 3.1600592582766227 0.81857471022550732 2.8002462673514361 0.15439526836400977
decision_type=2 2 2 2 2
left_child=1 -1 -3 -4 -5
right_child=-2 2 3 4 -6
leaf_value=2.7559762437508881e-07 -4.2519805424920219e-08 2.2098256318013257e-06 1.1287060837686882e-05 1.4046330633312161e-05 6.8136365693922761e-05
leaf_weight=14.789182286127472 677.58580851531588 6.8734590236563227 0.51809027325361956 0.040866134106181562 0.045821574982255697
leaf_count=9055 414881 4208 317 25 28
internal_value=0 1.29386e-06 3.30753e-06 1.57824e-05 4.2643e-05
internal_weight=0 22.2674 7.47824 0.604778 0.0866877
internal_count=428514 13633 4578 370 53
is_linear=0
shrinkage=1.15849e-07


Tree=86
num_leaves=6
num_cat=0
split_feature=2 15 20 35 8
split_gain=2868.77 3401.81 7629.31 5771.31 6132.95
threshold=0.87004491158567354 3.1600592582766227 0.81857471022550732 17.385717135460197 -1.3297186413338393
decision_type=2 2 2 2 2
left_child=1 -1 -3 4 -4
right_child=-2 2 3 -5 -6
leaf_value=2.7559751364959458e-07 -4.2519797263989052e-08 2.2098205101218259e-06 1.2314201107550669e-05 8.3683588048390897e-06 5.4921558993942306e-05
leaf_weight=14.789186469977723 677.58580807165708 6.8734741716179988 0.093160620192065835 0.42322952393442392 0.088397348998114356
leaf_count=9055 414881 4208 57 259 54
internal_value=0 1.29385e-06 3.30752e-06 1.57821e-05 3.30617e-05
internal_weight=0 22.2674 7.47826 0.604787 0.181558
internal_count=428514 13633 4578 370 111
is_linear=0
shrinkage=1.15849e-07


Tree=87
num_leaves=6
num_cat=0
split_feature=2 15 19 42 3
split_gain=2868.76 3401.79 3893.34 5007.51 6724.58
threshold=0.87004491158567354 3.1600592582766227 977.88800000000003 0.43040827229171102 0.36680564202313365
decision_type=2 2 2 2 2
left_child=1 -1 -3 -4 -5
right_child=-2 2 3 4 -6
leaf_value=2.7559741556334896e-07 -4.2519799971695324e-08 2.8395844718641388e-06 -1.1150274088315359e-07 5.754048973705904e-05 2.1620715867219724e-06
leaf_weight=14.789190323906952 677.58576013753191 7.2511460570385671 0.10618177673313756 0.070316946832463145 0.050641573616303504
leaf_count=9055 414881 4439 65 43 31
internal_value=0 1.29385e-06 3.3075e-06 1.82431e-05 3.43593e-05
internal_weight=0 22.2675 7.47829 0.22714 0.120959
internal_count=428514 13633 4578 139 74
is_linear=0
shrinkage=1.15849e-07


Tree=88
num_leaves=6
num_cat=0
split_feature=9 19 41 0 11
split_gain=2284.14 2868.67 2622.59 4740.15 3130.42
threshold=-0.47764655528753441 -4.8334999999999999 -9.8874358322075597 -0.037624110571023092 0.24728343273527251
decision_type=2 2 2 2 2
left_child=1 2 3 -1 -5
right_child=-2 -3 -4 4 -6
leaf_value=-1.1382179825458468e-07 -4.2448018598591708e-08 6.6169360761334392e-07 2.9524979588112993e-06 1.2214751578016049e-05 3.7977246417961739e-05
leaf_weight=0.21723051730077714 672.20221635221969 25.173257460119203 2.0008023804985013 0.15028277388773892 0.10947037430014461
leaf_count=133 411584 15413 1225 92 67
internal_value=0 1.03192e-06 4.79306e-06 1.25127e-05 2.3074e-05
internal_weight=0 27.651 2.47779 0.476984 0.259753
internal_count=428514 16930 1517 292 159
is_linear=0
shrinkage=1.15849e-07


Tree=89
num_leaves=6
num_cat=0
split_feature=2 15 19 29 19
split_gain=2868.76 3401.77 3893.25 5618.52 3018.44
threshold=0.87004491158567354 3.1600592582766227 977.88800000000003 2.7547539829508101 -14.244999999999999
decision_type=2 2 2 2 2
left_child=1 -1 4 -4 -3
right_child=-2 2 3 -5 -6
leaf_value=2.7559726906390339e-07 -4.2519797387740519e-08 8.3728008375627281e-06 -1.1176557380381739e-07 3.6325476473154038e-05 1.8297715981408668e-06
leaf_weight=14.789195738849232 677.58573554619215 1.1190183676080776 0.1127121434547006 0.11443230672739446 6.1321518326876676
leaf_count=9055 414881 685 69 70 3754
internal_value=0 1.29385e-06 3.30749e-06 1.82427e-05 2.83957e-06
internal_weight=0 22.2675 7.47831 0.227144 7.25117
internal_count=428514 13633 4578 139 4439
is_linear=0
shrinkage=1.15849e-07


Tree=90
num_leaves=6
num_cat=0
split_feature=2 15 20 35 8
split_gain=2868.76 3401.75 7629.04 5770.79 6131.99
threshold=0.87004491158567354 3.1600592582766227 0.81857471022550732 17.385717135460197 -1.3297186413338393
decision_type=2 2 2 2 2
left_child=1 -1 -3 4 -4
right_child=-2 2 3 -5 -6
leaf_value=2.7559715872284412e-07 -4.2519792168939887e-08 2.2097998191668857e-06 1.2313930808819587e-05 8.3682247684897348e-06 5.4916786794950217e-05
leaf_weight=14.789199901395479 677.58568761474453 6.873535346472635 0.093162645818665624 0.42323621164541692 0.088405014481395372
leaf_count=9055 414881 4208 57 259 54
internal_value=0 1.29385e-06 3.30748e-06 1.57817e-05 3.30599e-05
internal_weight=0 22.2675 7.47834 0.604804 0.181568
internal_count=428514 13633 4578 370 111
is_linear=0
shrinkage=1.15849e-07


Tree=91
num_leaves=6
num_cat=0
split_feature=2 15 19 8 42
split_gain=2868.75 3401.74 3893.11 6124.21 7974.64
threshold=0.87004491158567354 3.1600592582766227 977.88800000000003 0.81696857394482902 0.43040827229171102
decision_type=2 2 2 2 2
left_child=1 -1 -3 4 -4
right_child=-2 2 3 -5 -6
leaf_value=2.755970599760532e-07 -4.251978423113171e-08 2.8395570484609167e-06 -1.0511954758405067e-07 -1.1194351047840041e-07 6.3618205760833718e-05
leaf_weight=14.789203789900059 677.58568721008487 7.2512133850250384 0.044112352887168416 0.11760896560736001 0.065429169335402548
leaf_count=9055 414881 4439 27 72 40
internal_value=0 1.29385e-06 3.30747e-06 1.82422e-05 3.79525e-05
internal_weight=0 22.2676 7.47836 0.22715 0.109542
internal_count=428514 13633 4578 139 67
is_linear=0
shrinkage=1.15849e-07


Tree=92
num_leaves=6
num_cat=0
split_feature=44 20 43 36 23
split_gain=2035.22 3059.37 2305.71 3119.52 4718.26
threshold=34.287643542636715 0.63678010151351161 -2.4508496153635981 -66.844928849707372 -0.11004458245504463
decision_type=2 2 2 2 2
left_child=1 -1 3 4 -3
right_child=-2 2 -4 -5 -6
leaf_value=3.7134936285390213e-07 -7.2302967282145413e-08 2.0647415115145456e-07 9.0285250020911171e-07 2.133604591254381e-06 1.6765693344694134e-05
leaf_weight=78.200383121613413 617.18547080212738 0.35771439969539642 2.2735549529315895 1.1842115832259876 0.6519003820139917
leaf_count=47881 377898 219 1392 725 399
internal_value=0 5.39803e-07 3.48844e-06 6.16777e-06 1.08991e-05
internal_weight=0 82.6678 4.46738 2.19383 1.00961
internal_count=428514 50616 2735 1343 618
is_linear=0
shrinkage=1.15849e-07


Tree=93
num_leaves=6
num_cat=0
split_feature=2 15 20 35 8
split_gain=2868.75 3401.72 7628.8 5770.28 6131.06
threshold=0.87004491158567354 3.1600592582766227 0.81857471022550732 17.385717135460197 -1.3297186413338393
decision_type=2 2 2 2 2
left_child=1 -1 -3 4 -4
right_child=-2 2 3 -5 -6
leaf_value=2.7559680525533147e-07 -4.2519784291643301e-08 2.2097865614620775e-06 1.2313698088042307e-05 8.3681210956327467e-06 5.4912204239874422e-05
leaf_weight=14.78921315202024 677.58562892058399 6.873574524652212 0.093164390535093844 0.42324138130061328 0.088412376237101742
leaf_count=9055 414881 4208 57 259 54
internal_value=0 1.29384e-06 3.30746e-06 1.57813e-05 3.30582e-05
internal_weight=0 22.2676 7.47839 0.604818 0.181577
internal_count=428514 13633 4578 370 111
is_linear=0
shrinkage=1.15849e-07


Tree=94
num_leaves=6
num_cat=0
split_feature=9 20 4 35 27
split_gain=2284.13 3727.83 5469.11 4349.03 3632.32
threshold=-0.47764655528753441 0.63678010151351161 -0.12446256350415665 -23.866093333151657 0.04570623998168661
decision_type=2 2 2 2 2
left_child=1 -1 3 -3 -5
right_child=-2 2 -4 4 -6
leaf_value=6.7710656722939986e-07 -4.2448011040234023e-08 4.5441580537118107e-05 3.056942032677877e-06 2.6803443668656132e-05 -1.1261044320578523e-07
leaf_weight=25.85257899644785 672.2021661598701 0.068647996056824923 1.4602966897655265 0.12908840144518774 0.14048446924425662
leaf_count=15829 411584 42 894 79 86
internal_value=0 1.03192e-06 6.13183e-06 1.94065e-05 1.27747e-05
internal_weight=0 27.6511 1.79852 0.338221 0.269573
internal_count=428514 16930 1101 207 165
is_linear=0
shrinkage=1.15849e-07


Tree=95
num_leaves=6
num_cat=0
split_feature=2 15 20 35 8
split_gain=2868.74 3401.7 7628.63 5769.94 6130.43
threshold=0.87004491158567354 3.1600592582766227 0.81857471022550732 17.385717135460197 -1.3297186413338393
decision_type=2 2 2 2 2
left_child=1 -1 -3 4 -4
right_child=-2 2 3 -5 -6
leaf_value=2.7559663324463939e-07 -4.2519781668085841e-08 2.2097808969869058e-06 1.2313523039509204e-05 8.3680416790334903e-06 5.4909096347802572e-05
leaf_weight=14.789219778263943 677.58560480363667 6.873591238516382 0.093165702070109546 0.42324534174986184 0.088417369755916186
leaf_count=9055 414881 4208 57 259 54
internal_value=0 1.29384e-06 3.30744e-06 1.57811e-05 3.30571e-05
internal_weight=0 22.2676 7.47842 0.604828 0.181583
internal_count=428514 13633 4578 370 111
is_linear=0
shrinkage=1.15849e-07


Tree=96
num_leaves=6
num_cat=0
split_feature=21 43 20 10 35
split_gain=1403.66 1882.9 2430.53 4635.66 7645.46
threshold=-1.0000000180025095e-35 -2.2587184748263165 0.74997375517166687 1.4905790683069575 19.57580078470415
decision_type=2 2 2 2 2
left_child=1 2 -1 4 -4
right_child=-2 -3 3 -5 -6
leaf_value=5.485620810496389e-07 -2.478038282642141e-08 3.0339386954041562e-07 2.3993268210145234e-05 1.297331790648067e-07 3.7949395093973931e-06
leaf_weight=2.2653589770197859 684.24386372638401 11.323245927342212 0.39880916825495683 0.94077728642150749 0.68117317114956677
leaf_count=1387 418957 6933 244 576 417
internal_value=0 1.08626e-06 3.15435e-06 6.07532e-06 1.12541e-05
internal_weight=0 15.6094 4.28612 2.02076 1.07998
internal_count=428514 9557 2624 1237 661
is_linear=0
shrinkage=1.15849e-07


Tree=97
num_leaves=6
num_cat=0
split_feature=2 15 19 8 42
split_gain=2868.74 3401.68 3892.89 6123.47 7973.01
threshold=0.87004491158567354 3.1600592582766227 977.88800000000003 0.81696857394482902 0.43040827229171102
decision_type=2 2 2 2 2
left_child=1 -1 -3 4 -4
right_child=-2 2 3 -5 -6
leaf_value=2.7559649091232413e-07 -4.2519777671420887e-08 2.8395263769159307e-06 -1.051196727752886e-07 -1.1194353311789009e-07 6.3609780898563268e-05
leaf_weight=14.789225153275767 677.58556723536458 7.2512885878095394 0.044112856267019995 0.11760966456495225 0.065437820390798151
leaf_count=9055 414881 4439 27 72 40
internal_value=0 1.29384e-06 3.30743e-06 1.82414e-05 3.79493e-05
internal_weight=0 22.2677 7.47845 0.22716 0.109551
internal_count=428514 13633 4578 139 67
is_linear=0
shrinkage=1.15849e-07


Tree=98
num_leaves=6
num_cat=0
split_feature=2 15 19 8 42
split_gain=2868.73 3401.66 3892.79 6123.13 7972.2
threshold=0.87004491158567354 3.1600592582766227 977.88800000000003 0.81696857394482902 0.43040827229171102
decision_type=2 2 2 2 2
left_child=1 -1 -3 4 -4
right_child=-2 2 3 -5 -6
leaf_value=2.7559638018245445e-07 -4.2519772580414127e-08 2.8395179846232093e-06 -1.0511967422431079e-07 -1.1194353561996977e-07 6.3605740123820641e-05
leaf_weight=14.78922935202718 677.58552305283956 7.2513091852888456 0.044112850911915191 0.11760965012945235 0.065441969432868063
leaf_count=9055 414881 4439 27 72 40
internal_value=0 1.29384e-06 3.30742e-06 1.82411e-05 3.79479e-05
internal_weight=0 22.2677 7.47847 0.227164 0.109555
internal_count=428514 13633 4578 139 67
is_linear=0
shrinkage=1.15849e-07


Tree=99
num_leaves=6
num_cat=0
split_feature=9 20 15 41 42
split_gain=2284.13 3727.78 2806.54 4428.97 3579.71
threshold=-0.47764655528753441 0.63678010151351161 3.3362736400113575 -2.9127231637730104 -1.2617530664058498
decision_type=2 2 2 2 2
left_child=1 -1 -3 4 -4
right_child=-2 2 3 -5 -6
leaf_value=6.7710590329985249e-07 -4.2448006118144638e-08 1.1499164307399164e-06 8.0444332384358672e-06 2.8476076672133028e-06 2.8335251678757301e-05
leaf_weight=25.852600737940524 672.20211240043864 0.82322213670704403 0.22708325390703976 0.50800920266192406 0.24022198631428182
leaf_count=15829 411584 504 139 311 147
internal_value=0 1.03192e-06 6.13177e-06 1.03362e-05 1.84761e-05
internal_weight=0 27.6511 1.79854 0.975314 0.467305
internal_count=428514 16930 1101 597 286
is_linear=0
shrinkage=1.15849e-07


Tree=100
num_leaves=6
num_cat=0
split_feature=21 43 20 35 23
split_gain=1403.65 1882.88 2430.48 4108.62 10551.7
threshold=-1.0000000180025095e-35 -2.2587184748263165 0.74997375517166687 19.57580078470415 -0.023777584637759999
decision_type=2 2 2 2 2
left_child=1 2 -1 4 -4
right_child=-2 -3 3 -5 -6
leaf_value=5.485606740772566e-07 -2.4780379054172213e-08 3.0339360639377283e-07 3.138402444711466e-06 2.068695833779686e-06 3.2300789353420503e-05
leaf_weight=2.2653637535404405 684.24383124557789 11.323253238340838 0.4982142485678196 1.2724214149639008 0.25014686316717449
leaf_count=1387 418957 6933 305 779 153
internal_value=0 1.08626e-06 3.15433e-06 6.07525e-06 1.28869e-05
internal_weight=0 15.6094 4.28615 2.02078 0.748361
internal_count=428514 9557 2624 1237 458
is_linear=0
shrinkage=1.15849e-07


Tree=101
num_leaves=6
num_cat=0
split_feature=2 15 20 35 5
split_gain=2868.73 3401.64 7628.21 5769.08 5081.08
threshold=0.87004491158567354 3.1600592582766227 0.81857471022550732 17.385717135460197 -0.14840842838648285
decision_type=2 2 2 2 2
left_child=1 -1 -3 4 -4
right_child=-2 2 3 -5 -6
leaf_value=2.7559620806149207e-07 -4.2519763914358574e-08 2.2097598720721957e-06 5.6223963976990827e-06 8.3678557027748746e-06 4.6748439624428861e-05
leaf_weight=14.789235858246686 677.58550465328153 6.8736533761257297 0.060480757965706289 0.42325462447479367 0.12111787358298887
leaf_count=9055 414881 4208 37 259 74
internal_value=0 1.29383e-06 3.3074e-06 1.57804e-05 3.30542e-05
internal_weight=0 22.2677 7.47851 0.604853 0.181599
internal_count=428514 13633 4578 370 111
is_linear=0
shrinkage=1.15849e-07


Tree=102
num_leaves=6
num_cat=0
split_feature=2 15 20 31 27
split_gain=2868.72 3401.62 7628.05 5436.99 3698.2
threshold=0.87004491158567354 3.1600592582766227 0.81857471022550732 2.8002462673514361 0.0010170189726616001
decision_type=2 2 2 2 2
left_child=1 -1 -3 4 -4
right_child=-2 2 3 -5 -6
leaf_value=2.7559609830892995e-07 -4.2519766028733777e-08 2.2097547414538242e-06 3.2178485613433914e-05 4.2631644095951066e-05 6.699131009727637e-06
leaf_weight=14.789240007987248 677.58545725222211 6.8736685295589259 0.093254003790207096 0.08671083115041256 0.42489793361164629
leaf_count=9055 414881 4208 57 53 260
internal_value=0 1.29383e-06 3.30739e-06 1.57802e-05 1.12857e-05
internal_weight=0 22.2678 7.47853 0.604863 0.518152
internal_count=428514 13633 4578 370 317
is_linear=0
shrinkage=1.15849e-07


Tree=103
num_leaves=6
num_cat=0
split_feature=2 15 20 35 8
split_gain=2868.72 3401.6 7627.88 5768.61 6128
threshold=0.87004491158567354 3.1600592582766227 0.81857471022550732 17.385717135460197 -1.3297186413338393
decision_type=2 2 2 2 2
left_child=1 -1 -3 4 -4
right_child=-2 2 3 -5 -6
leaf_value=2.7559598738518623e-07 -4.2519757925176513e-08 2.2097496174214494e-06 1.2312802379221916e-05 8.3676639558156031e-06 5.4896887118457948e-05
leaf_weight=14.789244202082047 677.58545608038548 6.8736836577299973 0.093171104206703603 0.42326418519951403 0.088436992373317369
leaf_count=9055 414881 4208 57 259 54
internal_value=0 1.29383e-06 3.30738e-06 1.57799e-05 3.30525e-05
internal_weight=0 22.2678 7.47856 0.604872 0.181608
internal_count=428514 13633 4578 370 111
is_linear=0
shrinkage=1.15849e-07


Tree=104
num_leaves=6
num_cat=0
split_feature=2 15 20 35 8
split_gain=2868.71 3401.59 7627.72 5768.28 6127.38
threshold=0.87004491158567354 3.1600592582766227 0.81857471022550732 17.385717135460197 -1.3297186413338393
decision_type=2 2 2 2 2
left_child=1 -1 -3 4 -4
right_child=-2 2 3 -5 -6
leaf_value=2.7559589118997898e-07 -4.2519760762318968e-08 2.2097444810101907e-06 1.2312649680626344e-05 8.367593257816531e-06 5.4893877656246084e-05
leaf_weight=14.789247852982955 677.58540818968322 6.8736988338641813 0.093172247987240553 0.42326771491207182 0.088441830594092496
leaf_count=9055 414881 4208 57 259 54
internal_value=0 1.29383e-06 3.30737e-06 1.57797e-05 3.30514e-05
internal_weight=0 22.2678 7.47858 0.604882 0.181614
internal_count=428514 13633 4578 370 111
is_linear=0
shrinkage=1.15849e-07


Tree=105
num_leaves=6
num_cat=0
split_feature=2 15 19 8 42
split_gain=2868.71 3401.57 3892.5 6122.18 7970.12
threshold=0.87004491158567354 3.1600592582766227 977.88800000000003 0.81696857394482902 0.43040827229171102
decision_type=2 2 2 2 2
left_child=1 -1 -3 4 -4
right_child=-2 2 3 -5 -6
leaf_value=2.755957865307866e-07 -4.2519752688004993e-08 2.8394696364769232e-06 -1.0511985246919357e-07 -1.119435776796287e-07 6.3594913665852693e-05
leaf_weight=14.789251712965781 677.58540771494154 7.2514277828158802 0.044113564887083956 0.11761086480692029 0.065453090122900903
leaf_count=9055 414881 4439 27 72 40
internal_value=0 1.29383e-06 3.30736e-06 1.82401e-05 3.79438e-05
internal_weight=0 22.2679 7.47861 0.227178 0.109567
internal_count=428514 13633 4578 139 67
is_linear=0
shrinkage=1.15849e-07


Tree=106
num_leaves=6
num_cat=0
split_feature=2 15 44 28 41
split_gain=2868.7 3401.55 3873.12 2496.22 6814.05
threshold=0.87004491158567354 3.1600592582766227 35.116612942419017 8941.6787500000028 -154.02977207696426
decision_type=2 2 2 2 2
left_child=1 -1 3 -3 -5
right_child=-2 2 -4 4 -6
leaf_value=2.7559567799146376e-07 -4.2519748261510158e-08 3.4645379895918457e-06 1.1330722441327897e-06 4.7143290825130572e-05 8.3504312090480062e-06
leaf_weight=14.789255909970963 677.5853597788373 1.6499678944237524 4.4513959331670776 0.063724759034812339 1.3135414414573459
leaf_count=9055 414881 1010 2725 39 804
internal_value=0 1.29383e-06 3.30735e-06 6.50435e-06 1.01457e-05
internal_weight=0 22.2679 7.47863 3.02723 1.37727
internal_count=428514 13633 4578 1853 843
is_linear=0
shrinkage=1.15849e-07


Tree=107
num_leaves=6
num_cat=0
split_feature=2 21 35 19 22
split_gain=2868.7 2723.31 1998.63 2951.12 2476.34
threshold=0.87004491158567354 -1.2957386540291116 15.923999316470855 977.88800000000003 -0.1959481004251368
decision_type=2 2 2 2 2
left_child=1 2 3 4 -1
right_child=-2 -3 -4 -5 -6
leaf_value=1.7600669257287041e-05 -4.2519750372863545e-08 9.1006980053414968e-07 3.0533954260692496e-06 3.628922909329472e-05 1.1485542390532792e-06
leaf_weight=0.22229825111571699 677.58531237358693 20.434731002082117 1.2791703802067784 0.05726636026520282 0.2744488562457289
leaf_count=136 414881 12511 783 35 168
internal_value=0 1.29382e-06 5.57131e-06 1.13841e-05 8.51198e-06
internal_weight=0 22.2679 1.83318 0.554013 0.496747
internal_count=428514 13633 1122 339 304
is_linear=0
shrinkage=1.15849e-07


Tree=108
num_leaves=6
num_cat=0
split_feature=2 15 20 35 8
split_gain=2868.7 3401.53 7627.42 5767.65 6126.28
threshold=0.87004491158567354 3.1600592582766227 0.81857471022550732 17.385717135460197 -1.3297186413338393
decision_type=2 2 2 2 2
left_child=1 -1 -3 4 -4
right_child=-2 2 3 -5 -6
leaf_value=2.7559512450987312e-07 -4.2519742128041084e-08 2.2097215366743657e-06 1.2312315407477117e-05 8.3674508822721714e-06 5.4888318754207782e-05
leaf_weight=14.789276579977015 677.58531119453255 6.8737666787346816 0.093174754176288843 0.42327481938991696 0.088450768613256403
leaf_count=9055 414881 4208 57 259 54
internal_value=0 1.29382e-06 3.30733e-06 1.57792e-05 3.30493e-05
internal_weight=0 22.2679 7.47867 0.6049 0.181626
internal_count=428514 13633 4578 370 111
is_linear=0
shrinkage=1.15849e-07


Tree=109
num_leaves=6
num_cat=0
split_feature=22 43 10 19 4
split_gain=1334.22 1754.52 2364.56 5512.48 3934.65
threshold=1.0000000180025095e-35 -2.2587184748263165 0.82138378646936439 680.77449999999999 -0.28333154369275043
decision_type=2 2 2 2 2
left_child=1 2 3 4 -1
right_child=-2 -3 -4 -5 -6
leaf_value=4.1222558986020225e-05 -2.512358997804247e-08 2.7676431321792186e-07 2.171774128361046e-06 5.2928297405584547e-05 1.9929213590806186e-06
leaf_weight=0.039222378050908446 683.00412818952464 12.090889277053064 4.4052617701236159 0.03930282685905695 0.27443131397012877
leaf_count=24 418198 7403 2697 24 168
internal_value=0 1.01842e-06 2.90292e-06 1.20269e-05 6.90015e-06
internal_weight=0 16.8491 4.75822 0.352957 0.313654
internal_count=428514 10316 2913 216 192
is_linear=0
shrinkage=1.15849e-07


Tree=110
num_leaves=6
num_cat=0
split_feature=2 15 20 28 44
split_gain=2868.69 3401.51 7627.21 4729.49 2866.52
threshold=0.87004491158567354 3.1600592582766227 0.81857471022550732 279187.874573707 33.724707662541299
decision_type=2 2 2 2 2
left_child=1 -1 4 -4 -3
right_child=-2 2 3 -5 -6
leaf_value=2.7559499983325376e-07 -4.2519739049923003e-08 5.4048791097946753e-06 1.1914426051606509e-05 4.2943649456906804e-05 4.5791191775723811e-07
leaf_weight=14.78928121214267 677.58527442871127 2.4340242210309944 0.52959154348354776 0.075320781674236059 4.4397597061470151
leaf_count=9055 414881 1490 324 46 2718
internal_value=0 1.29382e-06 3.30732e-06 1.57789e-05 2.20972e-06
internal_weight=0 22.268 7.4787 0.604912 6.87378
internal_count=428514 13633 4578 370 4208
is_linear=0
shrinkage=1.15849e-07


Tree=111
num_leaves=6
num_cat=0
split_feature=9 19 43 26 23
split_gain=2284.12 2868.6 3179.14 3044.4 3056.16
threshold=-0.47764655528753441 -4.8334999999999999 -13.627628827654105 0.081819074599292954 -0.03451280953448204
decision_type=2 2 2 2 2
left_child=1 2 3 4 -1
right_child=-2 -3 -4 -5 -6
leaf_value=-1.068235683230246e-07 -4.2448004625816521e-08 6.6169014553322004e-07 3.0653527088646918e-06 2.7758315113286168e-06 3.2315216381715522e-05
leaf_weight=0.052269170759245753 672.20203179342207 25.173369593918324 2.1119006115477559 0.16007464739959687 0.15358744794502888
leaf_count=32 411584 15413 1293 98 94
internal_value=0 1.03191e-06 4.79297e-06 1.47623e-05 2.40806e-05
internal_weight=0 27.6512 2.47783 0.365931 0.205857
internal_count=428514 16930 1517 224 126
is_linear=0
shrinkage=1.15849e-07


Tree=112
num_leaves=6
num_cat=0
split_feature=20 4 35 23 10
split_gain=1398.93 1600.05 7498.53 7634.89 2601.13
threshold=0.63678010151351161 -0.073821176540989339 -39.689897698209698 -0.0084082464585073478 0.65572265394494167
decision_type=2 2 2 2 2
left_child=-1 2 3 -2 -4
right_child=1 -3 4 -5 -6
leaf_value=-3.3154342093793331e-08 1.041874397838946e-06 4.2783833075609716e-07 2.4697988822438231e-05 4.5364724634525352e-05 1.3978403397462666e-06
leaf_weight=672.30645200097933 0.099633891484700143 23.216814039624296 0.065342191606762579 0.10951948817819346 4.0554988745134324
leaf_count=411648 61 14215 40 67 2483
internal_value=0 8.09164e-07 2.85366e-06 2.42531e-05 1.76742e-06
internal_weight=0 27.5468 4.32999 0.209153 4.12084
internal_count=428514 16866 2651 128 2523
is_linear=0
shrinkage=1.15849e-07


Tree=113
num_leaves=6
num_cat=0
split_feature=9 20 4 35 27
split_gain=2284.12 3727.67 5468.55 4347.91 3631.96
threshold=-0.47764655528753441 0.63678010151351161 -0.12446256350415665 -23.866093333151657 0.04570623998168661
decision_type=2 2 2 2 2
left_child=1 -1 3 -3 -5
right_child=-2 2 -4 4 -6
leaf_value=6.7710419824696032e-07 -4.2448001414331792e-08 4.543451402735982e-05 3.0568654801307188e-06 2.6801364576103596e-05 -1.1261054689686547e-07
leaf_weight=25.852656385279264 672.20200276572723 0.068658645497635007 1.4603319285670282 0.12909837102051835 0.14048851293046027
leaf_count=15829 411584 42 894 79 86
internal_value=0 1.03191e-06 6.13163e-06 1.94051e-05 1.2774e-05
internal_weight=0 27.6512 1.79858 0.338246 0.269587
internal_count=428514 16930 1101 207 165
is_linear=0
shrinkage=1.15849e-07


Tree=114
num_leaves=6
num_cat=0
split_feature=2 15 19 30 42
split_gain=2868.68 3401.48 3892.22 5456.35 5690.17
threshold=0.87004491158567354 3.1600592582766227 977.88800000000003 134.85019791772717 0.43040827229171102
decision_type=2 2 2 2 2
left_child=1 -1 -3 4 -4
right_child=-2 2 3 -5 -6
leaf_value=2.7559476645756055e-07 -4.2519735393702321e-08 2.8394245106883342e-06 -1.0375419063694357e-07 -1.1170290936766433e-07 5.4113169710699448e-05
leaf_weight=14.789289972744884 677.58524395443965 7.251538533717393 0.039209737558849045 0.1110831624828279 0.076897333143278956
leaf_count=9055 414881 4439 24 68 47
internal_value=0 1.29382e-06 3.3073e-06 1.8239e-05 3.57998e-05
internal_weight=0 22.268 7.47873 0.22719 0.116107
internal_count=428514 13633 4578 139 71
is_linear=0
shrinkage=1.15849e-07


Tree=115
num_leaves=6
num_cat=0
split_feature=9 4 21 43 35
split_gain=2284.12 2636.53 3186.16 2716.45 1109.63
threshold=-0.47764655528753441 -0.12446256350415665 -3.2877372220599352 -1.5530915444239251 -99.382293319833835
decision_type=2 2 2 2 2
left_child=1 2 3 -1 -4
right_child=-2 -3 4 -5 -6
leaf_value=4.4763754336891214e-05 -4.2447992049382816e-08 7.1524054084337603e-07 1.3089680476276001e-05 5.1259998159265892e-06 3.194959211772806e-06
leaf_weight=0.049034186755307019 672.20197849057149 25.64216180308722 0.16664395807310972 0.044107965077273881 1.7493177052820121
leaf_count=30 411584 15700 102 27 1071
internal_value=0 1.03191e-06 5.07332e-06 2.59983e-05 4.05582e-06
internal_weight=0 27.6513 2.0091 0.0931422 1.91596
internal_count=428514 16930 1230 57 1173
is_linear=0
shrinkage=1.15849e-07


Tree=116
num_leaves=6
num_cat=0
split_feature=2 20 36 11 21
split_gain=2868.68 3111.06 5294.16 4755.32 4145.96
threshold=0.87004491158567354 0.86111715408175737 -68.325836148519031 0.28220824020251239 6.5797100341593024
decision_type=2 2 2 2 2
left_child=1 -1 3 4 -3
right_child=-2 2 -4 -5 -6
leaf_value=9.6309709355701043e-07 -4.2519735410526619e-08 4.2887428392650724e-05 1.9212388551426856e-06 6.6334186749996205e-06 -1.0375568729382282e-07
leaf_weight=21.040903340792287 677.58517615625169 0.12929835903923959 0.85273531544953474 0.20589940494392067 0.039214441669173539
leaf_count=12882 414881 79 522 126 24
internal_value=0 1.29382e-06 6.96398e-06 1.84477e-05 3.28802e-05
internal_weight=0 22.2681 1.22715 0.374412 0.168513
internal_count=428514 13633 751 229 103
is_linear=0
shrinkage=1.15849e-07


Tree=117
num_leaves=6
num_cat=0
split_feature=2 15 20 35 8
split_gain=2868.68 3401.46 7626.85 5766.66 6124.43
threshold=0.87004491158567354 3.1600592582766227 0.81857471022550732 17.385717135460197 -1.3297186413338393
decision_type=2 2 2 2 2
left_child=1 -1 -3 4 -4
right_child=-2 2 3 -5 -6
leaf_value=2.7559419705935761e-07 -4.251972847823934e-08 2.2096987538939859e-06 1.231178174307859e-05 8.367160607242315e-06 5.487910222608132e-05
leaf_weight=14.789311576401817 677.58517315832432 6.8738339937990522 0.093178755603730679 0.4232893023872748 0.088465592125430592
leaf_count=9055 414881 4208 57 259 54
internal_value=0 1.29381e-06 3.30728e-06 1.57783e-05 3.30459e-05
internal_weight=0 22.2681 7.47877 0.604934 0.181644
internal_count=428514 13633 4578 370 111
is_linear=0
shrinkage=1.15849e-07


Tree=118
num_leaves=6
num_cat=0
split_feature=2 20 36 31 4
split_gain=2868.67 3111 5293.89 5852.74 2038
threshold=0.87004491158567354 0.86111715408175737 -68.325836148519031 1.141758345792258 -0.50152490200478528
decision_type=2 2 2 2 2
left_child=1 -1 3 -3 -4
right_child=-2 2 4 -5 -6
leaf_value=9.630950194858604e-07 -4.2519730175220253e-08 1.1375678542947209e-05 2.0356528479153976e-05 4.8125302294614034e-05 1.8069752860965445e-07
leaf_weight=21.040943767526191 677.58512757578865 0.30239147134125233 0.073540105950087309 0.072033377015031874 0.77919928601477184
leaf_count=12882 414881 185 45 44 477
internal_value=0 1.29381e-06 6.96388e-06 1.8447e-05 1.92123e-06
internal_weight=0 22.2681 1.22716 0.374425 0.852739
internal_count=428514 13633 751 229 522
is_linear=0
shrinkage=1.15849e-07


Tree=119
num_leaves=6
num_cat=0
split_feature=44 20 15 43 35
split_gain=2035.21 3059.22 4180.2 4056.36 4533.18
threshold=34.287643542636715 0.63678010151351161 3.3362736400113575 -2.2587184748263165 20.491271924005577
decision_type=2 2 2 2 2
left_child=1 -1 -3 4 -4
right_child=-2 2 3 -5 -6
leaf_value=3.7134830982831988e-07 -7.2302939022710038e-08 2.1969314725781368e-07 2.0372353428113006e-05 1.7304781923709283e-06 5.481745538223749e-06
leaf_weight=78.20055261568632 617.1851706012385 2.4140183714916921 0.49190835736226313 0.94083002640400071 0.6207811328349635
leaf_count=47881 377898 1478 301 576 380
internal_value=0 5.39801e-07 3.48831e-06 7.33051e-06 1.20652e-05
internal_weight=0 82.6681 4.46754 2.05352 1.11269
internal_count=428514 50616 2735 1257 681
is_linear=0
shrinkage=1.15849e-07


Tree=120
num_leaves=6
num_cat=0
split_feature=2 15 20 27 40
split_gain=2868.67 3401.43 7626.53 4611.15 4083.81
threshold=0.87004491158567354 3.1600592582766227 0.81857471022550732 0.0015181805068971001 0.22189681153017013
decision_type=2 2 2 2 2
left_child=1 -1 -3 4 -4
right_child=-2 2 3 -5 -6
leaf_value=2.7559363612924389e-07 -4.2519722363566304e-08 2.209690318774211e-06 4.7049663763814539e-05 1.02913444962088e-05 2.824064740376976e-06
leaf_weight=14.789332531392576 677.58511682914104 6.8738589215790844 0.098238358041271456 0.46747490437701344 0.039239061297848821
leaf_count=9055 414881 4208 60 286 24
internal_value=0 1.29381e-06 3.30726e-06 1.57778e-05 3.44302e-05
internal_weight=0 22.2681 7.47881 0.604952 0.137477
internal_count=428514 13633 4578 370 84
is_linear=0
shrinkage=1.15849e-07


Tree=121
num_leaves=6
num_cat=0
split_feature=9 20 4 24 17
